label,d0,d1,d2,d3,d4,d5,d6,d7,d8,d9,d10,d11,d12,d13,d14,d15
TC0000,-0.07963915914297104,0.4289923310279846,-0.6164697408676147,-0.37617388367652893,-0.46823036670684814,0.6220690608024597,-0.6924489736557007,0.7696422338485718,1.069118618965149,0.1220051720738411,2.0252397060394287,-0.16534022986888885,-0.8866624236106873,-0.39449718594551086,0.7331947088241577,0.03397046774625778
TC0001,-0.15746577084064484,1.3025590181350708,-0.724044919013977,-0.14368832111358643,-0.32837074995040894,1.707182765007019,-1.1272432804107666,1.2510097026824951,0.814586341381073,0.42066243290901184,2.7314043045043945,0.09466108679771423,-0.639811098575592,-0.24742361903190613,-0.12935581803321838,0.09599006175994873
TC0002,-0.15619269013404846,1.5950645208358765,-0.5642896890640259,-0.5312573909759521,-0.16863161325454712,1.4954355955123901,-1.2130035161972046,1.4983340501785278,0.8146848678588867,0.2730296552181244,2.576857566833496,0.2132549285888672,-0.9309390187263489,-0.3159147799015045,-0.061153680086135864,-0.18346793949604034
TC0003,-0.8024044632911682,0.23618385195732117,-2.4680497646331787,-0.29494568705558777,1.3919978141784668,0.6644978523254395,-1.1438486576080322,-0.8892409205436707,0.9077688455581665,0.7167942523956299,0.32413142919540405,0.5402066111564636,-1.1641191244125366,0.14148321747779846,0.8843173384666443,-1.5081870555877686
TC0004,-0.5648434162139893,0.11352242529392242,-2.608002185821533,-0.04230305925011635,1.1943432092666626,0.3645767569541931,-1.0613017082214355,-0.8785051107406616,1.5394916534423828,1.0518854856491089,-0.007145213428884745,1.2685694694519043,-0.8335720300674438,0.17119303345680237,1.3205695152282715,-1.2353997230529785
TC0005,0.012890766374766827,-1.82782781124115,-0.6607607007026672,0.39647427201271057,-0.5986681580543518,-0.7396398782730103,0.5218418836593628,-1.0213347673416138,0.6475112438201904,0.020631857216358185,-0.3847062885761261,0.4335467219352722,-0.8183292746543884,0.13308750092983246,-0.8376846313476562,-0.16466230154037476
TC0006,-0.3407881259918213,1.1142351627349854,0.3244742155075073,-0.8732175230979919,1.6062123775482178,-0.22603431344032288,-1.4983711242675781,-0.2308964729309082,0.12541860342025757,1.7606245279312134,1.0398797988891602,0.7389984726905823,-1.4938665628433228,0.321204274892807,0.3190889358520508,1.7403799295425415
TC0007,-0.187646746635437,0.4614737331867218,-1.3443787097930908,-0.5234841108322144,1.5252188444137573,0.8644537925720215,-0.6750772595405579,-2.25708270072937,-0.4927038550376892,1.3666319847106934,-1.0169167518615723,0.1251235455274582,-0.7522121071815491,0.7401531338691711,0.09287742525339127,-0.5077484250068665
TC0008,-0.12264009565114975,-0.3720153570175171,-1.2497620582580566,-0.49334996938705444,-0.5380364060401917,0.8517583012580872,0.8169508576393127,0.7410872578620911,-0.6094372272491455,-1.0723017454147339,-0.22829295694828033,1.1671253442764282,-0.5905726552009583,0.8103322982788086,0.9848079085350037,-0.1362907588481903
TC0009,-1.6284054517745972,1.4007905721664429,-0.8703282475471497,-0.25128304958343506,1.9404436349868774,2.539553642272949,-0.6692590117454529,0.1048206016421318,-0.5121946334838867,-0.7685155272483826,0.5272811055183411,0.6411718726158142,-0.8875042796134949,1.896699070930481,1.8219163417816162,-0.3544293940067291
TC0010,-1.4191601276397705,-1.6697708368301392,-0.5734293460845947,0.4492153823375702,0.5262284278869629,2.257493734359741,-0.3007466793060303,-0.014469383284449577,-1.4493228197097778,-0.062213167548179626,-0.8735625147819519,0.7251265645027161,-0.3338971734046936,1.3884108066558838,3.100452423095703,-0.6571959853172302
TC0011,-0.14392225444316864,-0.44423767924308777,-1.419895887374878,0.47382742166519165,1.3995498418807983,1.7729237079620361,-2.162592887878418,-0.9273950457572937,-0.2348594069480896,-0.14945712685585022,2.517958164215088,0.7463164329528809,0.7920832633972168,1.419164776802063,1.4100914001464844,-0.8649004101753235
TC0012,0.062306202948093414,0.615583062171936,-1.0559070110321045,-0.44055402278900146,1.4712424278259277,1.9496889114379883,-1.1387042999267578,-0.9238903522491455,-0.138478085398674,-0.23996268212795258,2.8510401248931885,0.9534295797348022,0.8228085041046143,1.251859426498413,1.8604505062103271,-0.30781111121177673
TC0013,-0.9250429272651672,0.3189041316509247,-0.6800200939178467,1.9205217361450195,1.0040558576583862,2.564854621887207,-1.318300485610962,-0.5751610398292542,-0.8208774328231812,-0.06631937623023987,-0.5202431082725525,0.20931655168533325,1.639344573020935,1.7783023118972778,2.3135461807250977,0.3213549852371216
TC0014,-0.48885229229927063,0.744847297668457,-0.6146615743637085,-0.30685192346572876,1.3331490755081177,2.8459842205047607,-1.3285080194473267,-0.6753292679786682,-1.5297276973724365,0.36946284770965576,1.4410836696624756,0.3706948459148407,1.3377089500427246,1.6722455024719238,1.772377848625183,-0.03197283297777176
TC0015,-0.6394268870353699,-0.599810779094696,-1.2409532070159912,0.12271051108837128,0.9640048742294312,2.268493413925171,-1.689413070678711,-1.4274216890335083,-1.7307435274124146,0.5489489436149597,1.5546549558639526,0.7671998143196106,1.2011797428131104,1.3868541717529297,1.7208493947982788,0.03903797268867493
TC0016,-0.6233404874801636,-0.4900220036506653,-0.8508232235908508,0.09984897822141647,1.2846964597702026,2.304915189743042,-2.417595624923706,-0.9285579323768616,-2.0527520179748535,0.5451250672340393,1.8468188047409058,0.7779796123504639,1.2132638692855835,1.3957782983779907,1.6844453811645508,-0.37894678115844727
TC0017,0.579300045967102,0.41551724076271057,0.5294533371925354,-0.7077783346176147,-0.7568778395652771,0.1494326889514923,-1.1563900709152222,0.08359827846288681,0.98746657371521,1.0652055740356445,0.7040595412254333,-0.06711290031671524,0.45276525616645813,0.5582002997398376,-0.9006399512290955,0.3956337869167328
TC0018,-0.534737765789032,0.4883413016796112,-1.187785029411316,-0.41207560896873474,-0.5048191547393799,0.8820120096206665,-0.35387980937957764,-0.25245165824890137,-0.685824990272522,-1.5718132257461548,0.3952670693397522,1.1595535278320312,0.651792049407959,1.2301702499389648,1.3123304843902588,-0.07094140350818634
TC0019,-0.7434330582618713,0.6602159738540649,-0.8336911797523499,-1.2320897579193115,-0.8409695625305176,0.7971964478492737,-0.5562424659729004,-0.5887963771820068,-0.8885308504104614,-1.6904116868972778,0.9947038888931274,1.178431749343872,1.04618501663208,1.7886255979537964,1.0358237028121948,0.06405744701623917
TC0020,0.2236148715019226,0.6973083019256592,-1.2638373374938965,-0.5858638882637024,-0.4902208745479584,0.8368962407112122,0.07129671424627304,0.05572265386581421,-0.17429044842720032,-1.624089241027832,1.1934608221054077,0.8805177807807922,1.3681614398956299,0.9793114066123962,1.1185581684112549,0.6762273907661438
TC0021,-0.0496266707777977,1.0974808931350708,-0.6514664888381958,-1.0980949401855469,-0.8665202856063843,1.4048177003860474,-0.24701052904129028,-0.6744609475135803,-1.1540237665176392,-1.601976990699768,0.348345011472702,1.2434149980545044,0.910264790058136,1.4520424604415894,1.7504401206970215,0.14463883638381958
TC0022,-2.0279479026794434,1.2525091171264648,-0.0529920868575573,-0.04546631872653961,1.6511571407318115,2.892747402191162,-0.7674468159675598,-2.392061471939087,-0.9801015257835388,-0.9673264622688293,0.880839467048645,2.0958497524261475,-1.3466492891311646,1.4793095588684082,-0.13076519966125488,-1.0713284015655518
TC0023,-1.8294576406478882,1.2037110328674316,-1.2965853214263916,-1.0403236150741577,0.614687979221344,1.5467880964279175,-0.3411894142627716,-1.8113750219345093,-0.4457746744155884,0.035744812339544296,1.0344622135162354,0.7783122658729553,-1.8593497276306152,1.3900980949401855,-0.8488053679466248,-0.09486012905836105
TC0024,-0.05431627482175827,0.2016899287700653,-1.2412455081939697,-0.9706082344055176,0.2431037425994873,0.25482895970344543,-0.834976851940155,-1.2672160863876343,-0.2120666354894638,-0.3428382873535156,1.2122451066970825,-0.9211961627006531,1.647803544998169,-0.10075747221708298,-1.2986496686935425,0.6073171496391296
TC0025,-0.07371664047241211,0.7399426698684692,-1.2212857007980347,-1.2674895524978638,0.4566050171852112,-0.1699153184890747,-1.2294257879257202,-0.8812457919120789,-0.0698818564414978,-0.6295790672302246,0.8338804244995117,-0.750255823135376,1.2720732688903809,-0.28235942125320435,-1.5169388055801392,-0.10710237175226212
TC0026,-0.15409159660339355,1.3712481260299683,-1.3084512948989868,0.4102092683315277,-1.241522192955017,1.6987395286560059,-0.20750290155410767,-1.6042214632034302,-0.2103051096200943,-0.32337716221809387,0.050134219229221344,-0.3218466341495514,1.0665403604507446,-1.0188755989074707,0.05262068286538124,0.8415113687515259
TC0027,0.04672140255570412,1.3533427715301514,-1.8387969732284546,-0.13907741010189056,0.738331139087677,1.6411679983139038,-1.9230048656463623,-0.013759883120656013,-2.089454174041748,-0.7633041739463806,-1.0260809659957886,0.1615842580795288,-0.2669040858745575,1.3483062982559204,0.8601019978523254,-0.9835826754570007
TC0028,-0.5061196684837341,0.7025159597396851,-1.6413593292236328,-0.4996793568134308,0.32483771443367004,0.8969372510910034,-1.5241261720657349,-0.20668649673461914,-1.978196620941162,-0.7319692373275757,0.3769841492176056,-0.9018946886062622,-1.1487056016921997,0.5897654891014099,1.7123029232025146,0.31560155749320984
TC0029,-0.5751821994781494,0.20427685976028442,-1.5375499725341797,-0.43942999839782715,-0.7502254843711853,0.7265666127204895,-0.11849790811538696,-0.17679139971733093,-1.3491429090499878,-1.2296855449676514,-0.9558429718017578,-0.8501368165016174,-1.4214991331100464,0.5851702094078064,-0.2582990825176239,0.11858609318733215
TC0030,-0.5075969099998474,0.5492396354675293,-1.9628047943115234,0.5675452947616577,0.5185322165489197,1.3019592761993408,-1.9417909383773804,0.038135964423418045,-2.1493170261383057,-1.620201587677002,-0.5967434644699097,-1.9031873941421509,-2.52374267578125,0.8064911365509033,1.226311445236206,-0.01383607555180788
TC0031,-0.7909702658653259,0.7964804768562317,-0.25250545144081116,-0.2833130657672882,0.7198797464370728,2.2995810508728027,0.05037249997258186,-1.0046786069869995,-1.6237461566925049,-2.2203187942504883,-0.21813899278640747,-1.4287834167480469,-1.7995915412902832,0.3541216552257538,0.9511984586715698,-0.3642708659172058
TC0032,-0.6303296089172363,0.9120110869407654,-1.0542938709259033,-0.5303627252578735,2.239908218383789,1.8463939428329468,-0.9433518648147583,-2.1375844478607178,-1.1788198947906494,0.6523727178573608,0.2771269977092743,0.7575829029083252,-0.33639904856681824,1.049465537071228,0.6117902994155884,-0.9977262616157532
TC0033,-0.38240304589271545,-0.9788435101509094,-1.0074864625930786,0.8658101558685303,0.9610726237297058,0.3415505290031433,-0.4560811221599579,1.6117781400680542,0.5824681520462036,-0.30410465598106384,-0.4243878424167633,-0.629501223564148,0.7052006721496582,-0.4280551075935364,-0.751822292804718,0.17499853670597076
TC0034,-1.2526172399520874,-0.8989346623420715,-0.8219113349914551,-1.0251069068908691,1.1849381923675537,-0.3789253532886505,-0.48862650990486145,1.331295132637024,0.36439406871795654,0.0589325837790966,-0.6654552817344666,0.03996432572603226,0.8601522445678711,0.04016360640525818,-0.1548282355070114,-0.4114108979701996
TC0035,-1.3059289455413818,-0.45454809069633484,-0.3808426260948181,0.680223286151886,1.0612281560897827,-0.43297556042671204,-1.694013237953186,1.7338720560073853,-0.22281335294246674,-0.26352134346961975,-0.24981768429279327,-0.6634801030158997,-0.9154794216156006,-1.8083124160766602,-1.1368465423583984,0.3960525691509247
TC0036,-0.6404327154159546,0.6012582182884216,-0.34466424584388733,-1.5880197286605835,0.28687748312950134,-0.16102124750614166,0.4705153703689575,1.4186882972717285,0.4709332287311554,-1.2296810150146484,-0.7424952387809753,-0.05330269783735275,0.15222494304180145,-0.0906396433711052,-0.7434666752815247,-0.6868105530738831
TC0037,-0.992186427116394,0.00877047423273325,-0.8080882430076599,-0.38097894191741943,1.221083402633667,0.5974045991897583,-0.8170492053031921,1.6518486738204956,-0.7647823691368103,0.13108381628990173,-0.3600218594074249,-0.28400200605392456,0.671303927898407,-1.0014581680297852,-1.915050983428955,-0.23754465579986572
TC0038,-0.11366961896419525,-0.28317755460739136,0.008895808830857277,0.11244799196720123,0.7514374256134033,-0.5642999410629272,-1.5330301523208618,1.8079748153686523,-0.6954622268676758,0.09684087336063385,-0.8069506287574768,-0.29682260751724243,-0.1778034269809723,-1.1587648391723633,-2.268819570541382,-0.4226880967617035
TC0039,-2.046635389328003,1.2646104097366333,-0.34925779700279236,-0.4631205201148987,-0.3087136447429657,1.188984751701355,-0.4056134819984436,-0.5716841220855713,0.38356873393058777,-0.685640811920166,-0.06977242231369019,0.3619947135448456,-0.06286362558603287,2.20453143119812,-0.09554041922092438,-0.48889026045799255
TC0040,-0.12940137088298798,0.12069345265626907,-0.6728934645652771,-0.622778594493866,2.0712058544158936,0.9104444980621338,-0.3994756042957306,-1.6368534564971924,-0.272747278213501,0.40964004397392273,0.0046995566226542,-0.48534196615219116,-0.48354572057724,1.4016377925872803,1.4117112159729004,-0.40105319023132324
TC0041,-1.9863659143447876,0.9674716591835022,-0.1841244250535965,-0.6308949589729309,0.6609634757041931,1.1914339065551758,-0.7772222757339478,-1.0264396667480469,0.011991736479103565,-1.206570029258728,0.8323004245758057,0.25076866149902344,0.659682035446167,2.0886459350585938,-0.3075314462184906,-0.1729959100484848
TC0042,-2.6907877922058105,0.2790807783603668,-0.15573269128799438,0.573334276676178,1.1943411827087402,2.683276414871216,-0.24882149696350098,-1.5355274677276611,-1.1088794469833374,-1.6404428482055664,0.292827308177948,0.9656201601028442,-0.266954630613327,2.089083433151245,-0.01789553463459015,0.21003417670726776
TC0043,-2.692999839782715,0.4192224144935608,-0.6106880307197571,0.133808434009552,0.7514944076538086,1.9281792640686035,-0.2786380350589752,-1.5225979089736938,0.41906437277793884,-1.3295903205871582,0.36874648928642273,0.49531206488609314,0.3708723485469818,2.4034621715545654,-0.9243135452270508,-0.590150773525238
TC0044,-2.3506290912628174,0.5325919389724731,-0.8395301103591919,-1.085389494895935,1.2648276090621948,1.29632568359375,-0.7758592367172241,-0.5964032411575317,-0.4891340732574463,-0.782744288444519,1.1609081029891968,0.987632155418396,0.49749520421028137,1.410302996635437,0.17966341972351074,0.29059848189353943
TC0045,-2.8279836177825928,0.29024845361709595,-0.540773868560791,-1.0894598960876465,1.1982194185256958,1.3547552824020386,-1.262176275253296,-0.2878240644931793,-0.6383457779884338,-0.27594396471977234,1.010371446609497,1.1467357873916626,0.2162620723247528,1.405198574066162,-0.19237303733825684,-0.3579464852809906
TC0046,-1.1586562395095825,-1.8777801990509033,0.5987136960029602,0.13933971524238586,-0.38189810514450073,-0.45887845754623413,-0.2448693960905075,-1.6289868354797363,-0.28853121399879456,-1.5965617895126343,0.2233463078737259,0.5470353960990906,0.3535822331905365,1.540248155593872,-1.6965317726135254,-0.6177175641059875
TC0047,-1.505744218826294,0.7800906300544739,-0.7972556948661804,0.3571648895740509,0.650551974773407,1.8109538555145264,0.2727936804294586,-0.2952924072742462,0.4842316508293152,-0.9631052017211914,-0.069605253636837,1.6266367435455322,0.01933666504919529,1.2841534614562988,0.5830774903297424,0.031940020620822906
TC0048,0.4566928744316101,0.3437812328338623,-2.0590760707855225,-0.3588784635066986,-0.7388325333595276,-0.17154385149478912,0.05244521051645279,-1.6419885158538818,0.7677987813949585,-0.8848409652709961,-1.5493730306625366,1.3917028903961182,0.6663550734519958,0.45886164903640747,-0.7888229489326477,-1.1928926706314087
TC0049,-0.64951092004776,1.145943284034729,-1.0943175554275513,-0.4047861099243164,-0.2081400603055954,1.0410269498825073,-0.19844424724578857,-0.3458636701107025,0.050456687808036804,-1.2794513702392578,-0.291594535112381,0.6011245846748352,0.08599456399679184,0.21595312654972076,0.3769265115261078,-1.2280352115631104
TC0050,-1.1710761785507202,-1.6777907609939575,0.35035908222198486,0.16225111484527588,-1.112912893295288,-0.18115974962711334,-0.13032950460910797,-0.7474561333656311,-0.5661367177963257,-1.3997013568878174,0.39629751443862915,0.9382097721099854,0.061286769807338715,1.8458963632583618,-1.274945616722107,0.045793693512678146
TC0051,0.23109686374664307,-1.871870994567871,-0.2207856923341751,0.7598282098770142,0.9142869710922241,2.6217775344848633,0.11117660254240036,-0.42039865255355835,0.355909526348114,-0.009463352151215076,0.7838336229324341,0.611255407333374,1.3464250564575195,-0.3601289987564087,0.1786409616470337,-0.816996157169342
TC0052,-1.1758207082748413,0.669787585735321,-1.4721049070358276,-1.4503551721572876,1.9826951026916504,0.8241431713104248,-0.9079516530036926,-2.0234999656677246,-0.5368093252182007,0.19633668661117554,0.8133166432380676,0.37230879068374634,-0.6251460909843445,0.9452472925186157,0.15426328778266907,-0.897774338722229
TC0053,0.9239453673362732,-0.7854188680648804,-0.27547746896743774,0.5412043929100037,-0.14695262908935547,0.8491765260696411,0.724402904510498,0.7989366054534912,0.8244385123252869,-1.0177743434906006,-0.01010518055409193,0.05208209529519081,0.3364492654800415,-0.2827218770980835,0.3333244025707245,-1.3001954555511475
TC0054,1.9754475355148315,-0.8875464797019958,-0.19370785355567932,1.0394524335861206,-0.43488848209381104,0.9589701294898987,0.8350415229797363,0.8665381073951721,0.9132223725318909,-0.9293585419654846,0.0008723536157049239,0.03964347019791603,0.5152032375335693,-0.45395317673683167,0.42401185631752014,-1.1068254709243774
TC0055,0.9349691867828369,-0.7364850044250488,-1.330350399017334,0.21497344970703125,0.17887432873249054,-0.20302991569042206,-0.20423561334609985,0.5171964168548584,-0.0575559027493,-1.8028424978256226,-0.9098390340805054,-1.740678071975708,0.12604181468486786,-0.5055948495864868,-0.2115199714899063,-0.7357962727546692
TC0056,0.8059920072555542,-0.9965117573738098,-0.7390992641448975,1.4994807243347168,1.042362093925476,1.039072871208191,0.406046599149704,0.44476068019866943,0.13124021887779236,-1.419632077217102,-0.4646828770637512,-1.176520824432373,0.345231294631958,-0.10237555205821991,0.09331589937210083,0.13901598751544952
TC0057,1.1457176208496094,-1.4359536170959473,-0.7074819207191467,1.1059426069259644,0.8245919942855835,-0.004732146859169006,-0.1722823679447174,-0.45243510603904724,0.18435919284820557,-0.8775975704193115,-0.6820846199989319,-1.601912021636963,-0.07017197459936142,-0.8181238174438477,0.7884052395820618,-0.6460527777671814
TC0058,0.8245692849159241,0.13393017649650574,-0.44022417068481445,1.0906362533569336,0.33672401309013367,0.7404369115829468,0.06587221473455429,0.5528393983840942,0.7048423886299133,-0.9477663636207581,-0.016296064481139183,-1.02298104763031,0.5187656283378601,-0.8064504265785217,0.36475351452827454,0.16926202178001404
TC0059,1.5399961471557617,0.03338786959648132,-0.7577246427536011,0.9679352641105652,0.08328250795602798,1.5765982866287231,1.033473253250122,0.893747866153717,0.5804184675216675,-0.9576298594474792,-0.24101832509040833,-0.5338826179504395,0.014666726812720299,-0.13900350034236908,0.5506570339202881,-0.12580309808254242
TC0060,1.590993881225586,0.058269478380680084,-1.0440064668655396,1.0125070810317993,0.8553466796875,1.2172536849975586,0.6008902788162231,-0.01557408832013607,0.601307213306427,-1.3492547273635864,-0.4948275089263916,-1.5812281370162964,-0.48701080679893494,-0.24957174062728882,0.20022644102573395,-0.4191545248031616
TC0061,1.9906845092773438,-0.8932040333747864,-0.4032900929450989,1.5837913751602173,-0.45178839564323425,1.3692268133163452,1.1358580589294434,0.26885953545570374,-0.043884582817554474,-1.2017920017242432,0.12804622948169708,-0.36374184489250183,-0.888701319694519,-0.4422735571861267,0.7715051174163818,0.20820972323417664
TC0062,1.777647614479065,-0.10253506153821945,-0.7210540771484375,1.1365981101989746,0.0006046523922123015,1.5159934759140015,1.08419668674469,0.7286537289619446,0.7439607381820679,-1.1921882629394531,-0.2114425152540207,-0.5069342255592346,-0.039924222975969315,0.034392841160297394,0.8381635546684265,0.006548561621457338
TC0063,0.9610159993171692,-0.005548698827624321,-0.5492775440216064,-0.13319547474384308,-0.6270347833633423,0.6419022679328918,0.6482550501823425,0.13415418565273285,0.9604260325431824,-1.6118314266204834,-0.3574817180633545,-1.1865723133087158,0.2170579880475998,-0.011046845465898514,0.8707077503204346,-0.9213444590568542
TC0064,1.5928477048873901,-1.0672403573989868,-0.2845734655857086,0.9864842891693115,0.6317852735519409,1.9109874963760376,1.6601309776306152,-0.10742994397878647,0.4557909667491913,-2.5280508995056152,1.323284387588501,-1.0039634704589844,-0.3358973264694214,0.39931705594062805,1.167675256729126,0.6588087677955627
TC0065,0.854068398475647,-0.35579198598861694,-0.6626242995262146,-0.7037953734397888,0.45794740319252014,0.24017417430877686,0.5713236331939697,-0.23578988015651703,-0.39387497305870056,-2.3262810707092285,-0.145920068025589,-1.8204822540283203,0.9361503720283508,-0.9059265851974487,-0.5886022448539734,-0.2185179740190506
TC0066,0.36370351910591125,0.40116339921951294,-0.16708460450172424,0.18033331632614136,0.22674673795700073,1.878358244895935,1.0468862056732178,0.9386553764343262,1.4266881942749023,-1.4289031028747559,-0.12082645297050476,-0.7656835317611694,0.14741095900535583,0.14481526613235474,2.037844657897949,-0.7047920823097229
TC0067,-0.6159235239028931,-0.6767749786376953,0.2889378070831299,1.4028629064559937,1.2859790325164795,1.0152426958084106,-0.8049767017364502,1.5626204013824463,-0.5656751990318298,-1.6439011096954346,-0.2572997808456421,0.803454577922821,-1.5046937465667725,-1.0093828439712524,-0.12874743342399597,-0.9434212446212769
TC0068,0.9869484901428223,-0.4273434579372406,-0.6733262538909912,0.059320252388715744,-0.25895288586616516,0.14528629183769226,0.8469420671463013,0.0043294066563248634,-0.43193909525871277,-2.050919532775879,-0.08937379717826843,0.015701906755566597,-0.0011429752921685576,-1.7741961479187012,-0.7935159802436829,-0.14582590758800507
TC0069,1.103125810623169,-0.7110007405281067,-0.7490723133087158,2.011591911315918,1.4850554466247559,2.13655161857605,1.4161428213119507,0.3666733205318451,0.9343504309654236,-0.7354322671890259,-1.0639128684997559,-0.6816204190254211,0.16723164916038513,-0.58558589220047,0.22095344960689545,-0.07515794783830643
TC0070,1.2856303453445435,-0.6836888790130615,-0.45785778760910034,1.3281553983688354,1.0869050025939941,2.4713056087493896,2.230900526046753,0.5507251620292664,1.162650465965271,-0.8968955874443054,-0.7244613766670227,-0.4760419428348541,-0.08963232487440109,-0.5298401117324829,0.3606662154197693,0.3123408257961273
TC0071,0.5851852297782898,-1.0367869138717651,-1.1634567975997925,1.1986944675445557,0.47491776943206787,0.8885771632194519,0.12297260016202927,1.3350268602371216,0.1342461258172989,-1.906052589416504,0.24767480790615082,-0.7602462768554688,0.7245320081710815,-0.6478444933891296,0.13858790695667267,0.3296935260295868
TC0072,0.8259748220443726,-0.8889852166175842,-1.686112642288208,1.1674336194992065,0.13183695077896118,1.5790554285049438,0.15128184854984283,0.5658482909202576,-0.15207184851169586,0.3182423412799835,0.2895888090133667,-0.7318599820137024,0.9246528148651123,-1.0250507593154907,0.7781186103820801,1.1438326835632324
TC0073,0.6861588358879089,-0.08601157367229462,-1.5182983875274658,0.646824061870575,0.9188994765281677,1.8875298500061035,0.4750322997570038,0.3989968001842499,0.5859070420265198,-0.5784425139427185,0.3847295939922333,-0.7623299360275269,1.581961989402771,-0.01829327456653118,1.0615712404251099,1.0758624076843262
TC0074,0.7319374084472656,-0.17557817697525024,-1.6740378141403198,0.6378759741783142,1.061053991317749,1.8213694095611572,0.6289675235748291,0.3547510504722595,0.45094481110572815,-0.5886295437812805,0.48648256063461304,-0.703618049621582,1.643108606338501,-0.027157001197338104,1.1052409410476685,1.0914654731750488
TC0075,0.35653698444366455,-0.8127948641777039,-0.4055604338645935,1.1165581941604614,-0.22423209249973297,1.3423689603805542,0.6181084513664246,0.563717782497406,0.011448712088167667,0.26772797107696533,-0.4007803499698639,-0.6490007638931274,1.1885685920715332,-0.4735552966594696,0.5750975012779236,1.4287656545639038
TC0076,-0.49896493554115295,0.22461915016174316,-0.11212506890296936,1.2533423900604248,0.3849049210548401,1.3200455904006958,0.18816404044628143,1.8696231842041016,0.28262731432914734,1.2865976095199585,-1.5750676393508911,0.08445201069116592,-0.47568172216415405,-1.406752586364746,0.17555557191371918,1.317901372909546
TC0077,2.0026497840881348,0.6411425471305847,-0.9365452527999878,0.03205212578177452,-0.03771399334073067,1.6696959733963013,1.5777347087860107,-0.705873429775238,0.7921349406242371,0.08355695009231567,0.46345141530036926,-1.536086916923523,-0.48704665899276733,-0.3115778863430023,0.47255489230155945,1.1211705207824707
TC0078,2.082289457321167,-0.508015513420105,-1.0163121223449707,1.2617883682250977,0.0005611081141978502,1.7989171743392944,0.8792262673377991,0.49288326501846313,0.5191716551780701,-0.029070859774947166,-0.0725954994559288,-1.4718068838119507,-0.7995721697807312,-0.32885080575942993,0.8926975131034851,-0.4101584255695343
TC0079,1.1845145225524902,-0.4229908585548401,-1.0211715698242188,0.5771053433418274,-1.2344281673431396,0.858759880065918,1.09029221534729,1.5379959344863892,1.2771435976028442,-1.142419695854187,0.005581096280366182,-0.572049081325531,0.4856640696525574,-0.3870695233345032,0.4488641917705536,0.3265301585197449
TC0080,2.093620777130127,-2.188732147216797,-1.6837105751037598,1.867853045463562,-1.199416160583496,1.4583345651626587,0.834144115447998,-0.536885678768158,-0.5467532277107239,-1.4426615238189697,-0.9654543399810791,-0.7623143196105957,0.8427450656890869,-0.028975779190659523,1.3112738132476807,0.027504274621605873
TC0081,0.5846760272979736,0.7658697962760925,-1.6167532205581665,0.8156203627586365,0.6523038148880005,0.2802928388118744,-0.43744373321533203,0.689969539642334,1.2695661783218384,-0.25644469261169434,-1.1548327207565308,-0.6921160221099854,-1.2345649003982544,-1.2685201168060303,-0.415068656206131,-0.2185617834329605
TC0082,0.08499768376350403,0.34641724824905396,-1.173840045928955,-0.9522662162780762,1.300305724143982,0.579066276550293,-0.04511331766843796,-1.9482465982437134,0.23368039727210999,1.1559299230575562,0.7299980521202087,2.536158800125122,-0.4775066673755646,1.8173058032989502,-2.6137595176696777,-0.128725066781044
TC0083,-0.5581542253494263,0.5345832705497742,-0.5735389590263367,0.6639564037322998,1.8638752698898315,1.6215397119522095,1.2976514101028442,-0.6153160929679871,1.317992091178894,0.7694505453109741,-0.28606975078582764,0.2172374725341797,-0.4267631471157074,-0.1494876593351364,-3.053549289703369,1.4375168085098267
TC0084,1.4813576936721802,0.03826098516583443,-2.5078017711639404,-0.3499055504798889,2.2274723052978516,-0.08299235999584198,-0.3123633861541748,-0.6684883832931519,0.9844374656677246,-0.30923527479171753,0.718160092830658,1.8212400674819946,1.1973516941070557,-0.5661969184875488,0.3347773849964142,0.33335375785827637
TC0085,0.3791992962360382,0.6034038662910461,-1.1581677198410034,-1.5446819067001343,2.3436384201049805,0.6135685443878174,1.3196654319763184,-1.5989139080047607,0.7704200744628906,-0.51840740442276,1.3911268711090088,1.034534215927124,-0.4766547977924347,0.23002608120441437,-0.3315066397190094,1.5260382890701294
TC0086,1.565524935722351,0.6552960276603699,-0.3705328404903412,-0.29252010583877563,0.8299061059951782,0.7337595224380493,1.4820609092712402,-3.112466812133789,1.5263490676879883,0.3924507796764374,0.7859280109405518,2.324608087539673,0.32773712277412415,2.4201819896698,-2.4888153076171875,0.3236245810985565
TC0087,0.560336172580719,2.199849843978882,-1.0488989353179932,-2.4391732215881348,1.3938984870910645,1.8157002925872803,1.393127679824829,-2.1470251083374023,1.1559754610061646,-0.15839317440986633,1.921449899673462,0.7624459266662598,-0.5737653374671936,1.0204105377197266,-0.3380988836288452,0.2823724150657654
TC0088,-0.08037889003753662,0.9608604907989502,0.13282747566699982,-1.1657898426055908,0.2603006362915039,0.4701886475086212,0.17741477489471436,-1.0745240449905396,-0.09452848136425018,-1.4275312423706055,0.9822285175323486,-0.1667982041835785,1.081931233406067,-0.9813871383666992,-0.924074649810791,0.7217461466789246
TC0089,0.6908838748931885,0.18363839387893677,0.6207020282745361,0.3894788920879364,-0.15581408143043518,0.1696673035621643,-0.34751003980636597,-0.9224638342857361,0.24801303446292877,-1.014685869216919,0.3420966863632202,-0.1516410857439041,1.0168333053588867,0.20926500856876373,-1.4850857257843018,-0.6104808449745178
TC0090,0.20924587547779083,-1.190714716911316,-0.006515600252896547,0.47932925820350647,0.4458008110523224,0.14133358001708984,-0.430258184671402,-1.667574405670166,0.1560061275959015,-0.5292489528656006,0.22114641964435577,-0.6296529769897461,1.020304560661316,-1.4720348119735718,-1.7147464752197266,-1.2285854816436768
TC0091,0.051186054944992065,1.1421903371810913,-1.0996671915054321,-0.8963304758071899,1.166795253753662,-0.4938278794288635,-0.38012975454330444,-0.7394267320632935,0.7519179582595825,-0.9576554298400879,-0.9473021626472473,2.1103594303131104,0.36975598335266113,-0.9880449771881104,1.5098475217819214,-0.5552975535392761
TC0092,-0.38729339838027954,0.13299164175987244,-0.5346909165382385,-0.8821684718132019,1.0817018747329712,0.9292780756950378,0.4138449430465698,-1.3978426456451416,0.5593611001968384,1.4072004556655884,0.1659119725227356,1.9681438207626343,-0.694503128528595,2.018120288848877,-3.4392197132110596,-0.2636517882347107
TC0093,-1.0719373226165771,0.3968614637851715,-0.5062318444252014,0.8890930414199829,0.5335368514060974,1.5137269496917725,-0.5668407678604126,-0.6107447743415833,-1.2195476293563843,-1.6284362077713013,-0.029327500611543655,-1.5150278806686401,-0.5929878950119019,-0.15160243213176727,-1.6509149074554443,-0.30131104588508606
TC0094,-0.8394019603729248,-0.18945835530757904,-1.2528023719787598,-0.5573472380638123,1.1332746744155884,1.1328080892562866,0.9505653977394104,-0.33839449286460876,-0.7750880122184753,-1.9516061544418335,-0.7440963983535767,-1.0342684984207153,0.1858278214931488,-0.2543151378631592,-0.1525893658399582,0.5291774868965149
TC0095,-0.5691412687301636,-0.6057778000831604,-0.3122091293334961,-0.3834588825702667,0.2751893997192383,0.27512556314468384,1.3991731405258179,-1.0350544452667236,0.11832290142774582,-1.5584676265716553,-1.7691152095794678,-1.3180631399154663,1.4979805946350098,0.6213865280151367,-0.018137583509087563,1.2486759424209595
TC0096,-0.4327639043331146,-1.5288771390914917,0.22179993987083435,1.0824047327041626,0.07238505035638809,0.11983294785022736,0.3601481020450592,-1.6579127311706543,0.8614271283149719,-0.7843595743179321,0.31731098890304565,-0.9060038924217224,0.03049517050385475,-1.2531235218048096,-0.9974153637886047,0.32727301120758057
TC0097,-1.4705549478530884,-1.5709600448608398,0.029594289138913155,-1.1608752012252808,1.05589759349823,-1.0812010765075684,0.3054601550102234,-0.03073567897081375,0.22410990297794342,-1.2139887809753418,-0.35706639289855957,-1.338992714881897,-0.085768923163414,-1.4898864030838013,-0.7101829051971436,0.7819938659667969
TC0098,-1.8797856569290161,-0.9987130165100098,-1.3953543901443481,-1.9398349523544312,1.5305249691009521,0.38918033242225647,0.5318150520324707,-0.6627604961395264,1.6058909893035889,3.020247459411621,0.6987552642822266,2.1123294830322266,1.3832461833953857,1.709680199623108,-0.03275994956493378,1.2588818073272705
TC0099,-1.910683035850525,-0.9371264576911926,-0.49766266345977783,-1.3686254024505615,1.096860647201538,1.4595752954483032,1.2257752418518066,-1.0559377670288086,1.6144040822982788,2.862626791000366,0.6752244830131531,2.05375075340271,1.3109028339385986,2.3925580978393555,0.25560158491134644,1.4940032958984375
TC0100,-1.4708524942398071,-0.9128230214118958,-0.08957061916589737,-3.3482041358947754,1.5084785223007202,-0.10459281504154205,0.7728590965270996,-0.5925984978675842,1.0725939273834229,-0.28039950132369995,0.1657945066690445,-1.0417479276657104,2.483614921569824,0.6099581718444824,0.7973828315734863,0.08480551838874817
TC0101,-1.0529781579971313,-0.45221981406211853,-1.2186983823776245,-0.6406384706497192,1.2622593641281128,-0.1105143278837204,-0.3002980053424835,0.7886662483215332,1.2853819131851196,0.07522650808095932,0.3207763135433197,-0.10811636596918106,0.3473517596721649,0.9611960053443909,0.8839254975318909,-0.31430384516716003
TC0102,-1.4949091672897339,-0.8446484208106995,0.02453979291021824,-2.8884177207946777,1.589905023574829,0.2450236678123474,0.3132546842098236,-0.6405991911888123,1.0840978622436523,-0.42758506536483765,0.4230349659919739,-1.3652236461639404,2.690108060836792,0.9239163994789124,0.9328786730766296,-0.40813854336738586
TC0103,-1.2377710342407227,0.034371860325336456,-0.6462644338607788,-1.3374550342559814,1.3613111972808838,0.827507734298706,-0.5924397706985474,0.6451036930084229,0.8935975432395935,0.3677312135696411,1.4245487451553345,-0.07300220429897308,0.04254073649644852,1.143682599067688,0.6029473543167114,-0.34269970655441284
TC0104,-0.8548683524131775,-1.0667052268981934,0.7741947770118713,0.9722386598587036,0.24096855521202087,1.1049690246582031,-0.6615148782730103,-0.9838975667953491,1.0686030387878418,0.3151429295539856,2.268139123916626,0.5041123628616333,1.0408520698547363,-0.8175357580184937,1.3272955417633057,0.4331062436103821
TC0105,-2.415144681930542,-2.9117302894592285,1.352836012840271,-3.008913278579712,2.3769326210021973,0.5873465538024902,1.4136931896209717,-1.559227705001831,-0.5097400546073914,1.7013885974884033,-1.83857262134552,0.0788865014910698,0.9957976341247559,0.9989722371101379,2.3870279788970947,0.16062048077583313
TC0106,-1.5192853212356567,-1.4571871757507324,0.8047985434532166,-1.8252756595611572,1.6384856700897217,0.10529692471027374,1.0576176643371582,-0.9472604990005493,0.7262330055236816,0.5878785252571106,-0.8744337558746338,-0.321775883436203,1.1063519716262817,0.9440575242042542,1.9605237245559692,0.555070698261261
TC0107,-0.5754321813583374,-0.34362852573394775,0.04946952685713768,0.795181930065155,-0.5239203572273254,0.200929194688797,-1.3943556547164917,0.7505395412445068,1.0779109001159668,-0.909698486328125,0.7165801525115967,-0.43957990407943726,-0.08002329617738724,0.5958572626113892,0.8848428130149841,-1.1515952348709106
TC0108,-0.781674325466156,0.9551987051963806,1.3197563886642456,0.14503167569637299,1.2353266477584839,1.4555175304412842,-0.7040048241615295,0.5438858866691589,0.7858768701553345,-1.184008002281189,1.4419347047805786,-1.2730426788330078,-0.9481743574142456,1.3524291515350342,1.2775077819824219,-0.3186763525009155
TC0109,-0.9712364077568054,0.7671583890914917,0.9660496115684509,-0.08683749288320541,0.8951326608657837,1.2329047918319702,-0.5127485394477844,0.5296100378036499,0.40706777572631836,-0.6028691530227661,0.10836140066385269,-0.30806633830070496,-0.3751716911792755,1.3268547058105469,1.420057773590088,-0.3778087794780731
TC0110,-1.184723138809204,-0.5895184874534607,0.6685296893119812,0.2881271541118622,0.8255295753479004,1.3219068050384521,0.5190839767456055,-0.5348969101905823,1.1852421760559082,-0.5405901074409485,1.3684706687927246,-0.9964252710342407,1.7514461278915405,0.3860014081001282,0.811910092830658,0.593648374080658
TC0111,-1.1834609508514404,-1.290858268737793,0.5430328845977783,-0.49174606800079346,0.684550940990448,0.8806336522102356,0.5117323398590088,0.05572964623570442,1.9657968282699585,0.3384441137313843,1.3622591495513916,-1.3451523780822754,2.312211751937866,1.0813838243484497,0.42002615332603455,0.3459564447402954
TC0112,-1.70726478099823,-1.6683323383331299,0.9130777716636658,1.595361590385437,-0.4759548008441925,0.7559820413589478,0.0970960482954979,-1.1196556091308594,0.784402072429657,-0.5621766448020935,0.047028154134750366,0.8422421813011169,1.293922781944275,1.612348198890686,-0.7607914805412292,0.23238609731197357
TC0113,-1.1041717529296875,-1.0477484464645386,0.17985694110393524,-0.6412225365638733,0.8609083294868469,0.44873616099357605,0.07425863295793533,0.08018810302019119,1.1127818822860718,-0.3074381947517395,1.365541934967041,-1.6537562608718872,2.324382781982422,0.07162360101938248,0.28224635124206543,0.8374212384223938
TC0114,-1.2294572591781616,-1.0939536094665527,0.326030969619751,-0.6304231882095337,0.9484984874725342,0.4681178629398346,-0.08899033814668655,0.017385365441441536,1.1015082597732544,-0.39473357796669006,1.5814234018325806,-1.8635636568069458,2.488525629043579,0.07680988311767578,0.3094191551208496,1.0870872735977173
TC0115,-1.4611490964889526,-0.9873039722442627,0.33766695857048035,-1.5452330112457275,0.23280780017375946,0.298144668340683,-0.06395241618156433,0.10199306905269623,0.7048864960670471,-0.09306837618350983,1.3972136974334717,-1.4151955842971802,2.444596290588379,0.11866022646427155,0.4125956892967224,0.9936114549636841
TC0116,-1.4917899370193481,-1.4279407262802124,0.3814481794834137,-1.1973755359649658,1.1875789165496826,0.5626857876777649,-0.1185348629951477,-0.07248979806900024,1.0403897762298584,-0.051162272691726685,1.9877815246582031,-1.9931023120880127,2.6936228275299072,0.07134642452001572,0.6989741325378418,1.089186668395996
TC0117,-1.007288932800293,-1.0297926664352417,0.9271302819252014,-0.5920288562774658,0.19395756721496582,1.1911637783050537,0.7106457352638245,0.34644177556037903,0.9321262836456299,-0.034670084714889526,1.1155831813812256,-0.6789441704750061,2.6579396724700928,-0.34012866020202637,-0.19737458229064941,0.7280462980270386
TC0118,-1.5662147998809814,-1.2632628679275513,0.9068142771720886,0.024932656437158585,-0.47416213154792786,-0.5050694346427917,-0.7372613549232483,-0.9958623051643372,0.8508891463279724,-0.37882012128829956,0.8888942003250122,0.4680376350879669,1.7031846046447754,1.462998867034912,-1.4867528676986694,-0.3836233615875244
TC0119,-1.4703816175460815,-1.0496821403503418,0.41973981261253357,1.0164600610733032,0.7379195690155029,1.429864525794983,-0.6428600549697876,0.44144538044929504,1.0243432521820068,-0.6586344838142395,1.4168568849563599,-0.6262511610984802,2.2317264080047607,0.6656458377838135,0.9412084221839905,0.14591412246227264
TC0120,-1.482580542564392,-1.3891085386276245,0.5529234409332275,1.2364071607589722,0.8258175253868103,1.5314151048660278,-0.7332935929298401,0.4316463768482208,0.9959419369697571,-0.5628386735916138,1.576511025428772,-0.5483676195144653,2.1985507011413574,0.5764986276626587,1.2092245817184448,0.11589258164167404
TC0121,-0.8498548865318298,-1.584080696105957,0.6293436884880066,0.5855410099029541,1.152451753616333,1.537426471710205,-0.548037588596344,0.1268673986196518,1.088961124420166,-0.6299454569816589,1.923878788948059,-0.11976161599159241,2.6466870307922363,1.5789507627487183,0.8118358254432678,-0.7320694327354431
TC0122,-1.0786067247390747,-1.8416582345962524,0.5224722623825073,0.10696735978126526,-0.55613774061203,-0.3791043162345886,0.03343904763460159,-1.5868942737579346,0.4787333905696869,0.06762070953845978,0.21866923570632935,0.47547444701194763,1.1667886972427368,1.3985555171966553,-0.8673625588417053,0.35952797532081604
TC0123,-0.6175824999809265,1.7957998514175415,0.3945377767086029,-1.472103476524353,-0.692592203617096,0.44490328431129456,1.164594054222107,0.7312041521072388,1.82974374294281,-1.7807037830352783,-0.743535041809082,0.642615556716919,0.381061851978302,-0.04760134965181351,-0.7858396768569946,-0.7105994820594788
TC0124,1.0716989040374756,1.8344298601150513,1.8133138418197632,-0.9023884534835815,0.6965049505233765,2.706113576889038,2.9959750175476074,1.4736850261688232,2.3019275665283203,-0.7326673865318298,-1.4054322242736816,2.0090534687042236,0.5525374412536621,-1.1842560768127441,0.48456907272338867,-0.7365505695343018
TC0125,-0.07214158773422241,1.0610287189483643,0.9395650029182434,0.062098708003759384,-0.32367053627967834,1.1133034229278564,1.437880039215088,0.8564124703407288,2.1917054653167725,-1.9819515943527222,-1.4739068746566772,0.478346586227417,0.3667084872722626,0.3501451313495636,0.019598104059696198,-0.7707505226135254
TC0126,0.43375158309936523,0.6566030383110046,-0.456590473651886,-0.9216278195381165,1.1829921007156372,1.2255834341049194,1.9032589197158813,-0.8733592629432678,0.7393195033073425,-0.889693021774292,-2.2304940223693848,1.586762547492981,-1.7809436321258545,0.08050186187028885,2.966766357421875,-1.2154667377471924
TC0127,0.40559783577919006,-0.224070742726326,0.24230319261550903,0.9492937326431274,0.8145147562026978,1.6045022010803223,1.6136707067489624,-0.14898453652858734,2.051708698272705,-0.8516079187393188,-1.9824273586273193,0.5546482801437378,0.49495917558670044,1.6749553680419922,0.5167204737663269,-1.6457610130310059
TC0128,1.1687357425689697,0.18367762863636017,0.571494996547699,-1.7059475183486938,1.5237630605697632,0.8718588352203369,2.4606876373291016,0.47120535373687744,2.331825017929077,0.4566308856010437,-2.1812491416931152,2.3518869876861572,-1.07662034034729,0.7187796831130981,0.7669254541397095,-2.1520471572875977
TC0129,0.3083256185054779,1.1120309829711914,-0.5239157676696777,-2.495054244995117,2.3353922367095947,0.9901701211929321,0.8765185475349426,1.224399209022522,1.09992253780365,-0.2690262794494629,-1.3893789052963257,1.9708728790283203,-1.7137278318405151,-0.19149211049079895,2.7833669185638428,-2.114346742630005
TC0130,-0.2680853605270386,0.31066644191741943,1.5584701299667358,0.07390017062425613,0.5733692646026611,1.9449056386947632,1.1095601320266724,-0.0820530354976654,0.10306602716445923,-1.6498422622680664,-1.5718038082122803,0.6133435964584351,-2.259101629257202,1.9577527046203613,0.5765985250473022,-2.253115177154541
TC0131,0.19224092364311218,-1.7237374782562256,0.6728954911231995,1.0273200273513794,-0.7103164196014404,0.12726767361164093,0.3916970491409302,-0.35920900106430054,0.705082356929779,-2.014662981033325,0.13533471524715424,0.8363435864448547,-0.342023640871048,2.0471699237823486,-1.2268235683441162,-1.3627614974975586
TC0132,0.3574618101119995,0.03685816377401352,-2.545888662338257,-1.0706487894058228,-0.22040633857250214,0.825307309627533,0.7372547388076782,-0.011496280319988728,1.8641695976257324,-1.0108990669250488,0.5244945287704468,1.2487303018569946,-0.46286728978157043,0.1810271143913269,-1.2884572744369507,-1.6996484994888306
TC0133,0.2810840308666229,0.24014073610305786,-1.195570707321167,0.4369872808456421,-0.8365257382392883,1.0357494354248047,0.5633445382118225,-0.21018639206886292,0.8829904794692993,-1.7167969942092896,-0.014741751365363598,-0.6668851375579834,-0.33393731713294983,-0.26235806941986084,0.10153552144765854,-0.3642299473285675
TC0134,1.2886027097702026,-0.9254574179649353,-2.503643274307251,-2.2112174034118652,0.43164417147636414,-1.1321680545806885,0.19340376555919647,-1.649715781211853,0.824964702129364,-1.6570955514907837,-0.16449958086013794,1.573427677154541,1.3403223752975464,-0.5725483298301697,1.0860395431518555,-1.7293246984481812
TC0135,0.5485413074493408,-0.0772622674703598,-1.3225618600845337,0.1585494428873062,0.04650371894240379,1.4215312004089355,0.438310444355011,-0.5585107207298279,0.20897749066352844,-0.8267221450805664,0.2504821717739105,0.9868616461753845,1.8590666055679321,-1.3833574056625366,-0.8329883217811584,-0.6065400838851929
TC0136,0.4136899709701538,-1.9112393856048584,-1.667516827583313,-0.08858043700456619,-0.6604723334312439,-0.010329635813832283,0.4415534734725952,-0.31761473417282104,0.0701710432767868,-1.528205394744873,0.5431780219078064,-0.3218456506729126,1.2802388668060303,-0.815506100654602,1.3746756315231323,0.5513640642166138
TC0137,1.6419286727905273,-0.46366825699806213,-1.5452029705047607,0.6873945593833923,-1.506396770477295,0.6267918348312378,0.03305097296833992,-1.1760804653167725,0.9133280515670776,0.25782719254493713,-0.3492755591869354,0.7147785425186157,0.4112565219402313,0.7574478983879089,-0.8881239295005798,-1.3610451221466064
TC0138,0.5075480341911316,-0.8296554088592529,-1.2307802438735962,0.8543534874916077,-0.6238824129104614,-0.4044094681739807,0.4253549575805664,-1.053728461265564,1.7458243370056152,-0.8655572533607483,-0.7046363949775696,0.5936965942382812,0.7352540493011475,-1.3003807067871094,1.4954020977020264,0.3099362552165985
TC0139,0.8495857119560242,-0.381910115480423,-1.9404230117797852,0.14992153644561768,-1.5997782945632935,0.11855562776327133,0.7774117588996887,-1.363168716430664,0.9756227731704712,-0.32840970158576965,-0.8012419939041138,0.9304683208465576,0.17689570784568787,-0.11192188411951065,-1.0905141830444336,-0.5865974426269531
TC0140,0.5651981830596924,0.7615974545478821,-3.1511032581329346,-0.38474106788635254,-0.9849721193313599,1.7002382278442383,1.1053359508514404,-1.0442696809768677,1.0477356910705566,-0.7385193109512329,0.1589287370443344,0.4627949595451355,-1.2938135862350464,-0.34093207120895386,1.0555839538574219,0.34291109442710876
TC0141,0.5618740320205688,-0.4248688519001007,-1.1589696407318115,-0.8817874789237976,-0.6588552594184875,0.1679689884185791,-0.030114969238638878,-0.6164022088050842,-0.23290503025054932,0.38110679388046265,0.10973809659481049,0.35206910967826843,0.9587683081626892,-2.405111789703369,0.3770124614238739,0.39578360319137573
TC0142,0.38990166783332825,-1.0096250772476196,-1.5442492961883545,0.05924542620778084,-0.4398818612098694,0.3881402909755707,0.9702584743499756,-0.2624284327030182,1.111849069595337,0.26292362809181213,-0.5480979681015015,0.6363053321838379,2.0341453552246094,-2.1745049953460693,0.7721669673919678,0.49944329261779785
TC0143,0.5148334503173828,0.912528932094574,-1.6571630239486694,-0.32900166511535645,-0.8180465698242188,0.448930561542511,0.9711107611656189,-1.9533166885375977,0.6863091588020325,-1.2917476892471313,-1.187742829322815,0.05363951250910759,0.7346508502960205,-0.759227454662323,0.2079133689403534,0.39470648765563965
TC0144,1.97891104221344,0.2431149035692215,-2.17041277885437,-0.3888130187988281,-1.978649377822876,-0.574539303779602,0.2693667709827423,-0.5398867130279541,0.5627509355545044,-0.14771367609500885,-0.5338002443313599,1.0437791347503662,1.2228705883026123,-1.5556583404541016,-1.0597965717315674,-0.020995404571294785
TC0145,1.873658299446106,-0.7092836499214172,-2.541062831878662,-0.781285285949707,-0.25691667199134827,-0.5156717896461487,-0.12032058089971542,-0.0562598817050457,-0.2507651150226593,-0.4058580696582794,0.4834505021572113,0.3367067277431488,0.759006142616272,-1.0384321212768555,-1.0419338941574097,0.2111254632472992
TC0146,2.504234552383423,-1.1141167879104614,-2.050443649291992,-0.7665599584579468,-1.5460138320922852,-0.7551188468933105,0.1765652298927307,-1.789670705795288,1.186837911605835,-0.6495866179466248,0.8664791584014893,0.7838827967643738,0.6416971683502197,-0.4633505642414093,-0.7457445859909058,-1.30892014503479
TC0147,0.9910989999771118,-0.41590750217437744,-2.4235124588012695,0.010429928079247475,-1.3373889923095703,0.10293504595756531,0.7828812003135681,-0.7875406742095947,0.12131011486053467,-0.49196869134902954,-0.40825575590133667,0.9477233290672302,-0.364586740732193,-1.2524125576019287,1.460235357284546,1.2419650554656982
TC0148,1.1919598579406738,0.35726699233055115,-1.5113561153411865,-0.5898689031600952,-0.2649332284927368,0.3092268109321594,0.8197811245918274,-0.18371127545833588,0.9932159781455994,-1.0832189321517944,-0.022845419123768806,0.6754958629608154,1.371787190437317,-0.7464192509651184,1.0129200220108032,0.4276982247829437
TC0149,1.2443757057189941,0.04345930367708206,-1.0545331239700317,-0.239762544631958,-0.3580387234687805,0.9676179885864258,0.6012261509895325,-0.31388261914253235,0.77903813123703,-1.2537240982055664,0.29288819432258606,0.2960706949234009,1.8000764846801758,-0.19247063994407654,0.8356372714042664,-0.7854930758476257
TC0150,-0.33414438366889954,0.2243901789188385,-0.4320114552974701,-0.1642996370792389,-0.8320091962814331,0.7447103261947632,-0.5775704383850098,-1.132278561592102,0.6039019823074341,0.4192841649055481,0.08261380344629288,1.6267001628875732,0.2639945447444916,0.45323246717453003,-0.5772963166236877,-2.3120479583740234
TC0151,-0.26115837693214417,0.17920677363872528,-0.6280397176742554,-0.30978384613990784,-0.8283867835998535,0.7364354729652405,-0.5205218195915222,-1.0880920886993408,0.5054965615272522,0.14532272517681122,0.2238268107175827,1.529701828956604,0.5749127864837646,0.5907274484634399,-0.6080073118209839,-2.2259533405303955
TC0152,0.8759335875511169,-0.3482910394668579,-1.51593816280365,0.5347328782081604,0.10051964968442917,0.49844104051589966,0.4210977852344513,-0.6605943441390991,0.6875442862510681,0.1076141819357872,0.6399738788604736,-0.20472587645053864,-0.26718273758888245,-0.677086591720581,0.3863421082496643,0.20562414824962616
TC0153,0.7966485619544983,-0.40392225980758667,-1.0708317756652832,0.5483583211898804,-0.3702075481414795,0.6957269906997681,0.8447239398956299,-0.2357846051454544,0.4977390468120575,-1.4414061307907104,-0.5566627979278564,-0.633820116519928,0.17496570944786072,-0.8834326863288879,-0.0870540589094162,-0.08156522363424301
TC0154,0.4404848515987396,-0.7245093584060669,-1.614035964012146,0.5842735767364502,-0.6768353581428528,0.6451003551483154,1.0829674005508423,-0.7973606586456299,0.40211978554725647,-1.6812931299209595,-0.6941574811935425,-0.2521858215332031,0.1811232715845108,-1.0460108518600464,0.1062544658780098,0.12829582393169403
TC0155,1.2342984676361084,-0.7623456120491028,-1.6126242876052856,1.0336079597473145,-0.7419641017913818,1.2079755067825317,1.2518730163574219,0.13450954854488373,0.3543423116207123,-1.5657074451446533,-1.033778190612793,-0.09210288524627686,0.4347062110900879,-1.5141431093215942,0.19646404683589935,-0.010466494597494602
TC0156,2.1490890979766846,0.42685720324516296,-1.16920006275177,-0.12010333687067032,-1.2231193780899048,-0.11505826562643051,0.6629363298416138,-0.569908082485199,0.42143791913986206,-0.834926426410675,-0.5750916004180908,-0.5461225509643555,0.48383793234825134,-1.406278133392334,1.6579793691635132,0.8023694157600403
TC0157,2.4003121852874756,-0.613515317440033,-0.7543870210647583,-1.3564391136169434,-0.5157448649406433,-0.5851532220840454,1.272681713104248,-0.9390052556991577,-0.48064473271369934,-0.8979642391204834,-0.2744734585285187,-0.35921043157577515,0.6800763010978699,-2.3434972763061523,1.5822384357452393,0.972395122051239
TC0158,2.279979705810547,0.7060815095901489,-1.7665826082229614,0.7140403985977173,-1.2691024541854858,-0.1491585522890091,0.20805464684963226,0.2723694145679474,1.4455695152282715,-0.8842149376869202,-0.605922520160675,0.17075347900390625,-0.12308422476053238,-1.1107635498046875,2.2967936992645264,0.6177778840065002
TC0159,0.42328187823295593,-0.7038977742195129,-1.6798902750015259,1.2048265933990479,-0.11927641183137894,1.126444697380066,0.9237143397331238,-0.07833338528871536,0.9513732194900513,-1.6456676721572876,-0.917661190032959,-0.27253299951553345,-0.25822189450263977,0.5311127305030823,0.1821829378604889,-0.586513102054596
TC0160,1.0532433986663818,-0.17612309753894806,-2.0282323360443115,0.9554427862167358,0.29466772079467773,0.5169231295585632,0.7115325927734375,-0.6852842569351196,-0.05517538636922836,-1.6685839891433716,-1.9677828550338745,-0.14422303438186646,-0.11096654832363129,0.40627288818359375,0.6689817309379578,-0.34833022952079773
TC0161,0.5249453783035278,-0.05606342479586601,-0.8798583745956421,0.2913026809692383,-1.0007648468017578,-0.00637597031891346,1.1800998449325562,0.3890983462333679,0.28494882583618164,-1.910367488861084,-2.2668650150299072,-0.4986289441585541,-0.4558640420436859,-0.397321879863739,-0.6498406529426575,0.4148959517478943
TC0162,1.149053692817688,0.7088464498519897,-1.028937816619873,0.8317679762840271,0.09280303865671158,0.039486363530159,0.4269753396511078,-1.1732865571975708,1.721197247505188,-1.8031814098358154,-1.08378005027771,-0.029751019552350044,1.0927534103393555,-0.4812699258327484,0.2771843671798706,-0.6299892663955688
TC0163,0.7450338006019592,-0.7370445132255554,-0.6515352129936218,-0.5892706513404846,0.8282286524772644,0.41463589668273926,1.2727718353271484,-0.03987342119216919,0.13414055109024048,-0.9957032799720764,0.5681520700454712,-1.5089237689971924,-0.44532254338264465,-1.47426176071167,0.04427945241332054,0.27537620067596436
TC0164,0.07973139733076096,0.6299413442611694,-0.6239495873451233,0.04064201936125755,-0.23216380178928375,1.5721378326416016,0.7900494933128357,0.5626675486564636,1.5698598623275757,-0.8328956365585327,1.406132698059082,-0.4814402759075165,-0.3976620137691498,-0.22489428520202637,0.09936894476413727,0.18504467606544495
TC0165,0.8035967350006104,1.423849105834961,-0.784317135810852,-0.11386124044656754,1.4133278131484985,1.3139618635177612,-0.025882333517074585,0.5811676383018494,0.8178054094314575,-1.1314544677734375,1.1398124694824219,-0.1834993213415146,-0.5239344239234924,-0.2893582284450531,0.8458852171897888,-0.2624579966068268
TC0166,0.4133906364440918,1.3163615465164185,-2.0252556800842285,0.9019650220870972,0.14285051822662354,1.6507660150527954,-0.39726465940475464,-2.7866809368133545,-0.3878673315048218,-0.216869056224823,0.7304858565330505,1.170044183731079,-2.12178111076355,0.5485897660255432,1.9546748399734497,-0.10873223841190338
TC0167,0.10941064357757568,-0.8973469734191895,-2.1249029636383057,0.2387390285730362,0.871824324131012,-0.4946017265319824,-0.6513992547988892,-0.7030026316642761,-0.1141149029135704,-1.8677479028701782,-0.6261190176010132,-0.06880462169647217,0.7080538272857666,-0.035794325172901154,1.5836838483810425,-0.31289589405059814
TC0168,0.441546231508255,-0.6866692304611206,-1.824865460395813,0.21875795722007751,0.6864043474197388,-0.17123888432979584,0.19299936294555664,-1.2519187927246094,0.6571865677833557,-2.028820276260376,-0.4902738928794861,0.0357482023537159,0.6934051513671875,0.006007338408380747,1.6558892726898193,-0.3228806257247925
TC0169,0.5045304298400879,-1.2033220529556274,-2.238877534866333,0.3701843023300171,0.6698810458183289,-0.48577606678009033,-0.25370803475379944,-1.2079718112945557,0.4765731692314148,-1.9875950813293457,-0.5813915133476257,-0.2268887460231781,0.7029791474342346,0.22386915981769562,1.7445783615112305,-0.444843590259552
TC0170,0.4574835002422333,-0.8932742476463318,-2.050227642059326,0.09357671439647675,0.5998274087905884,-0.48452016711235046,-0.19573163986206055,-1.1737608909606934,0.31787756085395813,-2.1026535034179688,-0.6791291832923889,-0.21613354980945587,0.8503616452217102,-0.01576763577759266,1.7330162525177002,-0.39815187454223633
TC0171,1.8017240762710571,-0.6545289754867554,-1.020680546760559,-0.8961634635925293,-1.0475449562072754,1.147799015045166,0.8082889318466187,-1.3356518745422363,-0.3933221399784088,-1.3102424144744873,1.076176404953003,0.6256552338600159,1.8536795377731323,-0.9822280406951904,2.054809808731079,-0.003070683218538761
TC0172,1.7225728034973145,-1.4565931558609009,-1.1738513708114624,-0.6388541460037231,-1.1613918542861938,1.3743711709976196,0.6364213824272156,-1.4414849281311035,-0.8210529088973999,-1.3082307577133179,1.3864115476608276,0.4684275686740875,1.7162470817565918,-0.8687754273414612,1.8529391288757324,-0.32590386271476746
TC0173,1.446846604347229,0.8130172491073608,-2.743025541305542,0.8173356652259827,1.1053519248962402,-0.1830853819847107,-1.898953914642334,0.7853216528892517,1.5878052711486816,-0.7907249331474304,0.8707286715507507,-0.23416724801063538,-0.5924641489982605,0.9956594705581665,0.28809890151023865,-1.089937448501587
TC0174,1.7061445713043213,-0.3058992326259613,-0.775213897228241,0.7183222770690918,0.8153546452522278,0.5915924310684204,-0.10312172770500183,-1.3475717306137085,0.722549319267273,0.3696075677871704,0.4183364808559418,0.9439531564712524,0.23390935361385345,-1.4956393241882324,1.567395806312561,-0.6142081618309021
TC0175,1.5135173797607422,-0.16626392304897308,-0.8952396512031555,-0.5992240905761719,0.8937869668006897,0.9803482890129089,0.7675694227218628,-0.8313437104225159,0.06140805780887604,-0.08236204832792282,0.8613516688346863,1.5934621095657349,-0.024374529719352722,-1.638587236404419,1.5767195224761963,-0.5860128998756409
TC0176,1.7928276062011719,-0.31573134660720825,-0.8381181955337524,-1.2664401531219482,0.7964845299720764,0.21135790646076202,1.3265023231506348,-1.2528408765792847,0.7163270115852356,-0.39930957555770874,0.20769304037094116,1.6960070133209229,-0.2286812961101532,-1.6226048469543457,1.8060388565063477,-0.3890989124774933
TC0177,1.5741565227508545,1.4226748943328857,-0.7386596202850342,-0.4642598032951355,1.788215160369873,0.9343400597572327,-0.3898393511772156,-1.2407352924346924,-0.5665349364280701,-0.8611469864845276,0.8326559662818909,0.8044092059135437,-0.7987644076347351,1.1992833614349365,-0.4975579082965851,-0.3458430767059326
TC0178,2.051685094833374,-0.0875108391046524,0.1151609718799591,-0.2626636028289795,2.239192247390747,-0.46250298619270325,-1.0283539295196533,-1.2684513330459595,-1.4429478645324707,0.11749514192342758,0.6193738579750061,0.8482589721679688,-1.2284624576568604,0.49886319041252136,-0.1834336221218109,-0.4224529564380646
TC0179,1.5501853227615356,-0.06457214802503586,-1.4045559167861938,-1.2208545207977295,0.528808057308197,-0.023586997762322426,-0.027203628793358803,-1.2920374870300293,0.06250069290399551,-1.304160714149475,1.2553502321243286,0.2039618045091629,-0.2213280349969864,-1.0789999961853027,2.2129766941070557,0.05124306678771973
TC0180,0.8576761484146118,-0.6248539686203003,-1.7574257850646973,-0.37770575284957886,0.5114449262619019,-0.9682604670524597,-0.48059359192848206,-0.9156910181045532,1.3817284107208252,-1.2704858779907227,0.622884213924408,-0.09984777122735977,-0.2571141719818115,-0.359141081571579,1.698706030845642,-0.5052164793014526
TC0181,0.5405959486961365,-0.8310200572013855,-2.337022542953491,0.37230074405670166,0.9698851108551025,-0.6194113492965698,-0.4563135802745819,-1.2148350477218628,0.5514636635780334,-1.9459456205368042,-0.4901675283908844,-0.2572652995586395,0.8949984312057495,0.3482002019882202,1.5382647514343262,-0.3508717119693756
TC0182,1.7361438274383545,-0.5662518739700317,-1.0202412605285645,-0.5165300369262695,-0.4796704351902008,1.206892728805542,0.4685010015964508,-1.7498867511749268,-0.6050143241882324,-1.5522353649139404,0.8860464692115784,0.2331877201795578,1.8109517097473145,-0.6030924320220947,2.152252435684204,-0.009086339734494686
TC0183,1.698495626449585,-0.9621486067771912,-1.4464365243911743,-0.7057733535766602,-0.6728922128677368,1.0352532863616943,0.14938125014305115,-1.697218894958496,-1.0120540857315063,-1.647621512413025,0.9706379771232605,0.21521182358264923,1.6638071537017822,-0.463728666305542,1.712820053100586,-0.24885471165180206
TC0184,0.8505077362060547,0.24870246648788452,-0.20489591360092163,0.25264114141464233,-0.5645310878753662,2.006052017211914,0.4935242533683777,1.454520583152771,0.28329864144325256,-0.7559196949005127,1.577100157737732,-0.8080833554267883,-1.263046145439148,-0.1202424168586731,-0.05714082717895508,-0.37605857849121094
TC0185,1.2469031810760498,-1.8787051439285278,2.5048418045043945,-1.1571142673492432,-0.816796600818634,4.303707122802734,1.528000831604004,0.15716227889060974,-1.9548726081848145,-0.21618613600730896,2.250661611557007,0.33002105355262756,-0.8750706911087036,-0.6972923874855042,0.9462240934371948,-2.4413676261901855
TC0186,0.9742393493652344,0.1357591301202774,-0.3688487112522125,0.47805675864219666,-0.3383236825466156,2.3502306938171387,0.46769610047340393,1.8150599002838135,-0.08372998237609863,-1.2061514854431152,1.2285383939743042,-1.3822522163391113,-1.9482662677764893,0.7460653185844421,-0.003653541672974825,-0.8536249995231628
TC0187,1.3265708684921265,0.28256338834762573,-0.12090916931629181,-0.2089323103427887,-0.6706566214561462,2.5265085697174072,0.6058056950569153,1.8475940227508545,0.06967473775148392,-0.9736537933349609,1.3777203559875488,-1.3197920322418213,-1.640572190284729,0.3771313428878784,0.2245780974626541,-0.959661602973938
TC0188,0.913032591342926,0.47665178775787354,0.208317831158638,-0.10191324353218079,-0.06296077370643616,1.8807531595230103,0.5301157236099243,1.5936874151229858,0.6977746486663818,-1.3796148300170898,1.5802358388900757,-1.1414986848831177,-0.546536386013031,-0.07516825199127197,0.38730716705322266,-0.5834688544273376
TC0189,1.07978355884552,-0.19457180798053741,-0.3901573717594147,-0.3647739887237549,-0.6606186032295227,1.7150031328201294,0.14326809346675873,2.2471365928649902,-0.19441863894462585,-1.2901709079742432,1.2842320203781128,-1.7984764575958252,-1.8355600833892822,0.24452325701713562,0.10237252712249756,-0.9027171730995178
TC0190,0.11992771178483963,-0.7274518609046936,0.46025100350379944,-1.221535086631775,-0.5126217007637024,1.37764310836792,0.8726044297218323,1.2506436109542847,-0.48505499958992004,-1.5790613889694214,1.2585476636886597,0.2836037278175354,0.6522142887115479,-1.1635175943374634,0.037565335631370544,-1.0475951433181763
TC0191,1.3163857460021973,0.05246536806225777,-0.3299127519130707,-0.21566632390022278,-0.6858438849449158,2.053190231323242,0.26391202211380005,1.9923818111419678,0.004649403039366007,-0.9757927060127258,1.6495845317840576,-1.6094348430633545,-1.733259677886963,0.2978655993938446,-0.0012115963036194444,-0.813612699508667
TC0192,-0.09134537726640701,-0.6534360647201538,0.5014894008636475,-0.29013076424598694,-0.8297962546348572,1.6860554218292236,-1.3775256872177124,0.7302502989768982,-0.5878820419311523,-0.4960486590862274,1.3960050344467163,-0.38933488726615906,-1.0010335445404053,-1.7609833478927612,3.0328421592712402,-1.6307165622711182
TC0193,0.9383363127708435,-0.7526345252990723,-2.248844861984253,-1.2570430040359497,0.5870829820632935,1.0113712549209595,1.0233042240142822,0.34995561838150024,0.5836141109466553,-1.7500872611999512,1.5673869848251343,-0.16599141061306,-2.6370785236358643,1.6587727069854736,0.6639569401741028,-0.5135113596916199
TC0194,0.6205996870994568,-0.11807704716920853,-0.1782335638999939,0.13474099338054657,0.28706738352775574,2.3385138511657715,1.342079520225525,0.6533480882644653,0.017860988155007362,-0.2732991874217987,0.7127634882926941,0.02154899761080742,-2.6906325817108154,1.9772361516952515,1.208583950996399,-0.2719191908836365
TC0195,0.7559676170349121,-0.8258294463157654,-1.8663771152496338,-1.0415623188018799,0.9129088521003723,1.5058273077011108,0.8174726963043213,0.6173005104064941,0.10743170231580734,-1.3374780416488647,2.006225347518921,-0.378838449716568,-2.0697181224823,1.3830119371414185,0.5629537105560303,-0.8256732821464539
TC0196,-1.3369762897491455,-1.309999704360962,1.0749619007110596,-2.9133551120758057,-3.096709966659546,2.1605968475341797,0.36980190873146057,1.062830924987793,0.8400886058807373,2.344741106033325,1.3127626180648804,0.7368015050888062,-2.6347107887268066,3.6742947101593018,0.5217630863189697,-2.586935520172119
TC0197,0.18897035717964172,-0.7877069115638733,-1.8231680393218994,-0.5691787600517273,0.310181587934494,1.7408560514450073,1.0107331275939941,-0.045030295848846436,0.3498474359512329,0.41037020087242126,1.2027429342269897,0.12486793100833893,-2.700894832611084,2.4769604206085205,-1.0369938611984253,-0.4175702631473541
TC0198,-0.48124951124191284,-0.7243180274963379,-2.1473565101623535,-1.1072547435760498,1.1238491535186768,1.4938406944274902,0.11414951831102371,0.5886895060539246,-0.18962720036506653,0.18972285091876984,1.3642630577087402,-0.7107023000717163,-2.5625557899475098,2.305354118347168,-1.0726627111434937,-0.8128038048744202
TC0199,0.7722635269165039,0.44702988862991333,0.006397665478289127,-0.4142674505710602,0.03108508512377739,2.0028960704803467,0.17768022418022156,2.1299235820770264,0.15787780284881592,-1.1709738969802856,1.5535368919372559,-1.5156149864196777,-1.6505894660949707,0.3189784288406372,0.015063758008182049,-0.8318853974342346
TC0200,0.08904792368412018,-0.49713900685310364,-0.7241939306259155,-1.170729637145996,-0.5196132063865662,0.5575538873672485,0.01647522859275341,1.0048247575759888,0.5563445687294006,-0.6221743226051331,1.7830594778060913,-0.7057144641876221,-1.6106187105178833,0.09721362590789795,0.38485977053642273,-0.48389631509780884
TC0201,-0.5112155079841614,-0.07414080202579498,-0.8660958409309387,-0.8518771529197693,0.07853354513645172,1.2861454486846924,1.0412755012512207,0.6978914737701416,0.3757748305797577,-1.2357869148254395,0.6724506616592407,-0.2800931930541992,-2.1902523040771484,-0.8382934927940369,1.1356480121612549,-0.3785272240638733
TC0202,-0.10159683972597122,-0.9621803760528564,-1.74946928024292,-0.08700292557477951,1.086065411567688,0.9477590918540955,-0.33079347014427185,0.5749346017837524,0.027496928349137306,-0.047385457903146744,1.7141435146331787,0.8934661149978638,-3.176926851272583,0.8722232580184937,1.2941545248031616,-0.0763511061668396
TC0203,-0.044728055596351624,0.06378401070833206,-0.39214178919792175,-0.14683754742145538,1.1418620347976685,1.0894173383712769,-0.5027503371238708,0.36687153577804565,0.3571869730949402,0.2726653218269348,2.377833366394043,0.6459976434707642,-2.115471601486206,0.8193987607955933,0.8896079063415527,0.4213655889034271
TC0204,1.7705292701721191,0.2965013384819031,-0.8020779490470886,-1.158025860786438,1.356256127357483,-0.2811671793460846,0.8054501414299011,0.7616775631904602,1.5322790145874023,0.5297917127609253,1.2809513807296753,1.2487270832061768,-2.9582765102386475,0.6531563997268677,-0.5579798221588135,-0.8071708679199219
TC0205,-0.2105426788330078,1.9253134727478027,-0.7058264017105103,-2.1132054328918457,0.4035813808441162,0.8285298347473145,-0.2261805683374405,0.5353897213935852,0.3333700895309448,0.00824455451220274,0.3044675588607788,0.7618016004562378,-0.7456504702568054,-2.153686046600342,-1.545571208000183,-0.8727383613586426
TC0206,0.36772364377975464,0.9948420524597168,-0.3677407205104828,-1.3940446376800537,-0.8773454427719116,-0.11118459701538086,1.5608961582183838,0.8599498867988586,0.9472896456718445,1.0605120658874512,-2.116448402404785,0.9346212148666382,0.07298174500465393,-1.3575598001480103,-1.250118613243103,0.3894710838794708
TC0207,-0.09888620674610138,1.2812074422836304,-1.1365736722946167,-0.6360212564468384,-0.09999021887779236,0.16820664703845978,0.3112862706184387,0.8088091015815735,1.0133922100067139,0.20682671666145325,-2.3778841495513916,1.8119628429412842,1.3029980659484863,-0.9787556529045105,0.3317757546901703,0.11290425062179565
TC0208,-0.2012489289045334,1.6884901523590088,1.0485551357269287,-1.0489152669906616,0.09231772273778915,-0.24644719064235687,-0.5144719481468201,-0.6803889870643616,1.3501344919204712,-0.03449113294482231,-0.9274749755859375,-0.6929246187210083,0.7836684584617615,-1.013327956199646,-1.9221360683441162,-1.6847997903823853
TC0209,-0.7553601861000061,1.4460543394088745,0.19530941545963287,-2.4426310062408447,-1.044540524482727,-0.5714899301528931,-0.1959783285856247,0.8491395115852356,1.4824597835540771,0.17447996139526367,0.20040848851203918,1.1701664924621582,0.3054700791835785,-1.6178346872329712,-1.6600241661071777,-0.9004223942756653
TC0210,-1.0178378820419312,2.5004827976226807,-0.3114253282546997,-2.9068336486816406,-0.26088953018188477,0.8622458577156067,-0.04974931851029396,-0.42424073815345764,1.0654863119125366,0.830531120300293,-0.34955206513404846,0.48066237568855286,1.0043516159057617,-0.015574634075164795,-0.6439929604530334,-1.2058895826339722
TC0211,-0.5512766242027283,2.3307435512542725,0.15215130150318146,-2.3965160846710205,1.0829136371612549,0.6376024484634399,-0.4343375265598297,-0.4940098226070404,0.3749810457229614,1.504156470298767,-1.2209358215332031,0.7296223640441895,0.0545138455927372,-1.5344302654266357,-0.38723549246788025,-1.3187247514724731
TC0212,-1.1068840026855469,1.4043935537338257,-0.9109165668487549,-0.21686942875385284,0.5601450204849243,0.20858702063560486,0.07489574700593948,-0.5060285329818726,1.5252795219421387,-1.334457516670227,-2.5649991035461426,0.06230543181300163,-0.4912815988063812,-1.373570442199707,0.5048677921295166,-0.7676674723625183
TC0213,1.160508155822754,-0.1085178405046463,0.3022475242614746,-0.18504026532173157,0.4680798351764679,-0.04270796477794647,-0.5826181173324585,0.6817606687545776,0.4837256371974945,1.0008736848831177,-0.12993048131465912,0.34984955191612244,1.217673659324646,-1.3313243389129639,-1.5861334800720215,-1.1040022373199463
TC0214,-0.13938850164413452,0.824772298336029,0.704990565776825,-0.5003016591072083,1.378299355506897,0.6129937171936035,0.042172159999608994,-0.11180337518453598,-0.1071842685341835,-0.9357885718345642,-1.1277238130569458,-0.9309415817260742,0.6886053681373596,-1.5849264860153198,-0.993969738483429,-0.9400189518928528
TC0215,-0.3217971622943878,1.050901174545288,1.2304502725601196,-0.8327939510345459,1.1491962671279907,1.8647353649139404,0.8089704513549805,0.7289719581604004,-0.24134542047977448,-1.9794727563858032,-0.7431350350379944,-1.5284748077392578,-0.2340535670518875,-0.5234612822532654,-1.8577326536178589,-1.3707003593444824
TC0216,-0.5119702219963074,0.9969095587730408,-0.5344939827919006,-1.7293182611465454,1.259721279144287,0.6782367825508118,0.6893779039382935,1.8229314088821411,0.545031726360321,-0.7586092948913574,-1.2963438034057617,-1.3845016956329346,0.894936740398407,-0.6666909456253052,-1.617368459701538,-0.3990667164325714
TC0217,-0.47744280099868774,0.764613687992096,-0.9655148983001709,-1.7454217672348022,1.5770530700683594,-0.09698086977005005,0.2012937068939209,1.4754403829574585,0.36703720688819885,-1.04244065284729,-1.603981614112854,-1.4514776468276978,1.2031179666519165,-0.5674148797988892,-1.4470202922821045,-0.23752474784851074
TC0218,-0.6390634775161743,0.7778576016426086,-0.480525404214859,-1.1753891706466675,1.596171498298645,0.6485311985015869,0.5634684562683105,1.4511200189590454,0.4939735531806946,-0.8341493010520935,-1.3285739421844482,-1.6766527891159058,0.9342890977859497,-0.20903392136096954,-2.032291889190674,-0.6476663947105408
TC0219,-0.5486590266227722,0.745671808719635,-0.9706493020057678,-1.9586259126663208,1.564841866493225,0.08582233637571335,0.25311532616615295,1.589234709739685,0.22119446098804474,-0.9905008673667908,-1.3932989835739136,-1.7601054906845093,0.8401442766189575,-0.6194925904273987,-1.282046914100647,-0.40679070353507996
TC0220,-0.9692301154136658,0.3484073579311371,-1.4647570848464966,-1.3391295671463013,0.867336630821228,0.7914313673973083,-0.04898702725768089,1.5532715320587158,-0.056887153536081314,-0.6269819736480713,-0.2274196594953537,-1.2872908115386963,0.8257474899291992,0.2893979251384735,-0.546120822429657,-0.4930264949798584
TC0221,-0.5785938501358032,1.5111362934112549,0.5486647486686707,-0.7613610625267029,1.5047447681427002,1.9690661430358887,-0.08443103730678558,1.0165762901306152,-0.06595762073993683,-0.32194554805755615,-1.4981764554977417,-1.6039345264434814,0.6146308183670044,-0.38841530680656433,-1.1545742750167847,-1.2288633584976196
TC0222,-0.4661296606063843,0.7591942548751831,-0.022681066766381264,-0.5571739077568054,0.6883149147033691,0.757598876953125,-0.4937153160572052,1.2471003532409668,-0.1133325919508934,-0.4198247790336609,-1.9339640140533447,-1.3206428289413452,0.764354407787323,-0.3657020330429077,-1.3692374229431152,-1.24128258228302
TC0223,-0.30995699763298035,1.296605110168457,0.28075486421585083,-0.7763077020645142,0.8312559723854065,0.7708120346069336,-0.7844889163970947,1.374577522277832,-0.11702936142683029,-0.7682172656059265,-1.1334558725357056,-1.7274969816207886,0.5345981121063232,-0.19488242268562317,-1.4813786745071411,-1.3131498098373413
TC0224,-0.6536630392074585,1.9338995218276978,1.1532151699066162,-1.071574330329895,2.8031156063079834,2.2584307193756104,-0.38444626331329346,0.6357319355010986,-0.1333926022052765,-0.04242140054702759,-2.865330457687378,-1.8024439811706543,-0.25081583857536316,0.41704893112182617,-0.2828739881515503,-2.708225965499878
TC0225,-1.2108110189437866,0.7123454213142395,0.402657151222229,-1.529209852218628,1.1855096817016602,0.39032888412475586,-2.0740251541137695,0.9704138040542603,-0.3424939513206482,0.5088223814964294,-1.2911252975463867,-2.366340160369873,0.20792976021766663,-0.10588301718235016,-0.294919490814209,-2.6431562900543213
TC0226,-1.6589106321334839,1.7173311710357666,1.5170869827270508,-0.3181138038635254,-0.5059894323348999,0.931160569190979,-0.8381133079528809,-0.3769157826900482,0.5382755398750305,0.41966331005096436,-1.687760829925537,-1.1052234172821045,0.2453136295080185,0.5394746661186218,-1.9710098505020142,-1.5218769311904907
TC0227,-0.35191142559051514,1.9697892665863037,-0.6718754172325134,-0.48175594210624695,2.17376971244812,0.6044163107872009,-1.4516435861587524,-0.15648344159126282,-0.16838109493255615,0.6164129972457886,-1.2198622226715088,-1.1867800951004028,-1.4697954654693604,-0.6508428454399109,-1.2047265768051147,-1.0330085754394531
TC0228,-1.8460086584091187,1.9556409120559692,1.4452526569366455,0.3281000256538391,-0.13982437551021576,1.2026991844177246,-1.5932344198226929,-0.4646756052970886,0.46577906608581543,0.4302496612071991,-1.6787058115005493,-1.1729248762130737,0.15711523592472076,0.8534488081932068,-1.872748613357544,-1.9276604652404785
TC0229,-0.35669711232185364,1.8711715936660767,-0.588034987449646,-0.20466992259025574,2.1118240356445312,0.987811267375946,-1.8349698781967163,-0.11179400235414505,-0.633034348487854,0.9969455599784851,-1.3958178758621216,-1.0713589191436768,-1.872578740119934,-0.324231892824173,-1.2474143505096436,-1.6044869422912598
TC0230,-0.30216184258461,1.8598090410232544,-0.332205206155777,-1.2669661045074463,-0.9426960945129395,0.5805175304412842,-0.0027252642903476954,1.1732268333435059,0.9324589371681213,0.9695551991462708,-0.6304923295974731,0.9887335896492004,0.19249694049358368,-0.9935975670814514,-0.12713117897510529,-0.4930078685283661
TC0231,-0.9165580868721008,-0.8226719498634338,-0.04270037263631821,0.42232513427734375,0.18583783507347107,0.10239705443382263,0.29546821117401123,-0.3792712092399597,0.2241317629814148,0.1720244437456131,-1.1773171424865723,0.14389126002788544,0.5150327086448669,-0.26484042406082153,-1.2823474407196045,-0.03911375254392624
TC0232,-0.8092148900032043,3.012695074081421,2.0150465965270996,-0.871408998966217,2.4384570121765137,1.1840473413467407,-2.189789056777954,-0.05960594490170479,-0.8074678182601929,-0.0017919628880918026,1.103292465209961,-1.5528466701507568,-1.7215543985366821,-1.6404359340667725,-0.34875184297561646,-0.9832292795181274
TC0233,-0.7887343764305115,1.2713851928710938,0.21016201376914978,-0.7408367395401001,0.5524328351020813,0.30142247676849365,-0.6763724088668823,0.6288087964057922,0.21999147534370422,1.0131731033325195,-0.3838901221752167,0.3429746627807617,-1.4624770879745483,-2.0686264038085938,0.4672900140285492,0.31825321912765503
TC0234,-0.9146221876144409,1.4125206470489502,0.9963898658752441,-1.662629246711731,2.3607378005981445,0.28428149223327637,-1.1050313711166382,0.6546407341957092,-0.7982903718948364,0.21285787224769592,-0.2530200183391571,-0.7851623296737671,-1.8582448959350586,-1.7854894399642944,0.5638541579246521,-0.3001841902732849
TC0235,-1.0410804748535156,1.961822271347046,1.3530055284500122,-1.6651638746261597,2.1961708068847656,1.4312580823898315,-0.49596327543258667,0.501681387424469,-0.6839194893836975,0.14253711700439453,-0.13848790526390076,-1.0134650468826294,-2.517690658569336,-1.4935063123703003,1.1625200510025024,-0.23315326869487762
TC0236,-0.10372700542211533,0.7130492329597473,1.0913914442062378,-0.30866166949272156,1.859687089920044,1.0115725994110107,-0.03250521048903465,1.1808212995529175,0.41525402665138245,-0.5010409951210022,-1.1031579971313477,-1.0075877904891968,1.4880791902542114,-0.3754090368747711,-0.8678438067436218,-1.0259568691253662
TC0237,-0.37475886940956116,0.8202177286148071,1.1032675504684448,-0.06395943462848663,1.40330970287323,1.1914552450180054,-0.06556206196546555,1.5078974962234497,0.4572446048259735,-0.6590579748153687,-1.501854658126831,-0.5959746241569519,1.3408809900283813,-0.24808958172798157,-1.259669303894043,-1.3571988344192505
TC0238,-2.110928773880005,-0.3285297751426697,-1.6968775987625122,0.728950560092926,0.10921882838010788,0.6368197202682495,-0.027620874345302582,-0.16484081745147705,-0.42177635431289673,-0.3621307909488678,-1.9992300271987915,1.1521611213684082,-0.6814790964126587,0.2743687629699707,-1.880388617515564,0.5853226780891418
TC0239,-1.1430087089538574,0.27128228545188904,-0.4860153794288635,0.787326455116272,0.7514142394065857,1.0736398696899414,0.22871528565883636,0.8115414977073669,-0.9379943013191223,-0.27462905645370483,-0.7835716009140015,1.7106198072433472,-1.1608543395996094,0.14314378798007965,-1.098831295967102,1.2805256843566895
TC0240,0.18392163515090942,-0.8031519055366516,0.07512839883565903,0.4738563299179077,1.2206108570098877,-0.6036062240600586,0.7159656882286072,-0.5518152117729187,-0.2542360723018646,-1.2084033489227295,-1.013304591178894,1.875027060508728,-1.7824196815490723,0.6125772595405579,-1.433283805847168,0.8883311748504639
TC0241,1.0445277690887451,0.27654343843460083,-1.5763946771621704,-0.6921330094337463,0.5298380255699158,0.4737412929534912,2.4557018280029297,-0.8635887503623962,-0.29621458053588867,1.6613762378692627,-0.7253038287162781,2.348515510559082,-1.9764015674591064,-0.1269761621952057,-2.483553171157837,2.7545509338378906
TC0242,-0.54152512550354,0.8844934701919556,1.0581001043319702,-0.1366558074951172,-0.9425126314163208,0.9377484321594238,0.9553439617156982,0.9990967512130737,1.5858941078186035,-0.4763980507850647,0.9293762445449829,-1.1012210845947266,0.3725752532482147,0.09469158202409744,-1.6892836093902588,0.7365443110466003
TC0243,-1.578364372253418,0.23314619064331055,1.4461747407913208,0.5990219712257385,-0.9134070873260498,1.7965424060821533,0.6897416114807129,0.4530561864376068,1.0323749780654907,-1.106453537940979,1.0223126411437988,-1.4053846597671509,-0.048204801976680756,1.1768543720245361,-1.980373740196228,0.7876303791999817
TC0244,-1.724945306777954,0.4046768248081207,1.964814305305481,0.6680483222007751,-1.07334566116333,1.870310664176941,0.3754010796546936,0.9458414316177368,1.0672266483306885,-0.7276917695999146,0.9983166456222534,-1.6380436420440674,-0.17941449582576752,1.0196117162704468,-2.3658864498138428,0.7071717381477356
TC0245,-1.9642417430877686,0.2334166318178177,2.404020309448242,0.8611311912536621,-1.0441277027130127,2.5225460529327393,0.8075185418128967,0.8144491314888,1.4240871667861938,-0.7732251882553101,1.4480278491973877,-1.9863001108169556,-0.6331267952919006,1.4838107824325562,-2.759958267211914,0.8384594917297363
TC0246,-1.898263931274414,-1.1404130458831787,1.7155526876449585,-1.0222035646438599,-2.5179970264434814,0.7352961301803589,0.8498838543891907,1.7545948028564453,-0.5107516050338745,-0.14195816218852997,-1.7094298601150513,-1.5206435918807983,-2.258958101272583,2.3201706409454346,-3.33815860748291,-0.8227283358573914
TC0247,-1.7403204441070557,1.0461167097091675,1.6451491117477417,-2.025416374206543,-0.9276729822158813,0.12471632659435272,0.7494168281555176,0.3672564923763275,-0.09061403572559357,-0.36528280377388,0.5861386656761169,-1.3830320835113525,0.4230484664440155,-1.1159892082214355,-2.3697450160980225,2.0357751846313477
TC0248,-1.1501950025558472,0.40217816829681396,1.2496414184570312,-0.27376484870910645,-0.8111054301261902,0.7502443194389343,1.2957717180252075,1.1178258657455444,1.7925156354904175,-0.5314655303955078,0.2511332631111145,-1.9090235233306885,0.5299550294876099,0.8070651292800903,-2.1954188346862793,0.9058431386947632
TC0249,-0.6899570822715759,0.8431331515312195,2.605172872543335,0.7246729731559753,-1.306411623954773,1.7732547521591187,-0.019355764612555504,0.4166579842567444,1.180873990058899,-0.574529230594635,2.3932511806488037,-1.2898029088974,0.552701473236084,1.370436668395996,-1.8835418224334717,0.19710899889469147
TC0250,-1.1837921142578125,0.8188454508781433,2.305420398712158,0.4079195261001587,-1.034960150718689,1.884824514389038,0.5333039164543152,0.5397117137908936,0.973503053188324,-0.994784414768219,2.1210672855377197,-1.7695446014404297,0.5607990622520447,0.9631653428077698,-2.0165953636169434,0.8556398153305054
TC0251,-0.40326127409935,-0.020221585407853127,1.4516592025756836,-0.7744738459587097,-2.6591196060180664,0.19913333654403687,0.3485061526298523,-0.68441241979599,1.2725107669830322,-0.7502658367156982,1.227765440940857,-1.449452519416809,0.610355794429779,0.293805867433548,-1.1815298795700073,0.06891273707151413
TC0252,-0.6085900068283081,0.08338859677314758,1.6224576234817505,0.2921871840953827,-1.12647545337677,0.9700613021850586,0.12026378512382507,0.7299885749816895,0.67216557264328,-0.7041022181510925,1.917901873588562,-2.0108883380889893,0.12988179922103882,1.2542375326156616,-0.9154778718948364,1.1041356325149536
TC0253,-0.5759073495864868,0.5259501338005066,1.760364294052124,-0.12316427379846573,-1.1341451406478882,0.7215312123298645,-0.01866818219423294,0.509244441986084,0.8041801452636719,-0.9814634919166565,1.5902106761932373,-1.9163076877593994,0.11442672461271286,1.078857660293579,-1.0833996534347534,1.0730931758880615
TC0254,-0.6361613273620605,-0.3623743951320648,1.2750661373138428,0.7857375741004944,-1.0785976648330688,0.7130005955696106,-0.6131133437156677,0.08995595574378967,0.05693989619612694,-0.7818564176559448,0.9622715711593628,-1.8354851007461548,0.4987267851829529,1.1588609218597412,-0.6829215884208679,0.07498345524072647
TC0255,-0.6328662037849426,0.8404932618141174,1.2502294778823853,-0.640855610370636,-1.7829235792160034,0.647841215133667,0.5579766631126404,0.23338301479816437,2.128162384033203,-0.01764627732336521,1.5379935503005981,-1.1672664880752563,-0.96009361743927,0.6898747682571411,-0.7624347805976868,0.1751624345779419
TC0256,-0.9769322872161865,0.4255927801132202,1.6938624382019043,0.8285208344459534,-1.0846284627914429,1.5118474960327148,-0.5333842635154724,0.6365838050842285,0.4383135437965393,-0.6333341598510742,2.1307926177978516,-1.4857577085494995,0.48353758454322815,1.115626573562622,-1.116016149520874,1.0396279096603394
TC0257,-0.3932133615016937,0.9253147840499878,1.1622564792633057,-0.01818801462650299,-1.159977912902832,0.5021700859069824,-0.6543044447898865,0.8646692633628845,0.16327089071273804,-0.2632100582122803,1.1981083154678345,-2.1168713569641113,-0.7268721461296082,0.42795485258102417,-0.9588202834129333,0.25670385360717773
TC0258,1.2460002899169922,-0.03316965699195862,4.5547895431518555,-0.7697306871414185,-3.1896255016326904,0.26577451825141907,1.5273288488388062,0.6444878578186035,1.6925783157348633,0.5819417834281921,1.1991887092590332,-1.7663683891296387,-5.013277053833008,2.556201457977295,-2.4437248706817627,-0.5595145225524902
TC0259,0.1082126796245575,-0.29908061027526855,-0.4670427739620209,-0.3935319185256958,-1.7342089414596558,0.564980149269104,-0.7471664547920227,0.8438199758529663,1.4318180084228516,0.4693615138530731,1.9949138164520264,-1.5231455564498901,-1.5773499011993408,0.5315083265304565,-1.363999366760254,-1.685359001159668
TC0260,0.19128423929214478,0.15975326299667358,1.4475500583648682,1.4912238121032715,-1.611767053604126,1.2694331407546997,-0.48633041977882385,-0.13034464418888092,0.29909688234329224,-1.0346436500549316,1.912553071975708,-2.793566942214966,0.2169049084186554,1.0217416286468506,-0.8132599592208862,1.1149449348449707
TC0261,0.822208821773529,0.35894525051116943,1.1645795106887817,0.961796224117279,-1.4810935258865356,1.5415544509887695,0.9807170033454895,-0.2208402007818222,0.8565965294837952,-1.128479242324829,1.8505364656448364,-1.3785184621810913,0.39572927355766296,1.1876863241195679,-0.6765696406364441,1.1670650243759155
TC0262,-1.1447134017944336,-1.1263790130615234,0.9577907919883728,0.5499292612075806,-1.571526288986206,0.2946968078613281,1.2258565425872803,0.38666239380836487,1.5952397584915161,-0.7796323299407959,-0.5697320699691772,-2.315002202987671,0.09944476932287216,0.10143761336803436,-1.5078222751617432,1.1356382369995117
TC0263,0.5528607964515686,0.45330363512039185,2.6807830333709717,-1.1245077848434448,-1.8483829498291016,0.9604542851448059,0.3764146864414215,0.5430510640144348,-0.3577118217945099,-1.9949067831039429,2.470830202102661,-1.5706939697265625,0.9912766814231873,0.6199748516082764,-0.6023410558700562,0.620080292224884
TC0264,-0.8404072523117065,1.204606533050537,1.5663267374038696,0.8851883411407471,0.034766241908073425,0.3700280487537384,0.3902589976787567,-0.5298553705215454,0.9165201783180237,-0.9268918633460999,-0.03459342569112778,-1.321419596672058,-1.2363495826721191,1.768311619758606,-0.9082059264183044,1.9065295457839966
TC0265,-0.8040522933006287,-0.18477585911750793,1.499205470085144,0.3550785779953003,-1.2131519317626953,1.0620718002319336,-0.5222414135932922,1.1923391819000244,0.5524718761444092,-1.3553544282913208,1.8552409410476685,-1.330685019493103,0.5922939777374268,0.6548609137535095,-1.4100579023361206,-0.23089738190174103
TC0266,-0.5341275930404663,0.5922619700431824,2.118018627166748,0.7182123064994812,-1.317213773727417,1.3022390604019165,-0.9079073667526245,-0.34377169609069824,0.0019249733304604888,-1.5084155797958374,1.7978787422180176,-1.7611733675003052,0.6350479125976562,0.6681827306747437,-1.4128819704055786,0.12217646092176437
TC0267,-0.32785356044769287,-0.582874059677124,0.7156612277030945,0.5555022954940796,-0.9074051380157471,0.7878797650337219,0.1756676733493805,1.0853140354156494,0.4958840012550354,-0.9537765383720398,0.6518701910972595,-1.5544590950012207,1.0795921087265015,0.27363666892051697,-1.5176949501037598,0.08787918835878372
TC0268,0.08055181056261063,-0.34412693977355957,1.4979043006896973,0.6729393601417542,-1.0120525360107422,1.425732970237732,-0.36523929238319397,1.021748423576355,-0.2244722545146942,-1.4291083812713623,1.98926842212677,-1.5837169885635376,1.2586119174957275,0.4955991506576538,-1.4531538486480713,0.5989314913749695
TC0269,0.05883760377764702,-0.7471886277198792,1.576547384262085,0.7756292819976807,-1.8643029928207397,0.6942327618598938,-0.9759392738342285,0.8953545093536377,-0.23904989659786224,-2.154587507247925,1.8160016536712646,-1.6201584339141846,1.7241172790527344,1.0214877128601074,-1.0394083261489868,0.5461466908454895
TC0270,-0.8685941100120544,0.37967154383659363,2.354624032974243,-0.8613349199295044,0.6294327974319458,1.84568190574646,1.5660821199417114,0.5319844484329224,-0.4573952257633209,0.36968788504600525,0.004873262718319893,-2.2592527866363525,-0.2853676378726959,-0.7175294160842896,-1.2549610137939453,1.946923851966858
TC0271,-0.7101326584815979,0.7098131775856018,1.8696473836898804,-0.3386442959308624,0.3901321291923523,0.8604913353919983,0.4527454078197479,0.545312225818634,-0.3547538220882416,-0.27288809418678284,0.5412741899490356,-2.492145538330078,0.15731634199619293,-0.22388003766536713,-1.3513528108596802,2.027170181274414
TC0272,-1.064016342163086,1.273903727531433,1.9597727060317993,-0.3771101236343384,-0.23279806971549988,0.922331690788269,0.7087072730064392,-0.7409242987632751,1.3069568872451782,0.2859424948692322,0.4488909840583801,-1.1627867221832275,-0.5525729656219482,0.7652798891067505,-1.5116246938705444,0.8861099481582642
TC0273,-0.533170759677887,-0.1290731132030487,1.3928359746932983,0.23710553348064423,-0.05664021894335747,0.2659182548522949,-0.22858545184135437,-0.6651341915130615,-0.45969265699386597,0.13972996175289154,0.845961332321167,-1.3660919666290283,-0.05956099554896355,0.8718944191932678,-1.39984929561615,0.7055246233940125
TC0274,-2.3196606636047363,-1.9290645122528076,1.8141422271728516,-0.25963094830513,0.7659868001937866,0.08557767421007156,-0.013468259014189243,-0.7093168497085571,0.7059775590896606,-0.4863858222961426,0.7519487738609314,-1.1257702112197876,-1.2380647659301758,0.1812553107738495,-1.881056785583496,-0.991744875907898
TC0275,-1.7269784212112427,-2.5601840019226074,2.3417000770568848,0.45840030908584595,1.1598774194717407,-0.20799857378005981,-0.4463738799095154,-1.4780043363571167,0.5424163937568665,-0.4275898337364197,0.8756178021430969,-2.2721681594848633,-1.5447790622711182,0.23804651200771332,-2.922586441040039,-0.8787338733673096
TC0276,-1.177262544631958,-2.2762415409088135,2.8412230014801025,0.37419697642326355,0.8567311763763428,-0.6281048059463501,-0.06694763153791428,-1.6438959836959839,0.18176953494548798,-1.0187300443649292,0.6288041472434998,-2.520073175430298,-1.2588196992874146,0.434632271528244,-3.389033794403076,-0.3956776261329651
TC0277,-2.184746503829956,2.0717451572418213,1.2212705612182617,-0.8246898651123047,0.34824225306510925,1.8826463222503662,0.3675108850002289,0.6144511699676514,1.0733721256256104,-1.428096890449524,0.8977295756340027,0.08743248879909515,-1.807324767112732,1.7451356649398804,-0.5784342288970947,-0.0765092521905899
TC0278,-0.6412708163261414,-0.37852320075035095,1.782595157623291,1.3045377731323242,-0.8404136300086975,0.9489061236381531,-1.310524821281433,-0.5425474643707275,-0.2529478669166565,-0.5245103240013123,1.5040103197097778,-2.135887384414673,0.8082524538040161,0.2323833405971527,-1.2381116151809692,0.2597203254699707
TC0279,0.010625945404171944,0.8118874430656433,2.053515911102295,0.4951511323451996,-0.6843603849411011,0.5727075338363647,-0.6914963126182556,0.050267186015844345,0.5294105410575867,0.1755163073539734,1.0628395080566406,-2.495490074157715,-0.3235936164855957,0.7789892554283142,-1.4923183917999268,0.4440104067325592
TC0280,-1.0951098203659058,-1.8526909351348877,2.501887559890747,0.45117509365081787,0.08992739766836166,1.3220999240875244,0.06084137409925461,-0.688050389289856,-0.3303750455379486,0.057041119784116745,1.10578191280365,-2.7669777870178223,0.0817221850156784,-0.6115894317626953,-1.7455250024795532,-0.411406010389328
TC0281,-0.8728118538856506,0.31083235144615173,2.0020081996917725,0.3243255913257599,-0.685194194316864,0.7649827599525452,-0.5944173336029053,0.9541577696800232,0.04821877181529999,-0.5819668173789978,1.8830491304397583,-1.348514199256897,0.4045450985431671,0.5108120441436768,-0.8652750253677368,0.9698367714881897
TC0282,-1.8353252410888672,-2.8237035274505615,6.028454303741455,-1.3396152257919312,1.4176775217056274,0.7167672514915466,1.349388837814331,-1.7460254430770874,0.42240777611732483,2.5778443813323975,-0.21562924981117249,0.11419945955276489,-2.3125483989715576,-0.5740736722946167,-2.676609516143799,-2.0543785095214844
TC0283,-1.3336637020111084,-4.024056434631348,4.800317764282227,-0.6811333894729614,1.8447202444076538,0.702972412109375,1.7384321689605713,-2.2677857875823975,0.1777210384607315,1.986229658126831,-0.05465810373425484,-0.5912752747535706,-4.1301655769348145,-0.48781710863113403,-2.492360830307007,-2.0698800086975098
TC0284,0.2797299921512604,1.766811490058899,2.426025867462158,-0.0859178975224495,-1.8042880296707153,0.5600320100784302,-1.0579355955123901,2.027280807495117,0.5196710228919983,-1.3003394603729248,1.3917871713638306,-1.2628341913223267,-0.3286094069480896,2.60735821723938,-1.9613529443740845,-0.007889281027019024
TC0285,-1.075194001197815,0.9974323511123657,2.473555326461792,-0.2697432041168213,-1.0910102128982544,0.9335717558860779,0.24555881321430206,0.43120241165161133,1.136738657951355,-0.8831737637519836,1.3149433135986328,-1.9799226522445679,0.3708154261112213,0.4491056203842163,-1.598244071006775,0.8776058554649353
TC0286,-0.9726366400718689,0.9582105875015259,2.5427486896514893,-0.08265504240989685,-0.9230667352676392,1.0392262935638428,0.19738461077213287,0.27348849177360535,0.9649713635444641,-0.9284747242927551,1.5046974420547485,-2.1764180660247803,0.4611910581588745,0.6282662749290466,-1.5414022207260132,1.129844069480896
TC0287,-0.5060606598854065,0.42916086316108704,2.655735731124878,0.36991870403289795,-1.9536473751068115,0.855984091758728,-0.6288532018661499,0.28020840883255005,0.4447326064109802,0.5870293974876404,0.7109492421150208,-1.6644381284713745,-0.5391466021537781,-0.08349858969449997,-1.49022376537323,-0.24514654278755188
TC0288,-0.8519360423088074,0.1615595519542694,1.078022837638855,0.5616344809532166,-1.6041654348373413,0.25197890400886536,0.1402697116136551,-1.0332601070404053,0.8454706072807312,-1.3785372972488403,0.8820937275886536,0.3259972333908081,0.4054127335548401,1.7756242752075195,-1.9847034215927124,0.8289399147033691
TC0289,-0.44534340500831604,-0.02330414578318596,1.1804965734481812,0.5938622355461121,-1.338235855102539,0.6003981828689575,0.5085017085075378,-0.6234561204910278,0.5689626932144165,-1.4483356475830078,1.331886887550354,0.6989333033561707,-0.1294698864221573,2.0832295417785645,-2.3669822216033936,0.2642498314380646
TC0290,-1.0103896856307983,-2.276393413543701,0.9718996286392212,-0.991703987121582,-1.8157514333724976,-2.1062092781066895,-0.15324246883392334,-0.11539699137210846,0.03191056102514267,-1.7295942306518555,0.6321415305137634,-0.46539828181266785,0.17950557172298431,1.4568233489990234,-2.827911853790283,0.7003612518310547
TC0291,-1.6000425815582275,-1.2062017917633057,1.7963107824325562,-1.9285588264465332,-0.7841043472290039,-1.2556053400039673,0.7235172390937805,-0.6750025153160095,0.04951922222971916,-0.7221798300743103,0.44444888830184937,-0.645520031452179,0.8033847808837891,1.1415224075317383,-1.8086594343185425,0.905552327632904
TC0292,-0.5218818187713623,-0.8968074321746826,2.1728501319885254,0.4909304678440094,-1.3299771547317505,0.29913341999053955,0.07602186501026154,-0.7188740968704224,0.022588662803173065,0.013432277366518974,0.902740478515625,-0.8970182538032532,0.11617852747440338,1.0892499685287476,-2.1869819164276123,0.24656978249549866
TC0293,-0.19655345380306244,0.07628703862428665,1.8259081840515137,-0.36034515500068665,-0.7870214581489563,-0.04418427124619484,0.9958363771438599,-0.365592360496521,0.5591672658920288,-0.6437815427780151,0.38408368825912476,-0.12977567315101624,-0.06985672563314438,1.449324369430542,-2.3165817260742188,0.5377492904663086
TC0294,0.979691207408905,0.2958923578262329,-0.37267154455184937,-0.5273759961128235,1.4003071784973145,0.12263816595077515,1.344022512435913,-0.9646297097206116,0.16357754170894623,-1.674011468887329,-0.261279821395874,1.3810924291610718,0.4606480598449707,-1.3384343385696411,-0.8236607909202576,0.22205717861652374
TC0295,-0.41157081723213196,-0.958930492401123,-1.724400281906128,0.630752444267273,0.253960520029068,-0.5294368267059326,-1.0166493654251099,-0.5712586641311646,-0.6319901347160339,-0.9887357354164124,-1.3077516555786133,-0.18470880389213562,1.191219687461853,-0.9776672124862671,-1.6237512826919556,-0.023825349286198616
TC0296,-1.402408480644226,-1.7417380809783936,0.6429047584533691,-1.8935813903808594,1.4716377258300781,-0.9490736126899719,0.39493662118911743,-1.7134267091751099,-1.4982948303222656,-1.3366765975952148,-2.6023306846618652,-0.9208886623382568,-0.30287259817123413,-1.810683250427246,-0.43763279914855957,-1.0981264114379883
TC0297,0.21052268147468567,-1.373447299003601,-1.5805107355117798,0.9730010628700256,0.6872177124023438,0.24727573990821838,-0.2610306739807129,-0.7794803977012634,-0.229044109582901,-0.5233825445175171,-0.7691579461097717,-0.48277541995048523,1.4494317770004272,-1.031152367591858,-1.4226773977279663,-0.19729171693325043
TC0298,0.005938219837844372,-1.4244788885116577,-1.1948425769805908,0.19062793254852295,0.6381241679191589,0.9982043504714966,1.6399142742156982,-0.7860496044158936,-0.2997640073299408,-0.8288837671279907,-0.3431198000907898,0.4320874512195587,0.7056729793548584,-1.1613367795944214,-1.3564597368240356,0.8041685819625854
TC0299,0.9084244966506958,0.1782897412776947,-1.7477539777755737,0.30441075563430786,0.8071111440658569,0.37208274006843567,-0.31160348653793335,0.15369586646556854,-0.4403892457485199,-0.38286274671554565,-0.5355587601661682,0.027342192828655243,1.072953224182129,-0.8657127618789673,-0.4954741895198822,-0.11645445972681046
TC0300,0.10033581405878067,0.3052578270435333,-1.720719337463379,0.5848777294158936,1.1115858554840088,-0.49047935009002686,-0.5840415954589844,-0.6808639168739319,1.0971081256866455,0.0015012553194537759,-1.0577107667922974,0.8861750364303589,0.38473114371299744,-0.5238152146339417,-1.782834768295288,-0.36194121837615967
TC0301,0.16589580476284027,0.9564327597618103,-1.7362867593765259,0.571462094783783,0.13230790197849274,0.7207286953926086,0.12760329246520996,-0.9078289866447449,0.06378419697284698,-1.5413548946380615,-1.3843460083007812,-1.454399585723877,0.27808186411857605,0.005891729146242142,0.046157028526067734,0.6530928015708923
TC0302,0.25011640787124634,0.36745157837867737,-0.6398447155952454,0.9861019849777222,-0.3038831055164337,0.8363866209983826,0.6779314279556274,-0.6911749839782715,0.01438891515135765,-1.868792176246643,-1.3749998807907104,-1.3484601974487305,0.24623626470565796,0.8956845998764038,-0.44006630778312683,0.3229895830154419
TC0303,0.12105327099561691,0.3264767825603485,-1.9089356660842896,1.620668649673462,-1.218583106994629,0.7340928316116333,0.39253342151641846,-1.1056894063949585,0.6416358351707458,-1.5208357572555542,-2.2737886905670166,-0.5219049453735352,1.2603236436843872,0.4949337840080261,-0.10430967807769775,0.4018004238605499
TC0304,0.19168956577777863,0.14186057448387146,-1.4699130058288574,1.1541633605957031,-0.9298593401908875,0.8575913906097412,1.0164066553115845,-1.1667829751968384,0.7569811344146729,-0.41642603278160095,-2.3383281230926514,-0.25043341517448425,0.39593565464019775,0.45632100105285645,-0.8034442067146301,0.6889103055000305
TC0305,0.16652534902095795,-0.3785436451435089,-2.0299956798553467,0.7768630981445312,-1.015588402748108,0.5556745529174805,0.8380848169326782,-1.1806976795196533,0.3237404227256775,-1.0965808629989624,-1.65203857421875,-0.7608559727668762,1.0360971689224243,0.5327015519142151,-0.5125285387039185,0.332876592874527
TC0306,0.12372543662786484,-0.36840131878852844,-1.600654125213623,0.711741030216217,-0.5008013844490051,0.45496198534965515,0.7109630107879639,-1.0216400623321533,0.2186872810125351,-1.4224207401275635,-1.7485508918762207,-1.187451720237732,1.0637669563293457,0.2679000794887543,-0.8827393651008606,0.1666000783443451
TC0307,-0.6905237436294556,-1.1244113445281982,-2.1123135089874268,1.2514187097549438,0.7189782857894897,0.37424948811531067,0.4315231144428253,-1.581946849822998,0.1937102973461151,-1.3549582958221436,-2.565595865249634,-1.4754064083099365,-0.036680176854133606,1.0362428426742554,-0.11282747238874435,-0.09221857786178589
TC0308,0.7447988390922546,-1.2907161712646484,1.2999993562698364,0.9585004448890686,-1.274887204170227,0.7520145177841187,0.30214086174964905,0.43419724702835083,-0.6273428797721863,-0.4101943373680115,1.5304473638534546,-2.222174882888794,-0.5649572610855103,1.298153281211853,-1.2143996953964233,1.5694032907485962
TC0309,-0.21483679115772247,-0.4098607003688812,1.8289722204208374,0.175748810172081,-0.8017797470092773,0.2755831778049469,-0.5618883371353149,0.7257387042045593,-0.9970743656158447,-0.4795534610748291,1.8132985830307007,-1.3301831483840942,-0.9223105311393738,1.266194462776184,-1.9147074222564697,1.1527721881866455
TC0310,0.1471318006515503,-0.5711804032325745,2.2036566734313965,-0.056308627128601074,-0.9124410152435303,1.0956788063049316,-0.32009610533714294,0.34645983576774597,-1.3487340211868286,-0.6216756105422974,1.9251867532730103,-1.704006552696228,0.22977225482463837,0.6558444499969482,-1.5871587991714478,0.6559444069862366
