label,d0,d1,d2,d3,d4,d5,d6,d7,d8,d9,d10,d11,d12,d13,d14,d15,d16,d17,d18,d19,d20,d21,d22,d23,d24,d25,d26,d27,d28,d29,d30,d31,d32,d33,d34,d35,d36,d37,d38,d39,d40,d41,d42,d43,d44,d45,d46,d47,d48,d49,d50,d51,d52,d53,d54,d55,d56,d57,d58,d59,d60,d61,d62,d63
TC0000,1.3540313243865967,-0.3458509147167206,-0.23684190213680267,-0.42883262038230896,0.2177920788526535,0.6835982203483582,1.6658426523208618,-0.08662417531013489,0.4294600188732147,-0.17596256732940674,0.3374498188495636,0.5679146647453308,-0.5810506939888,0.5133055448532104,-0.4661867916584015,0.7734499573707581,-0.5673209428787231,-1.2342098951339722,-1.0006403923034668,1.235329270362854,-0.2611755132675171,-1.292486548423767,1.8117514848709106,0.18899253010749817,0.9054056406021118,-1.5453206300735474,-0.8662256002426147,0.7791389226913452,0.2862054109573364,0.6778653860092163,0.2888631820678711,0.6279618144035339,-0.030072897672653198,-0.4529103636741638,0.20830479264259338,1.2876851558685303,0.5174819231033325,-0.2892434000968933,-0.301410973072052,0.22598721086978912,-0.520165741443634,-0.8077078461647034,-0.6838670372962952,0.3115825057029724,-0.9604575037956238,1.3967491388320923,0.5363268852233887,0.5841462016105652,-0.09698887914419174,-0.5490259528160095,-0.013669291511178017,0.3907725512981415,-0.3850851058959961,-0.6671090722084045,-0.6175892949104309,0.25741663575172424,0.8109563589096069,0.7800769209861755,-0.7043351531028748,0.8841264843940735,-0.5627490282058716,-0.6328529715538025,-1.1096653938293457,-0.526816725730896
TC0001,1.1611902713775635,-0.2490767240524292,-0.182697594165802,-1.0590293407440186,-0.6356669664382935,0.3261820077896118,1.5672662258148193,0.16290296614170074,-0.3034871518611908,-0.41528093814849854,0.37332549691200256,0.7217898964881897,-0.1363094300031662,1.410544514656067,-0.41449350118637085,1.2157500982284546,-1.414363980293274,-0.3572770357131958,-1.288541555404663,1.33387291431427,-1.0365080833435059,-1.477381706237793,1.8562722206115723,0.2316037118434906,-0.0029346991796046495,-1.9015183448791504,-1.5717231035232544,0.3034746050834656,0.5728533267974854,-0.4431391656398773,1.1124168634414673,-0.16943322122097015,0.3219403326511383,-1.2832430601119995,0.41139379143714905,0.8003914952278137,0.4226982295513153,-0.032916512340307236,-0.4928834140300751,-0.6916967034339905,-0.8559180498123169,-1.1783610582351685,-0.24696442484855652,0.8245319724082947,-1.2153587341308594,1.6125818490982056,-0.66377854347229,0.8311271071434021,-0.2725833058357239,-1.0473690032958984,0.5742343068122864,1.1228530406951904,0.6008089780807495,-0.6296738982200623,-0.5943723320960999,-0.6974872946739197,1.2030067443847656,0.28261250257492065,-1.0173083543777466,1.3955705165863037,-0.5935917496681213,-0.4927685856819153,-0.5600665211677551,-0.6400560736656189
TC0002,1.0486541986465454,-0.11896729469299316,-0.005599537398666143,-0.7807477116584778,-0.8334258794784546,0.020118696615099907,1.6133309602737427,0.5949755907058716,-0.10038959980010986,-0.7882884740829468,0.6337132453918457,0.30184808373451233,-0.1140606552362442,1.467885136604309,0.10289335250854492,1.6621613502502441,-1.2731914520263672,-1.044080376625061,-1.2357728481292725,1.7462868690490723,-0.9142573475837708,-1.6967629194259644,2.010636329650879,0.44581955671310425,0.340811163187027,-2.078644275665283,-1.5429909229278564,0.043356165289878845,-0.1812138706445694,-0.2392161637544632,1.4009404182434082,-0.8193495273590088,1.0272457599639893,-1.1292266845703125,0.6319896578788757,1.0873838663101196,0.5945233702659607,-0.014099041931331158,-0.15213604271411896,-0.6218792200088501,-0.7549331188201904,-1.8360658884048462,-0.5818982124328613,0.6539417505264282,-1.444146752357483,1.5979145765304565,-0.6216482520103455,1.1851965188980103,0.030532196164131165,-1.1127516031265259,0.3522486388683319,1.297993779182434,0.7610190510749817,-1.1421377658843994,-0.42781978845596313,-0.5565201640129089,0.7554836869239807,0.685359001159668,-0.6729469895362854,1.421349048614502,-0.16253316402435303,-0.5433772206306458,-0.2954665422439575,-0.48657703399658203
TC0003,0.7242156863212585,-0.33705154061317444,-0.7952799797058105,-1.151885986328125,-0.4908123314380646,1.8783096075057983,0.21721181273460388,-1.2437976598739624,1.9842060804367065,0.2679588198661804,0.7785617709159851,0.26320144534111023,-0.7286100387573242,-0.36903566122055054,-0.39140811562538147,1.26004159450531,0.32367825508117676,-0.9570022821426392,-0.8580023050308228,0.6624156832695007,-0.738179087638855,0.7942978739738464,0.9227808117866516,-0.31002360582351685,-0.8797964453697205,-2.652346611022949,0.012610622681677341,0.14087891578674316,0.33478909730911255,1.0707165002822876,1.2718021869659424,0.36175915598869324,-0.26045703887939453,-0.8154129385948181,1.3815513849258423,-0.6323440074920654,0.02157307043671608,-0.21756398677825928,0.5740751028060913,0.8869876861572266,-0.2621574103832245,-0.538760244846344,-0.36011090874671936,-0.1881544440984726,-0.45097044110298157,-0.8606385588645935,-0.2562476694583893,2.248112201690674,0.8409166932106018,-1.722205638885498,-0.2725152373313904,-0.21034790575504303,0.5695024728775024,-0.5296451449394226,-1.4863981008529663,0.7284704446792603,1.9649734497070312,0.9434717893600464,-1.266288161277771,1.2480088472366333,-0.7403384447097778,-1.4613066911697388,-0.6832921504974365,-0.4147666096687317
TC0004,-0.375099241733551,-0.1550918072462082,-0.8008517026901245,-1.4786170721054077,-0.3008599579334259,1.3994264602661133,0.4321393370628357,-1.6767162084579468,0.005358761642128229,0.19598142802715302,1.3121281862258911,-0.16184364259243011,0.382296621799469,-0.3340131640434265,-1.0289064645767212,1.5090197324752808,0.1560622900724411,-0.022400714457035065,-0.7044118642807007,0.36384516954421997,-0.24938811361789703,0.8033220767974854,1.4940086603164673,-0.454804390668869,-1.306497573852539,-1.4830788373947144,-0.42671647667884827,0.09002311527729034,1.2711431980133057,1.6670640707015991,0.9147511124610901,-0.35984644293785095,-1.288811445236206,-0.3112048804759979,1.1107591390609741,-0.343788743019104,-1.1420098543167114,0.2358308732509613,-0.3080967366695404,0.9460417628288269,-0.6190434694290161,-1.9384466409683228,-0.3832892179489136,-1.0651694536209106,0.41380801796913147,0.4146686792373657,-0.2073984444141388,1.6822341680526733,0.7228567600250244,-1.2258533239364624,-0.6028763651847839,0.2942027449607849,0.671807587146759,-0.1579466015100479,-0.883257269859314,1.514040231704712,1.8188331127166748,-0.1029694601893425,-0.33809998631477356,1.163773536682129,-0.7649804949760437,-0.6212841272354126,-0.485609233379364,0.07821869105100632
TC0005,-0.3499549627304077,-2.0080370903015137,-0.023083414882421494,0.062167227268218994,-1.5229777097702026,0.3340720534324646,-1.378602385520935,0.1913147270679474,0.05995456129312515,1.2231067419052124,1.4666295051574707,0.08690852671861649,-0.6597627401351929,0.13272392749786377,-0.41480621695518494,1.267963171005249,0.7000254392623901,-1.2492526769638062,-0.10917159169912338,1.0760855674743652,-0.43444132804870605,0.7709421515464783,1.6366626024246216,-0.06038260459899902,0.7913833260536194,-0.6703291535377502,0.42314019799232483,-0.32818466424942017,-1.4666752815246582,0.8961479663848877,-0.5433650612831116,0.17760241031646729,-0.2531612813472748,0.2589419186115265,-0.902282178401947,1.0500041246414185,-0.3306939899921417,0.2083272486925125,0.42186063528060913,-1.0594857931137085,0.44499143958091736,0.5505918860435486,0.14099650084972382,-0.24449710547924042,0.4178151488304138,-0.016407117247581482,0.0551641508936882,1.689972996711731,2.248528242111206,0.2939688563346863,0.8798467516899109,-0.37350502610206604,-0.24260962009429932,-1.249481201171875,0.6313785910606384,0.2593008279800415,2.4396536350250244,1.2275177240371704,0.18090112507343292,-0.7259501814842224,-0.7802778482437134,1.039412021636963,0.3433222770690918,-0.6171882748603821
TC0006,0.3300332725048065,-0.10142352432012558,-0.670685350894928,2.3172740936279297,-1.09653639793396,0.0664743036031723,0.709725022315979,-0.581970751285553,-0.8499205708503723,-1.7885386943817139,0.9534820914268494,1.21562922000885,-0.3996097445487976,-1.2504992485046387,-0.17429223656654358,0.806751012802124,-0.7716345191001892,-0.5975484251976013,0.8268163800239563,-0.6186096668243408,2.284468173980713,-0.7581127285957336,1.0155179500579834,-0.9247907400131226,1.7893306016921997,0.8886420726776123,0.5184593200683594,0.5768405199050903,0.6042498350143433,-0.3828679621219635,-0.12029793858528137,0.46648839116096497,1.298324704170227,-0.5258898138999939,0.07005345076322556,2.2633185386657715,-0.7434079051017761,-0.217636838555336,-0.024607667699456215,1.5870052576065063,0.30428922176361084,0.46539148688316345,-0.07216429710388184,2.3820888996124268,-1.1649712324142456,1.7554070949554443,0.6711426377296448,-0.5511677265167236,-0.6671336889266968,0.2925145626068115,0.1303562968969345,-0.07946920394897461,-1.128179907798767,1.7281107902526855,1.90874445438385,0.352349191904068,-0.4977347254753113,-0.4774990975856781,1.3818618059158325,0.7771272659301758,0.009489437565207481,-0.9601186513900757,0.2621629238128662,1.513533115386963
TC0007,-0.09911823272705078,-0.8750628232955933,-0.1850396692752838,0.31562188267707825,-0.4958321452140808,-1.1121456623077393,-1.396479606628418,1.3094220161437988,2.3502745628356934,-0.770005464553833,1.8602664470672607,0.14533589780330658,1.1160917282104492,-0.30444493889808655,0.09589331597089767,1.442439317703247,0.906679630279541,0.8785107731819153,0.2087135910987854,0.4909486770629883,-2.098806142807007,0.518676221370697,0.46064358949661255,0.5388665795326233,-2.6080002784729004,0.33194196224212646,0.6653780937194824,1.4915751218795776,3.222083568572998,-0.3602472245693207,0.8324368000030518,0.4364025890827179,0.5064294338226318,-0.9547213315963745,1.2980000972747803,-0.9777122139930725,0.7739856243133545,-1.243423342704773,-0.20516382157802582,-0.032636113464832306,-0.27763810753822327,0.3883272111415863,0.18122470378875732,-1.081477403640747,1.0378104448318481,-1.152944564819336,0.6688981056213379,0.6182728409767151,3.5656802654266357,-0.23132939636707306,0.35250934958457947,0.5538470149040222,1.9546787738800049,-0.6898462176322937,-1.1851288080215454,0.672382116317749,1.193871021270752,0.5209586024284363,0.5883252620697021,-1.1376960277557373,0.47981885075569153,-0.9408540725708008,0.8064578175544739,2.2277042865753174
TC0008,-2.1735033988952637,-1.075583577156067,-1.2833912372589111,-1.725352168083191,0.6438297033309937,-0.26457732915878296,0.880638599395752,-0.7204245328903198,1.1027146577835083,0.46693047881126404,0.6847132444381714,0.5885116457939148,0.19580042362213135,-3.064568281173706,-0.5047340989112854,-1.2922948598861694,0.09705989807844162,-0.17893947660923004,-1.2951551675796509,0.43524494767189026,1.4973315000534058,0.3801734447479248,-0.5394425988197327,0.07686253637075424,-0.7695918679237366,-1.383754014968872,-0.810117781162262,0.4874368906021118,1.0250837802886963,-0.567107617855072,-0.2597164809703827,1.6213433742523193,-0.08434590697288513,-0.028405746445059776,-2.695681571960449,0.876499593257904,1.5046261548995972,-2.0102529525756836,-0.22665923833847046,-0.10847107321023941,-1.1581391096115112,2.544382333755493,-0.11073467880487442,-0.5685221552848816,-0.4335128962993622,0.5499178767204285,-1.3524041175842285,1.4029473066329956,-0.8935546278953552,-0.540020763874054,1.548505187034607,0.5963869690895081,-0.30021876096725464,0.5942251682281494,1.0615543127059937,0.4040088355541229,-0.8320870399475098,-0.8923419117927551,1.1779024600982666,-0.32077756524086,-0.6223723292350769,0.7404471039772034,-0.10965891927480698,-0.6633360981941223
TC0009,0.1963966190814972,-1.1473572254180908,0.06438299268484116,-1.3551422357559204,-0.748468279838562,-0.2974489629268646,1.0736489295959473,1.7991478443145752,1.5370758771896362,0.08022008836269379,1.6034623384475708,0.18107877671718597,-0.6745508909225464,-2.190836191177368,0.48483017086982727,0.4628399908542633,-0.26430198550224304,-1.0657416582107544,-1.1886382102966309,1.5330851078033447,-0.9691243767738342,-0.20451052486896515,0.6108173131942749,-1.3429346084594727,-2.1159467697143555,0.9809325337409973,-0.6094699501991272,1.3874250650405884,1.0696228742599487,0.386543333530426,-0.8751181960105896,-1.2252802848815918,0.5515417456626892,-1.9259769916534424,-0.0790751650929451,1.2325530052185059,0.13182030618190765,-0.5377046465873718,-0.027082210406661034,0.15689115226268768,-1.5876126289367676,0.9394773840904236,0.22979581356048584,-1.252249836921692,-1.4537264108657837,-0.7955532670021057,-1.805525541305542,0.44907426834106445,1.788644790649414,0.7174623012542725,0.9943097829818726,-0.8767167329788208,-0.6580424308776855,0.16254128515720367,0.505631685256958,1.3136297464370728,0.32662439346313477,0.5694964528083801,-0.8474382162094116,0.028238162398338318,1.0808689594268799,1.308719515800476,0.7778552770614624,-0.1672024130821228
TC0010,1.1778907775878906,-1.2501630783081055,-0.569759726524353,0.23828637599945068,-0.06427169591188431,0.10215260833501816,0.6147772669792175,-0.29660043120384216,1.076322317123413,-0.30723074078559875,0.7111213803291321,0.07648516446352005,0.5999402403831482,-1.2098661661148071,1.0736514329910278,-0.9027981758117676,-0.4762907326221466,0.7786613702774048,-0.2639034390449524,0.8382408022880554,0.5103487968444824,0.13722902536392212,0.8486529588699341,-0.12054622173309326,-1.6229946613311768,-0.8249236941337585,-0.4069126844406128,1.0357455015182495,0.06904067099094391,-1.4068622589111328,-1.0441399812698364,0.7351479530334473,-1.032252311706543,-1.013148307800293,-0.30862531065940857,0.38636690378189087,-0.42737877368927,-1.9208920001983643,-0.020287811756134033,-0.6372789144515991,-1.4099303483963013,1.5792018175125122,-0.6729758977890015,-1.1049587726593018,-1.8838917016983032,0.45304277539253235,-2.0208160877227783,-0.7610731720924377,1.6572225093841553,1.4969313144683838,-0.9091315269470215,1.102430820465088,-0.5035690069198608,1.6430777311325073,0.22679933905601501,0.10841061919927597,0.9357489943504333,0.6492766737937927,1.2654882669448853,-0.03741433098912239,0.8632925748825073,0.5685927271842957,0.1533667892217636,-0.35040754079818726
TC0011,0.7500843405723572,-1.1203559637069702,-1.3906058073043823,0.6052398681640625,-0.1935398429632187,-1.304237723350525,0.3301660716533661,0.05712370201945305,1.4849687814712524,0.28343498706817627,1.4034066200256348,0.1345132440328598,0.4966641366481781,-1.0888350009918213,-0.6074186563491821,1.6317572593688965,-1.3943634033203125,-0.3734000027179718,-0.724842369556427,-0.7708287239074707,1.0062743425369263,-1.1820762157440186,0.6232073903083801,0.7506923675537109,-1.0941624641418457,-0.03603525832295418,-2.995908737182617,1.2954959869384766,0.6516923308372498,-0.699966549873352,0.7026478052139282,0.787257194519043,0.7069302201271057,-1.6720131635665894,0.05723489820957184,-0.6554509401321411,-0.8452140092849731,-1.3476498126983643,0.5652451515197754,0.3928828537464142,-0.47219210863113403,0.9966779947280884,-0.7545716762542725,-1.1994704008102417,-1.7109792232513428,0.18647757172584534,-0.08021833002567291,0.10284660011529922,0.730722963809967,0.9757647514343262,0.8242135047912598,0.6107680797576904,-0.9175803065299988,0.9864900708198547,-1.2331204414367676,1.218938946723938,-0.4864204227924347,1.3200358152389526,-0.0397794172167778,1.377261757850647,1.00931978225708,0.5957127809524536,0.19160041213035583,0.6481386423110962
TC0012,0.060224443674087524,-1.118483066558838,-2.0490193367004395,0.6056006550788879,-0.03739180788397789,-0.45215511322021484,0.6180573105812073,-0.11735689640045166,1.3927465677261353,0.36855950951576233,1.224188208580017,-0.17627087235450745,0.9893261790275574,-0.9707112908363342,0.2992759048938751,1.7145363092422485,-1.4773756265640259,-0.15900832414627075,-0.453413188457489,-0.8753637075424194,1.7049106359481812,-0.4574578106403351,-0.3084983229637146,0.47437867522239685,-0.5771734714508057,-1.1796120405197144,-1.9695942401885986,0.752796471118927,-0.22060774266719818,-0.34825295209884644,0.9937291741371155,-0.003238440491259098,0.7876104116439819,-1.6489810943603516,-0.761913001537323,-1.0120108127593994,-0.049508724361658096,-1.4732877016067505,-0.061854008585214615,0.2627498209476471,-0.41811737418174744,0.5623572468757629,-1.2860366106033325,-1.6065787076950073,-1.9941800832748413,-0.18111269176006317,0.23581701517105103,-0.04918353632092476,0.4999614357948303,0.28632310032844543,1.4511005878448486,-0.1478366106748581,-0.047261688858270645,1.2103166580200195,-1.2736910581588745,0.453619122505188,-0.7855457067489624,0.9618747234344482,1.677607774734497,1.1178247928619385,0.6557347774505615,-0.3270981013774872,-0.5054662227630615,0.22857864201068878
TC0013,-0.05053296685218811,-0.6816030144691467,1.3747931718826294,-0.3986035883426666,-0.6355130076408386,-0.11984747648239136,-0.08734092861413956,-0.8369258642196655,0.15855243802070618,-0.5023026466369629,3.0071003437042236,1.587981104850769,1.079791784286499,-0.8057429790496826,0.5864300727844238,-1.139267086982727,-1.084914207458496,1.2506310939788818,-0.5013988614082336,-0.18065133690834045,0.6483618021011353,0.3530612885951996,0.018526418134570122,-1.4567257165908813,-1.9292988777160645,0.608685314655304,-1.895943284034729,1.1922721862792969,-0.8675225973129272,-0.9055445194244385,-0.15715929865837097,1.8247604370117188,0.24693305790424347,-1.7782824039459229,0.40057551860809326,-1.5771751403808594,-0.085481196641922,-2.1234617233276367,-0.9233040809631348,0.0044991434551775455,-1.6913098096847534,0.6231401562690735,0.7960531711578369,-2.4695394039154053,-1.7260664701461792,1.08536958694458,-0.7740703225135803,0.04108366370201111,1.2128454446792603,3.9975240230560303,-0.3291385769844055,0.1022084653377533,1.0155609846115112,2.367647171020508,0.4918826222419739,-0.4429188668727875,1.8004251718521118,2.3109471797943115,0.3180972933769226,0.2603769302368164,0.8351107835769653,0.28340232372283936,0.8055130839347839,1.8730829954147339
TC0014,-0.9984433650970459,-0.8234249949455261,-0.5423769354820251,0.29350346326828003,0.42789915204048157,-0.8743622303009033,-0.20844298601150513,-0.1646241545677185,0.5081712603569031,-0.5725772380828857,2.260209560394287,0.5837435126304626,0.8926407098770142,-1.6490890979766846,0.01142947655171156,1.5390136241912842,-0.8653863668441772,-0.22409816086292267,-0.41392335295677185,-1.1171722412109375,0.7275633811950684,0.05629598721861839,0.21134351193904877,-0.5031986832618713,-1.0836408138275146,0.909540593624115,-2.096266508102417,1.134371280670166,0.38458284735679626,-1.3510220050811768,0.2727108597755432,0.6016912460327148,0.38113096356391907,-1.9919642210006714,-0.10701319575309753,-0.30936774611473083,-0.6141878962516785,-1.2261611223220825,-0.41278618574142456,0.3362618386745453,-1.1839745044708252,1.648844599723816,-0.7316855788230896,-0.8822429776191711,-0.7972646951675415,-0.37632688879966736,-0.15113410353660583,0.015875287353992462,0.2658824920654297,1.538146734237671,1.1035096645355225,0.16660447418689728,0.04005993530154228,0.8328713178634644,-0.2975510060787201,0.2408597767353058,1.0409890413284302,1.3290106058120728,-0.3512735962867737,0.7953165769577026,0.15927542746067047,0.6440283060073853,0.9754188656806946,0.6168484687805176
TC0015,-1.7623456716537476,-1.2478967905044556,-0.39017972350120544,-0.3337510824203491,0.49645718932151794,0.41892826557159424,0.22596214711666107,-0.10231981426477432,1.405253529548645,-1.532639980316162,1.6546560525894165,0.3927260935306549,2.3719074726104736,-1.723577618598938,-0.3635098338127136,2.5649211406707764,-1.0668206214904785,-0.056869424879550934,-1.030619740486145,-1.2635918855667114,-0.08604180067777634,-0.5607402920722961,-0.34753838181495667,0.016540486365556717,-1.7543683052062988,0.5525163412094116,-2.114521026611328,0.5800434350967407,-0.30503207445144653,-1.282429575920105,-0.2537752091884613,1.0000792741775513,0.5852372050285339,-2.3899033069610596,-0.5852538347244263,-2.3092169761657715,-0.5413007736206055,-0.9177784323692322,-0.09777238965034485,0.31445032358169556,-0.9179590344429016,1.7314817905426025,-0.7927732467651367,-1.618585228919983,-2.0156588554382324,-0.5537946224212646,-0.02091383747756481,-0.02529502660036087,1.3144055604934692,1.6365300416946411,0.025330014526844025,-0.02376277931034565,0.4488416612148285,1.279971718788147,-0.4035394787788391,0.008815791457891464,0.4647745192050934,1.9159748554229736,-0.1197783574461937,0.9846616387367249,1.6894570589065552,-0.20711219310760498,-0.47776544094085693,0.02371755987405777
TC0016,-1.933122992515564,-1.7210866212844849,-0.2852409780025482,-0.21620887517929077,0.9459238648414612,-0.07522520422935486,-0.3124919831752777,0.13046684861183167,1.3163175582885742,-0.5370885729789734,3.272766351699829,0.8537521362304688,2.287205696105957,-1.5743829011917114,0.5532485842704773,2.2112419605255127,-1.0908852815628052,0.18898317217826843,-1.2310407161712646,-1.1433628797531128,0.804387092590332,-0.5539206862449646,0.010411693714559078,-0.4474182426929474,-1.2160793542861938,0.7794909477233887,-1.6606847047805786,0.34016430377960205,0.08422642201185226,-0.2280392348766327,0.11523277312517166,-0.004452154040336609,0.09370499104261398,-1.855385422706604,-0.6908482909202576,-1.8691433668136597,-0.9503100514411926,-1.127524495124817,0.1751803457736969,0.6644837856292725,-1.4227104187011719,1.214550256729126,-0.9027477502822876,-1.6307346820831299,-1.5402039289474487,-0.34556853771209717,0.22516903281211853,-0.27157554030418396,0.40026357769966125,0.8837656378746033,0.8137414455413818,0.15203969180583954,0.37536942958831787,1.8871331214904785,-0.3838120698928833,0.18388356268405914,0.790977418422699,1.544934868812561,0.41248440742492676,1.0818606615066528,1.098023772239685,0.2993926703929901,-0.4941881597042084,0.6280275583267212
TC0017,-0.1213783249258995,0.5034676790237427,0.6741743087768555,-1.0686733722686768,2.3493313789367676,-0.519537091255188,0.03910336270928383,-0.8672105073928833,-1.9675617218017578,1.3781580924987793,-1.8106197118759155,0.2004886120557785,-0.17253804206848145,-0.3182236850261688,0.29630887508392334,-0.09422802925109863,-0.3573412299156189,-0.6133247017860413,0.9314035773277283,-0.8061202764511108,0.658187985420227,0.5998865365982056,-1.3733031749725342,-2.0379409790039062,1.127207636833191,-0.02198943868279457,-0.31513074040412903,-0.011463296599686146,0.02689855918288231,-0.2736679017543793,0.9713985323905945,-1.6840649843215942,-0.5400537848472595,-0.6628060340881348,0.9807793498039246,-1.6257543563842773,-0.3798777759075165,0.010538037866353989,-0.5859262943267822,1.806718111038208,0.5343797206878662,-1.554795742034912,-0.9527686238288879,0.04447990283370018,-0.9321578145027161,-0.26953762769699097,-0.8833214044570923,0.09092079848051071,0.4288150668144226,1.5016063451766968,0.3487131595611572,-0.6151066422462463,-1.545410394668579,-0.024893132969737053,-0.6948800683021545,0.12054073065519333,1.11663019657135,-0.39275240898132324,0.18127605319023132,-0.13058792054653168,-2.018306255340576,3.636103391647339,-0.029186632484197617,0.24591811001300812
TC0018,-1.6082220077514648,-0.012386300601065159,-0.39290913939476013,0.026219753548502922,-0.8284306526184082,0.7427976131439209,1.8143037557601929,0.96725994348526,-0.1283012181520462,-0.8441234827041626,0.7995162010192871,-0.30674996972084045,1.219054937362671,-0.09004797786474228,1.2502490282058716,1.1870375871658325,0.5179892182350159,0.3629988729953766,-1.4123997688293457,0.5380574464797974,0.6787296533584595,-0.4033886790275574,0.6671644449234009,-0.4145817160606384,0.04019206389784813,-0.654793918132782,-1.242022156715393,0.5412563681602478,0.04928820580244064,-0.43431374430656433,-1.127460241317749,-0.35082635283470154,-1.090389370918274,-0.7565062642097473,-1.2710965871810913,-1.1718229055404663,-0.1303798109292984,-0.7021599411964417,0.16616807878017426,-0.3451922833919525,-0.39680808782577515,-1.0497713088989258,-1.5803427696228027,0.325402170419693,0.1374232918024063,-0.046996500343084335,0.4287978410720825,1.3555165529251099,0.24893829226493835,0.938248872756958,0.5839298367500305,0.19638778269290924,-0.2839999496936798,-0.7038958668708801,-0.11995020508766174,0.17802679538726807,-0.9637719988822937,1.40794038772583,-0.21610325574874878,-0.1738363653421402,-0.25895369052886963,0.6787534356117249,1.3669764995574951,0.165023073554039
TC0019,-1.2192579507827759,-0.5093433856964111,-0.6808440685272217,-0.05438392236828804,0.5364745855331421,0.627431333065033,1.4694360494613647,0.9582899808883667,-0.5160675048828125,-0.8653669953346252,0.40204015374183655,-0.47854310274124146,1.1302891969680786,0.9971247911453247,1.505842924118042,0.6341482996940613,0.2677002251148224,0.015438725240528584,-0.9670405387878418,0.47639724612236023,0.9607418775558472,-0.03210412710905075,0.7657501697540283,-1.3049745559692383,-1.061023473739624,0.129007488489151,-0.6359633803367615,0.6665684580802917,-1.0412720441818237,0.07638725638389587,-0.5481013655662537,0.545366644859314,-0.6557250022888184,-0.3712484538555145,-0.9122778177261353,-0.9710049033164978,0.005172372329980135,-1.3205198049545288,-0.26406431198120117,-0.2416883111000061,-0.7402099370956421,-0.9431343078613281,-1.6625577211380005,0.7575737237930298,-0.04393574967980385,-0.07238860428333282,0.9618719220161438,0.02486983872950077,0.24945203959941864,0.2436227649450302,0.7429346442222595,0.29226240515708923,0.18458886444568634,-0.4542313814163208,0.008066773414611816,0.4712362587451935,0.7278912663459778,1.3979939222335815,0.23564445972442627,0.225038081407547,-0.13205134868621826,1.085359811782837,1.5492185354232788,0.5481235980987549
TC0020,-2.621779441833496,0.00033347628777846694,-0.7855163812637329,-0.324814110994339,-0.2374849170446396,0.9511211514472961,2.2708661556243896,1.3512518405914307,-1.2029246091842651,-0.9411972761154175,0.6126508116722107,-0.4659610688686371,1.0184358358383179,0.3271993100643158,0.87770015001297,0.6713059544563293,-0.048484619706869125,0.832931637763977,-2.276616096496582,0.7786641120910645,0.8252070546150208,-0.5659664869308472,0.8897853493690491,0.3486022353172302,-0.8638298511505127,-0.8670850992202759,-1.177396297454834,0.3387083113193512,0.4913753867149353,-0.012584327720105648,-0.9635417461395264,-0.950532853603363,-0.7924752235412598,-0.9076372385025024,-1.2263215780258179,-1.4382688999176025,-0.5252145528793335,-0.20395882427692413,0.09864429384469986,0.05841564014554024,-0.00879423227161169,-1.030082106590271,-1.4604897499084473,0.4023052453994751,-0.8502210974693298,-0.10302529484033585,0.3125527501106262,1.5997111797332764,0.6966906785964966,0.8991315364837646,0.8802917003631592,-0.015772834420204163,-0.10156044363975525,-0.9152124524116516,0.008887507021427155,-0.7494990825653076,-1.369425892829895,0.9279192090034485,0.031263530254364014,0.6479777097702026,-0.15258297324180603,-0.10619085282087326,1.7305774688720703,0.6773974299430847
TC0021,-2.223731756210327,-0.029820213094353676,-0.5454750061035156,0.5883526802062988,-0.8043634295463562,0.9814925193786621,1.8533459901809692,1.0160459280014038,-0.3679933249950409,-0.7622998952865601,0.11145981401205063,-0.1282675415277481,1.378951907157898,0.3481397330760956,1.358783483505249,0.2316034585237503,0.4549480378627777,1.2426215410232544,-1.6085617542266846,0.8223631381988525,1.010119080543518,0.1518227756023407,0.9900297522544861,-0.753724992275238,-0.5559386014938354,-0.0067075928673148155,-0.6182096600532532,1.2156708240509033,0.49404409527778625,-0.5288820266723633,-0.740572452545166,0.5576919317245483,-0.602377712726593,-0.38397371768951416,-1.412355899810791,-1.0046923160552979,-0.0036045992746949196,-1.0462360382080078,-0.340266615152359,-0.34063467383384705,-0.7395641207695007,-0.693763792514801,-1.7402127981185913,1.0260742902755737,-1.6054377555847168,-1.0360127687454224,0.8896830081939697,1.3825647830963135,-0.3235214948654175,0.7789385914802551,1.2539209127426147,0.30473726987838745,0.38716447353363037,-0.251712828874588,0.47879713773727417,0.4740414023399353,1.038963794708252,0.5019038319587708,0.3660816550254822,0.2920616567134857,0.004527987912297249,0.4572159945964813,0.7115840315818787,0.15940998494625092
TC0022,0.49716901779174805,-0.5668191313743591,0.8291481733322144,0.5766525268554688,-0.5376602411270142,-1.9875614643096924,0.24217471480369568,0.8229578137397766,1.9925276041030884,-1.28658926486969,3.06681227684021,0.7321391105651855,0.0030811873730272055,-1.89851975440979,-0.17149028182029724,-1.5673575401306152,-1.3386051654815674,1.5921235084533691,-1.743405818939209,1.4276515245437622,-0.7086242437362671,-0.9420903921127319,0.19304777681827545,-0.5021568536758423,-0.9607306718826294,-0.027965590357780457,-1.7237783670425415,1.2525150775909424,-0.31993764638900757,-1.14961576461792,2.486206293106079,0.7178887724876404,0.6206114292144775,-1.6303378343582153,1.4958992004394531,-0.08091900497674942,0.9555054306983948,0.735816478729248,-1.3089640140533447,1.161243200302124,-1.7471923828125,1.1100215911865234,0.05007866397500038,-2.3802573680877686,-2.2333827018737793,1.3065136671066284,-1.161126971244812,4.1489386558532715,1.4273275136947632,-1.5561050176620483,1.750023365020752,1.776823878288269,-0.8172332644462585,-1.7798316478729248,-0.22390924394130707,-0.4032646417617798,0.4930219352245331,0.39868825674057007,0.38007938861846924,1.3869469165802002,2.4404842853546143,-0.34260132908821106,0.31394049525260925,0.3304528295993805
TC0023,1.4213095903396606,-1.4938849210739136,0.2718386650085449,0.6095390915870667,-0.022203488275408745,-0.6600154638290405,-1.5177574157714844,1.9629745483398438,1.9772019386291504,-1.4683891534805298,1.9098713397979736,0.5526280403137207,1.1002057790756226,-0.5366736650466919,1.4510385990142822,1.455432415008545,0.7945750951766968,1.1284120082855225,-2.4749112129211426,0.18637177348136902,-0.1293262094259262,0.11041678488254547,0.35921812057495117,-1.6174663305282593,-2.0371274948120117,1.4035799503326416,0.08863859623670578,1.8476128578186035,2.2050704956054688,0.16129043698310852,-0.3376913368701935,0.3975418508052826,0.8813750743865967,-1.773630142211914,-0.05860687792301178,-0.6778311729431152,1.0286033153533936,-0.7400470972061157,0.3743128180503845,1.1913071870803833,-0.023407865315675735,0.13321150839328766,-0.17444998025894165,-0.5845054984092712,-0.6587231159210205,-0.09841983020305634,0.866366982460022,1.7063665390014648,2.381072759628296,-0.974898099899292,0.08235601335763931,0.49104952812194824,0.8235006332397461,0.17038588225841522,-0.40450096130371094,0.37831321358680725,0.43055611848831177,-1.2781875133514404,2.2084834575653076,0.15450748801231384,0.045517779886722565,-0.40088963508605957,0.35180118680000305,0.6568794846534729
TC0024,0.34244033694267273,0.2054859846830368,-1.3135740756988525,0.5562675595283508,-0.9855585098266602,-0.5989784002304077,1.3835060596466064,-0.017930086702108383,1.1710987091064453,1.2963008880615234,1.8242273330688477,-0.3387225568294525,1.6567792892456055,1.0153415203094482,-0.9483200907707214,0.5244547724723816,-0.7086443901062012,-0.647247850894928,-1.7875653505325317,0.7772325873374939,0.11189129948616028,-0.3347415030002594,-0.5549210906028748,0.7053995132446289,-0.44143009185791016,1.3791007995605469,-0.9977800250053406,0.43124252557754517,1.7805564403533936,-0.4822799563407898,0.6586659550666809,-0.18771834671497345,0.491623193025589,-0.4620766341686249,-0.01727665774524212,0.40646398067474365,0.1945788413286209,0.04510534927248955,0.6937837600708008,0.6369355916976929,-0.3892027735710144,0.7839139699935913,-0.9873661994934082,0.05023598298430443,0.7744647264480591,0.07572276890277863,-1.3282536268234253,1.4503122568130493,-0.6889506578445435,-0.1181425005197525,1.7449816465377808,0.14904698729515076,-1.6291707754135132,-0.6991979479789734,0.6260343790054321,-0.5721191167831421,-0.22572271525859833,0.4680676758289337,0.3846377730369568,0.8334083557128906,0.6229205131530762,0.015413032844662666,0.8556660413742065,-0.1299835592508316
TC0025,0.6329308748245239,-0.6550551056861877,-0.7016311287879944,0.8221609592437744,-0.7874612212181091,0.12729045748710632,2.106755256652832,-0.09515537321567535,-0.42163482308387756,1.5504026412963867,2.0909922122955322,0.21343602240085602,1.4955588579177856,-0.0047725955955684185,-1.0116167068481445,1.041834831237793,-1.7133208513259888,-0.3137323260307312,-1.1735074520111084,0.23966936767101288,-0.15979374945163727,-0.02803163044154644,-0.11504741758108139,0.7467912435531616,-0.5657908916473389,1.2491264343261719,-0.5454913973808289,-0.42217668890953064,1.1818289756774902,0.4393530488014221,-0.5373484492301941,-0.7517070770263672,0.7319290637969971,0.18662816286087036,0.04994945600628853,0.7796220183372498,0.96388840675354,0.33244603872299194,0.7312846779823303,1.1838008165359497,-0.3553726077079773,1.6401108503341675,-1.7715885639190674,-1.3613948822021484,-0.0699264258146286,0.9230430722236633,-0.7468551397323608,1.3086274862289429,-0.09628714621067047,-0.8753446936607361,2.0905587673187256,0.1979791522026062,-1.3440371751785278,-0.7854050993919373,0.10361571609973907,-0.5026301145553589,0.06283632665872574,0.3023543953895569,0.7199701070785522,0.3086793124675751,0.22689610719680786,-0.07063441723585129,0.46353450417518616,-0.17152118682861328
TC0026,0.963313639163971,-1.1138194799423218,-1.0686570405960083,-0.8632903099060059,-1.0420254468917847,-0.5394603610038757,-0.5927733182907104,-1.229296326637268,-0.243280291557312,-0.022602662444114685,0.6283723711967468,-0.6074647307395935,2.429985284805298,0.24125830829143524,-0.8019316792488098,1.2096989154815674,-0.7120556235313416,-0.7961140275001526,-0.931435763835907,0.8129494190216064,0.9124044179916382,-0.5946236848831177,0.9432035088539124,-0.4955620765686035,-0.6163622140884399,0.4741995930671692,-0.13939589262008667,1.5749322175979614,2.0464706420898438,0.04982969909906387,-0.2600759267807007,-0.7151257395744324,0.5826201438903809,0.15248650312423706,-0.5099950432777405,-0.25746166706085205,1.119063377380371,-0.8557462096214294,0.6645573973655701,-1.0928453207015991,-1.0333267450332642,-1.1398591995239258,-1.7518458366394043,-1.8321055173873901,-1.4906200170516968,1.1361802816390991,-1.2496274709701538,0.9022287726402283,-0.1158737763762474,1.0999919176101685,0.9845685362815857,-0.05156629532575607,-0.5996658802032471,-2.1394102573394775,-0.4273214042186737,-0.9433788061141968,0.2718373239040375,1.0502066612243652,-0.36210864782333374,1.080723524093628,-0.5457037687301636,-0.6711692810058594,-0.7408559322357178,0.09393974393606186
TC0027,-1.8735243082046509,-0.9360851049423218,0.1200728490948677,-0.061329517513513565,-2.5877158641815186,1.6167411804199219,-0.41480472683906555,-0.559755265712738,0.8366577625274658,-1.3133004903793335,0.5528503656387329,0.25316494703292847,1.4607369899749756,-1.0183494091033936,-0.04714138060808182,2.9217607975006104,0.1585017591714859,-0.2617165148258209,-0.19791747629642487,0.3192758858203888,1.1370478868484497,0.42911121249198914,2.6327972412109375,-0.2352672964334488,-0.12507332861423492,0.19216229021549225,-2.6849617958068848,0.47734808921813965,0.5804203152656555,-0.08312336355447769,0.5787602663040161,-0.6135644316673279,1.3549573421478271,-0.852135181427002,0.6995069980621338,-1.555820107460022,0.4050073027610779,-1.0913832187652588,0.6078940629959106,0.4125362038612366,-1.2588653564453125,0.8297201991081238,-2.260464906692505,-1.045047402381897,0.332462340593338,0.36814597249031067,-0.148808091878891,1.0055195093154907,0.34432363510131836,1.4339967966079712,0.9539398550987244,0.33662039041519165,-0.3646220862865448,-0.3167230486869812,-0.5778788328170776,0.6359334588050842,0.6006872653961182,-0.5269116163253784,0.30618128180503845,1.59377121925354,2.1305618286132812,-1.4383223056793213,0.5712689161300659,0.05067484825849533
TC0028,-1.3932791948318481,0.9560374021530151,0.5392352342605591,0.07875656336545944,-1.3684816360473633,0.1315890997648239,0.3237382769584656,-1.4358776807785034,0.043535277247428894,-0.9579258561134338,1.7017406225204468,-0.2590404748916626,1.4416632652282715,-0.3419572114944458,0.0699339509010315,2.995096445083618,-0.37922924757003784,-0.8571299910545349,-0.9888744354248047,0.7631477117538452,0.7180314064025879,-0.7583431601524353,1.0774457454681396,-1.7323249578475952,-0.6786665916442871,-0.0853995606303215,-2.7699708938598633,1.8919034004211426,0.7035791277885437,-0.986433207988739,0.933833122253418,-0.24559764564037323,0.4071662127971649,-2.1469743251800537,0.5393190383911133,-0.8640887141227722,-0.751897931098938,-0.7090648412704468,0.27813807129859924,-0.5323051810264587,-0.77088463306427,1.440821647644043,-1.379102349281311,-1.1052298545837402,-0.12307927012443542,-0.20171402394771576,-0.9400674104690552,0.08404834568500519,-0.13194073736667633,1.6999199390411377,-0.11208457499742508,0.6590427756309509,-1.3615447282791138,-1.145686388015747,-0.30370354652404785,0.5683421492576599,-1.1612623929977417,-0.19111773371696472,-0.5317707657814026,1.2611654996871948,1.3263388872146606,-1.4095797538757324,0.36755380034446716,0.28370028734207153
TC0029,0.9799902439117432,-0.7193372845649719,-0.2575901746749878,0.6247583627700806,-0.5152518153190613,0.0131559232249856,-0.7677255868911743,-0.2311776727437973,0.14470680058002472,-0.14176176488399506,0.5541984438896179,-0.8864057660102844,1.884045958518982,0.8721774220466614,-0.8123733997344971,1.2179570198059082,0.7881139516830444,-0.05108609050512314,-0.17959268391132355,0.31881874799728394,1.2501029968261719,-0.4981103837490082,-0.4673994779586792,-0.9133126735687256,0.8336489796638489,0.2304661124944687,-1.1870287656784058,1.0011831521987915,1.213064193725586,-1.403174877166748,0.5069125890731812,0.8449768424034119,1.530996561050415,-1.5049699544906616,-0.2976938784122467,-0.9836410284042358,2.2609915733337402,-1.918657660484314,1.3032480478286743,0.0794011577963829,0.6933250427246094,0.394997239112854,0.038277797400951385,-0.838388204574585,0.4827415645122528,1.180757999420166,-1.168515920639038,1.3449729681015015,-0.10950371623039246,0.6046297550201416,-1.6796445846557617,0.10098948329687119,-0.2220926731824875,-1.353021264076233,0.5257996320724487,-0.6682477593421936,-1.1890302896499634,1.1750338077545166,-0.5541446805000305,0.6240177750587463,0.07932521402835846,0.30620235204696655,1.676061749458313,0.20899508893489838
TC0030,-0.23507143557071686,0.002072145463898778,0.06522330641746521,-0.362941175699234,-0.78252112865448,1.0636643171310425,0.3255217373371124,-0.7859615683555603,-0.37743374705314636,-1.1695157289505005,0.7783926129341125,-1.656851053237915,0.5077584981918335,-0.11280672252178192,0.08261222392320633,0.5671340823173523,1.0131442546844482,-0.11693473905324936,-0.751931369304657,2.198091506958008,1.0113955736160278,0.15704120695590973,1.9014017581939697,-1.0651522874832153,-1.334463119506836,0.18532079458236694,-1.3437602519989014,-0.2672400176525116,0.03438873961567879,-1.5793880224227905,0.9535242319107056,0.5974840521812439,-0.38288071751594543,-2.096374273300171,0.0376591831445694,-0.36500629782676697,1.26010262966156,-1.136407494544983,0.06952596455812454,0.2766677439212799,-0.06186540052294731,0.31508949398994446,-1.431505799293518,-1.5903178453445435,0.17033302783966064,0.8820784687995911,-0.37761250138282776,1.2555805444717407,0.20072385668754578,1.161274790763855,-1.5946868658065796,0.482252299785614,-0.9271976947784424,-0.9212113618850708,0.10145465284585953,0.8782622814178467,0.20875121653079987,0.5069276690483093,-0.44610822200775146,0.39774465560913086,1.9860228300094604,-0.6811016798019409,0.5022256374359131,0.0852617621421814
TC0031,0.565035879611969,-1.214709758758545,0.2546667158603668,0.6477519869804382,-0.6414437890052795,0.5138793587684631,-0.10780011862516403,-0.9671322703361511,0.749337375164032,-1.858984351158142,-0.7145845890045166,-1.4396507740020752,1.8491151332855225,0.10474493354558945,-0.48307496309280396,1.940796971321106,2.771042823791504,-0.049493879079818726,-0.7438501715660095,1.8390218019485474,1.5772240161895752,0.8090564608573914,1.0359517335891724,-0.4211301803588867,-0.8658584356307983,-1.329728126525879,-1.6587013006210327,-0.8548657298088074,0.22843043506145477,-0.5347071290016174,-0.3855871856212616,2.4428021907806396,0.5314298272132874,-1.8798089027404785,0.17153868079185486,-0.6084966659545898,1.348451852798462,-0.8999801874160767,0.3781837821006775,1.2019612789154053,-0.2616710662841797,-0.35745468735694885,-0.6513987183570862,-0.8525294661521912,-0.83500736951828,1.291123867034912,-0.6920899152755737,0.9471867680549622,-1.187860369682312,1.520203709602356,-0.2305750995874405,0.9445074200630188,-0.15415708720684052,-1.8281710147857666,-0.18020018935203552,0.7306557893753052,0.13634957373142242,0.2170087695121765,0.28092309832572937,0.38769984245300293,0.6268244385719299,0.16244778037071228,-0.6092508435249329,0.11339732259511948
TC0032,0.9198526740074158,-0.939518928527832,-0.594911515712738,-0.7802754640579224,-0.07172568142414093,-1.292101263999939,-0.6701173186302185,0.9781709909439087,3.091111421585083,-1.3732337951660156,1.8045501708984375,-0.2066737413406372,1.35836660861969,0.30354705452919006,-0.07083918154239655,0.8265909552574158,-0.181155726313591,1.424347162246704,-0.7578249573707581,1.3785969018936157,-0.43822580575942993,0.9122776985168457,-0.03442457318305969,0.9911892414093018,-2.958705425262451,0.027665214613080025,0.09284872561693192,0.5119526982307434,1.8160637617111206,0.8187989592552185,0.2566381096839905,-1.1084890365600586,-1.2972253561019897,-0.12508808076381683,0.7222275137901306,-0.2186608463525772,-0.5621481537818909,-1.4626083374023438,0.20822475850582123,0.2433868646621704,-0.3288384675979614,0.07252459228038788,-0.6096925139427185,-1.418505311012268,0.7594447731971741,-0.3244796097278595,0.7494409084320068,0.7815408706665039,3.4695816040039062,1.44550359249115,-0.21089580655097961,-0.06995894014835358,1.1177253723144531,-0.17668837308883667,-1.1463197469711304,0.533880889415741,1.1319160461425781,-0.6157048344612122,0.7875754833221436,0.03232778608798981,1.6198915243148804,-0.8527554869651794,1.5891062021255493,0.49931979179382324
TC0033,-0.012790699489414692,-1.1423317193984985,-0.6246896982192993,0.3207853138446808,0.7383993268013,-0.3255656063556671,1.4681111574172974,0.6336567401885986,0.5851471424102783,-0.3252101540565491,0.39272820949554443,-1.6086232662200928,-0.8020913600921631,-0.8042420744895935,-0.12348576635122299,-0.018283670768141747,0.1423858255147934,1.4792217016220093,0.1810089349746704,2.155071973800659,-0.7975664734840393,-0.2042667418718338,0.7381548881530762,-1.2753276824951172,0.6550569534301758,0.5485866069793701,0.25663453340530396,-1.0093380212783813,-0.9680181741714478,0.8061997294425964,-0.4949268102645874,0.4787575900554657,3.0049095153808594,-0.27192577719688416,-0.2882238030433655,0.02805236354470253,0.23461683094501495,0.36181825399398804,-0.968163788318634,0.06058569997549057,-0.4050300717353821,-0.23765575885772705,1.3600199222564697,-0.13016629219055176,-0.4575226902961731,-0.27794820070266724,-0.9795233011245728,1.5734480619430542,0.2618336081504822,-0.05554194748401642,0.4204234778881073,0.30633896589279175,-0.47890669107437134,-0.7859770059585571,1.370823860168457,-0.2626602053642273,0.5892651677131653,0.2837068736553192,0.2112920582294464,0.032846637070178986,0.12322066724300385,-0.15208904445171356,0.12723910808563232,0.6064895391464233
TC0034,-1.853647232055664,-0.715233325958252,-1.0417965650558472,-0.5958097577095032,-0.2105090320110321,-0.601068913936615,1.075631022453308,0.7339991927146912,-0.4838379919528961,-0.582920491695404,2.1539342403411865,-1.7548978328704834,0.17213669419288635,-1.212846279144287,-0.1297401785850525,-0.250622421503067,0.46216630935668945,0.9045397639274597,-0.014845944941043854,-1.0150213241577148,0.40384572744369507,0.6849989891052246,-0.3116944432258606,-1.4974026679992676,-0.46713846921920776,0.6812491416931152,-0.0199287012219429,-0.4160600006580353,-0.9105046987533569,-0.16972091794013977,0.6831976175308228,-0.13962551951408386,1.6028333902359009,-0.9942012429237366,0.6134909987449646,0.3814610540866852,-0.06338465213775635,-1.2556697130203247,-1.581353783607483,-0.8057270050048828,0.6890345811843872,-0.07787652313709259,1.3146840333938599,-1.481309175491333,0.28116166591644287,0.6187645196914673,0.24133716523647308,0.42518097162246704,-1.5765008926391602,-0.2781456708908081,1.1065878868103027,-0.16368140280246735,0.8428734540939331,-0.8085179328918457,1.0096322298049927,0.6306794881820679,0.9638480544090271,0.2913650572299957,-1.15115487575531,-0.47887110710144043,-1.0763731002807617,0.49471423029899597,-0.08482025563716888,2.4311676025390625
TC0035,0.4672877788543701,-1.352231502532959,0.7839049696922302,-0.43762749433517456,-0.40566593408584595,-0.03624467924237251,0.8001019358634949,-0.04390336200594902,0.7679380774497986,0.34022241830825806,0.2972959876060486,-1.8351494073867798,-1.0097925662994385,-0.4185173213481903,1.6036677360534668,0.9884002804756165,0.12179521471261978,0.7213582992553711,-1.320765495300293,2.1670544147491455,-0.6784164905548096,0.18528342247009277,0.03089848719537258,-0.49801915884017944,1.4427707195281982,-1.372670292854309,-0.031275149434804916,-0.6261813640594482,-0.28025442361831665,-0.49748310446739197,-0.21550461649894714,0.03912618011236191,1.1291404962539673,0.11344218999147415,-1.0966521501541138,0.334965318441391,0.5751762986183167,-1.0918362140655518,-0.3459767997264862,-0.6953411102294922,0.8741746544837952,-0.38959649205207825,1.5683332681655884,-1.4319937229156494,0.8898117542266846,-0.10317976772785187,0.5129746198654175,1.6440688371658325,0.29507556557655334,0.6253833770751953,-0.45584630966186523,0.9292504191398621,0.7675378322601318,-0.6349562406539917,0.5371282696723938,0.03391676023602486,2.4482553005218506,-0.867093563079834,0.055646710097789764,-0.5212175250053406,-1.1064351797103882,-1.1195619106292725,0.08185742050409317,-0.07076363265514374
TC0036,-0.6847739219665527,-0.47132453322410583,-1.3485440015792847,0.12884682416915894,0.7971233129501343,0.541155219078064,1.32448410987854,0.7628208994865417,0.23280128836631775,-0.16081780195236206,0.24912181496620178,-2.0442724227905273,0.46239733695983887,0.7943176031112671,0.8523797392845154,-0.10567494481801987,0.492935448884964,0.46864554286003113,-0.5429550409317017,0.43336859345436096,-0.5987508296966553,-0.3761822581291199,0.354790061712265,-1.4776012897491455,-0.7349161505699158,-0.02082381397485733,-0.11741580814123154,-0.5565841794013977,0.06610402464866638,0.7299069166183472,0.46642959117889404,-0.4656141698360443,2.236039876937866,-0.5534496903419495,-0.5469930171966553,0.009674661792814732,1.0859366655349731,-0.7780022025108337,-0.7520049810409546,-0.3199975788593292,-0.030817799270153046,0.14980004727840424,2.006035327911377,-0.1681792140007019,0.35086944699287415,-0.32556140422821045,-0.4811338186264038,0.9925177693367004,-0.15725307166576385,0.4670935571193695,0.992358386516571,0.4956603944301605,-0.8469127416610718,0.7931199669837952,1.2471078634262085,0.046582888811826706,1.7655045986175537,0.10517033189535141,0.263557106256485,-0.15084505081176758,-1.04483962059021,0.2502729892730713,-1.3598167896270752,-0.07564502954483032
TC0037,-0.2945537865161896,-0.677111804485321,0.6699634790420532,-0.9460941553115845,0.8354342579841614,-0.2543207108974457,1.3259339332580566,0.3872739374637604,0.9532555341720581,0.5590789914131165,1.2402387857437134,-1.5155794620513916,-1.8440675735473633,-1.6787773370742798,0.7895216345787048,0.8074679374694824,-0.8225776553153992,0.869463324546814,-1.2198622226715088,1.119832158088684,0.0973452553153038,0.6214539408683777,0.918205201625824,-1.191827654838562,0.6334855556488037,-0.2435147911310196,0.8800693154335022,-1.4803894758224487,-0.20690684020519257,-0.8199154138565063,-0.14484231173992157,0.4167896807193756,1.1424410343170166,-0.20140910148620605,-0.24933727085590363,0.772973895072937,-1.0163127183914185,-1.069459080696106,0.014497560448944569,-0.42113038897514343,1.1824283599853516,0.39466604590415955,0.9325494766235352,-0.26540806889533997,1.248857021331787,0.18498891592025757,0.6307175159454346,0.6379883289337158,-0.47933390736579895,-0.2561689615249634,1.0340667963027954,0.3027147650718689,-0.6303268671035767,0.03193195164203644,0.5755167007446289,-1.071616768836975,1.139549970626831,-0.49165916442871094,0.0492589995265007,-0.4951344132423401,-1.0999729633331299,-0.6460572481155396,0.553371250629425,0.3251665234565735
TC0038,0.7869736552238464,-1.0731532573699951,-1.2978843450546265,0.22659461200237274,1.5660120248794556,0.9291093945503235,1.0948611497879028,-0.48176267743110657,-0.2190237194299698,-0.257628470659256,0.11771095544099808,-1.6739696264266968,-1.0865877866744995,-0.2302982062101364,0.6952295899391174,0.7230400443077087,-0.9534250497817993,2.167226552963257,-0.22578002512454987,0.5963488221168518,1.7527657747268677,-0.07419225573539734,-0.3872392177581787,-1.012435793876648,0.03873754292726517,-0.5711076259613037,-0.14039179682731628,-1.1346393823623657,0.3144282400608063,0.01106692012399435,0.09667712450027466,-0.3840518593788147,2.5290515422821045,0.1269197165966034,0.0007188262534327805,0.9028430581092834,-0.7187597155570984,-0.2563796937465668,0.14341850578784943,-0.570679247379303,1.7955161333084106,0.1667969673871994,1.2610557079315186,-0.03839895501732826,0.08422093838453293,0.4065576493740082,0.9785353541374207,0.8383671641349792,1.4631420373916626,0.4806339144706726,-0.20577852427959442,0.539213240146637,1.0745302438735962,0.27729249000549316,1.4286253452301025,-0.7064366936683655,-0.34918081760406494,-0.5771425366401672,0.4603772759437561,-1.0523970127105713,0.005433612037450075,0.5316150188446045,-0.2121685892343521,0.34345880150794983
TC0039,-0.9380037784576416,-0.30496945977211,-1.0973780155181885,0.6623324751853943,1.1516087055206299,0.7823702096939087,1.169797658920288,1.2538282871246338,0.19977043569087982,-0.5729374289512634,1.071328043937683,0.061053402721881866,0.0886368602514267,-0.5553026795387268,0.4767724871635437,0.04739752411842346,0.9932718276977539,-0.2095748335123062,-0.42966392636299133,-1.3213262557983398,-0.08891954272985458,-0.27870821952819824,0.5105208158493042,-0.041946396231651306,-0.7058295607566833,0.03393099084496498,-1.0397131443023682,-0.3344625234603882,0.33136606216430664,0.20294111967086792,-0.07791367173194885,1.396897554397583,0.2820298671722412,-0.32896676659584045,0.7540785074234009,0.002218961250036955,-0.2658403813838959,-1.3160545825958252,-0.16243326663970947,0.027722222730517387,-0.5079345703125,-0.660662829875946,-0.5603928565979004,0.13153940439224243,0.9496527910232544,0.11374812573194504,-0.15497027337551117,0.648927628993988,0.4747655689716339,-1.1206073760986328,0.5107215046882629,0.5316762924194336,-0.5028460621833801,0.5533831119537354,-0.8878591656684875,1.487097978591919,0.12384038418531418,0.7632469534873962,0.6103736758232117,-0.08781486004590988,-0.029032692313194275,1.1690438985824585,-0.052382469177246094,-0.4628809690475464
TC0040,0.8061437606811523,-0.0054030269384384155,-0.539669930934906,-0.2870980203151703,0.275393545627594,0.5891470313072205,-0.746823787689209,1.4419838190078735,1.6520768404006958,0.5333520770072937,2.103886842727661,-1.9330207109451294,0.035179127007722855,-0.3033939003944397,1.6909363269805908,1.2928650379180908,1.5510555505752563,-0.047314003109931946,0.18874239921569824,-0.558921754360199,-0.9297316670417786,0.07716245204210281,-0.32581430673599243,0.07124030590057373,-2.6920018196105957,-0.6781293749809265,-0.42887890338897705,-0.168361097574234,2.4413657188415527,0.5022035241127014,0.430204838514328,-0.0015512706013396382,0.6462466716766357,-0.5417729616165161,0.7958201766014099,0.4907391369342804,1.1069320440292358,-1.2375380992889404,0.34168529510498047,-0.1098949983716011,-0.014369715936481953,0.5341295003890991,0.458901047706604,-1.1957823038101196,0.00897814892232418,-1.7278378009796143,0.234039768576622,0.15077848732471466,2.7273523807525635,-0.47786614298820496,0.22340796887874603,-0.544969916343689,-0.019218802452087402,0.31639423966407776,-0.44594165682792664,0.44880566000938416,-0.6900033354759216,0.2806161046028137,0.9019408226013184,-0.5111866593360901,-0.30372121930122375,0.40456491708755493,0.4113960564136505,0.039873261004686356
TC0041,-1.4292881488800049,-0.5809827446937561,-0.9207195043563843,0.8692293763160706,1.8511086702346802,0.33054691553115845,2.1954214572906494,0.7434239983558655,-0.37566959857940674,-0.9519940614700317,1.36245858669281,-2.0463521480560303,0.8951653838157654,-0.22565273940563202,0.644014298915863,1.496740460395813,0.5600918531417847,-0.3735288679599762,-0.7365241646766663,-0.0009262033854611218,-0.21603436768054962,-0.2308027297258377,0.6887803077697754,-0.266425758600235,-0.13509304821491241,0.8712221384048462,-1.21067476272583,-0.45544758439064026,-1.6010875701904297,1.1345455646514893,2.1017189025878906,1.1458871364593506,1.62954580783844,-0.07590113580226898,0.3188624680042267,-0.5009987354278564,-1.0915166139602661,-1.7635830640792847,0.7314522862434387,1.2884703874588013,-1.1224552392959595,-0.4823444187641144,-0.7980440258979797,-2.0769455432891846,-0.22382302582263947,-1.2689974308013916,0.4640997350215912,0.2172814905643463,0.9033556580543518,-1.3097901344299316,0.7376546263694763,0.951837420463562,1.199931263923645,0.6548863053321838,-1.281511902809143,1.926582932472229,0.5899904370307922,0.6984098553657532,0.034728311002254486,0.09324309974908829,1.1758832931518555,0.7037351131439209,1.0637691020965576,0.2095310389995575
TC0042,0.8142790794372559,-0.02842799946665764,-0.5810412168502808,-0.2603899836540222,-0.08821351081132889,-0.27674955129623413,0.6158496141433716,0.6029874086380005,1.486939549446106,-0.37581104040145874,0.7600973844528198,-1.0456390380859375,-0.18015386164188385,-1.1104077100753784,0.666811466217041,0.4654422104358673,1.074198603630066,0.9547862410545349,-0.688173234462738,-0.6260889768600464,0.6930567026138306,-1.4750242233276367,-1.1478759050369263,1.5958033800125122,-0.9375588297843933,0.7817341685295105,-1.3084958791732788,-0.8143574595451355,1.0131947994232178,-0.5917108058929443,0.32227006554603577,1.2694363594055176,0.37003299593925476,-0.9255703091621399,-0.7943028807640076,0.4529116153717041,-0.6551147699356079,-0.008477692492306232,-0.7699819803237915,0.5121881365776062,-0.6806049942970276,-0.34066975116729736,-1.1810227632522583,-1.8630939722061157,0.08599282056093216,-0.2562345564365387,-0.014467677101492882,3.6954169273376465,-0.03482919558882713,0.6652755737304688,0.9148874878883362,0.6706528067588806,-0.32484349608421326,0.006860647816210985,0.21416038274765015,1.1400837898254395,0.8189752697944641,0.0887174978852272,-0.10747190564870834,1.0473718643188477,0.609743595123291,0.23945830762386322,-0.3463880717754364,0.39627695083618164
TC0043,0.18396562337875366,-0.1604662537574768,0.6219261884689331,0.4665566384792328,-0.993925929069519,1.0982650518417358,1.9773002862930298,1.093941569328308,0.6790352463722229,-1.247799277305603,2.3972394466400146,-0.9231630563735962,-0.6341874003410339,-0.25905001163482666,1.8669155836105347,0.36758288741111755,1.5966928005218506,2.0265443325042725,-1.3437857627868652,-0.46287935972213745,1.2395102977752686,0.13241033256053925,-0.5743663907051086,1.2247289419174194,-2.0847811698913574,0.4781114459037781,-1.1254782676696777,-0.3061205744743347,0.6240696907043457,0.680442750453949,-0.32564181089401245,0.92513507604599,1.918487787246704,-1.816231608390808,0.0781942680478096,-0.2196522206068039,-0.1422826498746872,-0.07801608741283417,0.29684221744537354,1.29651939868927,0.5398141741752625,-0.6126942038536072,-0.10644306987524033,-1.4048012495040894,0.9859553575515747,-0.48424583673477173,0.34262600541114807,2.9792556762695312,1.2352535724639893,-0.8848897218704224,1.2484685182571411,-0.07426758110523224,-0.1240069717168808,0.4709457755088806,-0.17247942090034485,1.0060588121414185,-0.2586601972579956,0.707649290561676,1.3843717575073242,-0.21520112454891205,-0.036444440484046936,0.46025732159614563,0.4660213887691498,-0.17600080370903015
TC0044,-0.09319892525672913,0.0946546345949173,-1.1101242303848267,0.691323459148407,0.9084487557411194,0.8581557273864746,0.8367210626602173,0.7107126712799072,-0.25086334347724915,0.15679854154586792,0.949540376663208,-0.6212576627731323,-0.2866400182247162,-1.4060871601104736,0.38788238167762756,1.0442886352539062,-0.3708488345146179,0.9216020703315735,-0.6795699000358582,0.6577363610267639,0.2870287001132965,-0.8702064156532288,-0.06182491406798363,0.9331657886505127,-0.022354329004883766,-0.9185070395469666,-0.7872499823570251,-0.585037112236023,-0.04550622031092644,0.9169526100158691,1.4374618530273438,1.1082090139389038,-0.1843176782131195,-0.4845380485057831,0.0642981231212616,1.3271855115890503,-1.2527852058410645,-0.9338512420654297,-0.41379472613334656,0.8242821097373962,-1.4298416376113892,-0.6291090846061707,0.13597741723060608,-1.933335542678833,-0.07924490422010422,-0.9361901879310608,0.6982350945472717,1.490162968635559,-0.9521408677101135,0.27500951290130615,-0.004658911377191544,0.9775559902191162,0.7393824458122253,0.2793305218219757,-1.5627033710479736,0.7215000987052917,0.9133099317550659,0.43054401874542236,-0.43262773752212524,0.916018545627594,-0.12925586104393005,-0.19779366254806519,0.8788829445838928,-0.5379976034164429
TC0045,0.4052284359931946,-0.5245547890663147,-0.9505019783973694,0.46124038100242615,0.3686295449733734,0.53134685754776,0.5190371870994568,1.2239429950714111,0.5035756230354309,0.3746391832828522,1.2258961200714111,-0.3672182261943817,-0.7721076607704163,-1.3133314847946167,0.6472862958908081,1.4046697616577148,-0.5177807211875916,0.5713766813278198,0.0761149600148201,0.1399148851633072,-0.1684977263212204,-1.2313419580459595,0.4041813015937805,0.4348691999912262,0.19499832391738892,-0.5159270167350769,-0.9985240697860718,-0.966633677482605,1.0325253009796143,1.1039785146713257,0.8984417915344238,0.613823652267456,-0.32103368639945984,-0.8630746603012085,0.34107086062431335,0.9739195704460144,-0.6311877369880676,-0.883789598941803,-0.03529495745897293,0.6275836229324341,-1.1176486015319824,-0.9941685199737549,-0.5466786623001099,-1.9140944480895996,0.5829901099205017,-0.30073562264442444,0.5119314193725586,1.0663164854049683,-0.0074827964417636395,0.011341006495058537,-0.3458274304866791,0.8854354619979858,0.6515822410583496,0.384621798992157,-1.8098143339157104,1.2754194736480713,0.5585075616836548,0.40902280807495117,-0.4011891186237335,0.6514458656311035,-0.15353929996490479,-0.17999468743801117,1.216978669166565,-0.6391727924346924
TC0046,-0.8826683163642883,-1.0771759748458862,-0.41866612434387207,0.9324317574501038,1.3713176250457764,-0.8839002251625061,-0.13570831716060638,0.2614936828613281,0.318464457988739,0.9424769878387451,1.3575072288513184,-1.9280946254730225,-0.1358329951763153,-0.3237212896347046,-0.19863957166671753,1.7337307929992676,1.2307440042495728,0.037530530244112015,-1.3678882122039795,0.28939884901046753,0.13987843692302704,0.0666518285870552,0.13342280685901642,-1.7768759727478027,-0.3440294563770294,0.5219606757164001,-0.33022573590278625,0.6998809576034546,-0.11755093187093735,0.5970460772514343,0.9943992495536804,-0.11557354778051376,0.40526100993156433,0.71816086769104,-1.3176084756851196,0.8086230754852295,-0.26815035939216614,-0.1729930341243744,-0.20004519820213318,1.3482943773269653,0.20077966153621674,-0.36057111620903015,0.04579836130142212,-0.4258267879486084,-0.4389961361885071,0.6651878952980042,0.012372521683573723,2.101752281188965,0.16938436031341553,1.5436838865280151,0.6319488286972046,-0.12438773363828659,0.9853001236915588,0.16095608472824097,1.0598766803741455,-0.54157555103302,1.3752580881118774,-0.14131170511245728,1.3636738061904907,-1.711533784866333,0.7869599461555481,1.6834226846694946,-0.26035863161087036,-0.7160966396331787
TC0047,-0.4430648386478424,0.02752852812409401,-0.43109291791915894,-1.164228081703186,0.9475564360618591,1.2874971628189087,1.2841989994049072,0.6219401955604553,0.6971081495285034,-0.34008273482322693,0.7692428231239319,-0.15778736770153046,-0.726262629032135,-2.4628798961639404,0.5611005425453186,0.39632290601730347,0.33465734124183655,-0.22876185178756714,-0.12384369969367981,0.5091797113418579,0.46616536378860474,0.3305547833442688,0.6573810577392578,1.0348562002182007,-0.7319624423980713,-0.6505830883979797,-0.4374218285083771,-0.655265748500824,1.2456591129302979,0.11936840415000916,-1.413100004196167,0.44237539172172546,1.88314688205719,-0.449521541595459,-0.7952492237091064,1.4606209993362427,-0.6996996998786926,-0.9550266861915588,0.27603378891944885,0.6503486633300781,0.6560945510864258,-0.8535786271095276,-0.6502326726913452,-0.38462623953819275,0.3025810718536377,0.6289196610450745,-0.66573166847229,1.3855030536651611,0.3863847851753235,-0.14053955674171448,1.3901833295822144,0.0660625621676445,0.5095354914665222,0.48562678694725037,-0.6928122639656067,0.610255241394043,0.3121334910392761,-0.36126673221588135,0.8414458632469177,-0.6065890789031982,0.47401654720306396,-0.3028416931629181,0.3675066828727722,0.11274448782205582
TC0048,-0.22393916547298431,-0.5782281756401062,-0.3181098997592926,0.15946339070796967,1.2719124555587769,0.6581752896308899,0.6357774138450623,-0.37344616651535034,0.17139773070812225,0.6053678393363953,0.755029022693634,-0.18609896302223206,0.3508523404598236,-0.6821209192276001,-0.6951175928115845,0.36105024814605713,0.16403214633464813,0.49967995285987854,-1.199397087097168,-0.4015839397907257,1.154597520828247,0.4145495593547821,1.365978717803955,0.9389299750328064,0.3497244715690613,1.0957369804382324,-0.5634915828704834,-0.5403760671615601,0.46958988904953003,0.8825945854187012,0.6920912265777588,0.5151851177215576,-0.6245813965797424,-0.17486754059791565,-0.7229135632514954,-0.5458763241767883,0.5783455967903137,1.029963731765747,-0.38901764154434204,-0.24349212646484375,0.13521771132946014,-0.0433901846408844,-0.9507483839988708,-1.2266745567321777,1.1452691555023193,0.5330122113227844,-0.29636186361312866,1.0566730499267578,0.7942144870758057,-0.6901423931121826,0.10968983918428421,-0.23785962164402008,1.1024529933929443,0.021549474447965622,0.5952534079551697,0.21691150963306427,0.42496052384376526,0.8275558948516846,1.198826551437378,0.8025245070457458,-0.9040035605430603,0.3284822702407837,0.09267836064100266,-0.08143957704305649
TC0049,0.4588277041912079,-0.34644946455955505,-0.9101619720458984,-1.0040626525878906,0.8668832778930664,-0.5384829044342041,0.7796846032142639,0.5625526905059814,1.8772104978561401,0.16030751168727875,0.9239591956138611,-1.427449107170105,-0.8264127969741821,-0.6137304902076721,-1.2689216136932373,0.15837958455085754,-0.935626208782196,0.1822580099105835,-2.1130714416503906,0.397978276014328,0.9105509519577026,0.36129292845726013,0.6010741591453552,0.32434579730033875,0.7386854290962219,0.34115251898765564,-0.5934031009674072,0.5353419184684753,-0.29170116782188416,-0.06764186918735504,-0.16365265846252441,-0.3006881773471832,-0.09296895563602448,-0.3715124726295471,-0.49411147832870483,-0.19179439544677734,0.5197607278823853,-1.463546872138977,0.32183337211608887,-1.5981122255325317,-1.0109713077545166,0.5458072423934937,0.30600324273109436,-0.07823234051465988,0.7865118384361267,0.6562632918357849,-0.6914308667182922,1.0266660451889038,0.14971311390399933,0.358903706073761,1.0261390209197998,0.011450915597379208,0.6500154733657837,0.2143990397453308,-0.12122514098882675,1.8572484254837036,0.37828564643859863,0.12169857323169708,0.9199641942977905,0.9353112578392029,-0.6057513356208801,-0.029823580756783485,0.08599473536014557,-0.44606906175613403
TC0050,-1.051844835281372,-2.3482394218444824,-0.7634871006011963,0.9102984666824341,-0.44380560517311096,0.2073364406824112,0.04833448678255081,1.3978972434997559,1.4452147483825684,0.3475508391857147,1.7311969995498657,-0.9988650679588318,-0.9662624001502991,0.7345499396324158,-0.6189944744110107,1.4618254899978638,0.38838914036750793,-0.3230763077735901,-1.384564995765686,0.564801812171936,0.30279022455215454,-0.9497352838516235,0.3842335641384125,-0.5839064121246338,-0.5729531049728394,-0.47465571761131287,-0.11485466361045837,-0.41684070229530334,-0.7298624515533447,0.4170632064342499,1.0450232028961182,0.8251346349716187,-0.16189397871494293,0.6149507164955139,-0.42654934525489807,-0.10563406348228455,-0.515119194984436,-0.8205613493919373,0.49664199352264404,0.2574661672115326,0.8524375557899475,0.005696700420230627,0.26563891768455505,-0.5942001342773438,-1.0614365339279175,0.4030280113220215,-1.154520869255066,0.9603208303451538,0.676077127456665,1.601475477218628,1.522744059562683,-0.4297189712524414,0.797923743724823,-0.23768147826194763,-0.22150185704231262,-0.9089603424072266,1.2990946769714355,-1.3559361696243286,0.3679054379463196,-0.7709781527519226,0.3233296275138855,1.3725028038024902,-0.9033152461051941,-0.1548849195241928
TC0051,1.7860031127929688,0.2679339349269867,0.6627274751663208,0.8477126359939575,0.5102134346961975,0.5425029397010803,-0.8438354134559631,-0.09752309322357178,0.25654518604278564,-0.2205902487039566,0.9634747505187988,-0.7495310306549072,-0.9952226877212524,-1.9145190715789795,0.5218374729156494,0.8806649446487427,-1.1756774187088013,0.9852554202079773,0.4687342047691345,1.116290807723999,-1.2017788887023926,2.427065849304199,0.7722346782684326,0.9666741490364075,-1.0255825519561768,-0.10123491287231445,0.5444795489311218,0.2575073838233948,2.0218875408172607,1.7566709518432617,0.3408384919166565,0.5150706171989441,-0.9068984985351562,-0.43243512511253357,-0.6746091842651367,-0.1608218252658844,-0.06972436606884003,-1.1816483736038208,0.16334864497184753,-0.7124656438827515,0.5001627802848816,-0.032376691699028015,-0.9209908246994019,0.5401782989501953,-0.768677830696106,0.44405844807624817,-0.785332441329956,-0.958107590675354,-1.7793043851852417,1.623396396636963,-1.3851717710494995,1.142058253288269,1.6597900390625,0.2297312468290329,0.10146678239107132,-0.2852979898452759,1.1590863466262817,-0.7352824807167053,-0.2546282112598419,1.1313533782958984,0.18250058591365814,0.062100257724523544,-1.5298328399658203,-0.30657780170440674
TC0052,-0.16264338791370392,0.06529251486063004,-0.48739081621170044,-1.3598583936691284,0.04403190314769745,-0.18434907495975494,0.5019900798797607,0.630945086479187,3.196728467941284,-0.15433594584465027,3.6106202602386475,0.04380437359213829,-0.23886825144290924,0.2840215563774109,-0.31888192892074585,0.1927870810031891,1.0407958030700684,1.4321953058242798,-0.7009262442588806,-0.4417102336883545,0.28980815410614014,0.8723959922790527,0.6981700658798218,0.1406337022781372,-0.915696918964386,1.0812458992004395,0.11521774530410767,1.197465419769287,0.3345301151275635,0.8284703493118286,1.5994857549667358,-0.02221471443772316,1.3555700778961182,-0.38535019755363464,1.2719234228134155,-0.26049214601516724,-0.9097071290016174,-0.8716576099395752,-0.46454450488090515,0.9274831414222717,0.6560091972351074,-0.3098743259906769,-0.690375566482544,-0.9106074571609497,0.33476248383522034,-0.29354456067085266,1.3965948820114136,1.551062822341919,0.9172587990760803,-0.4286472201347351,0.743760347366333,0.16442635655403137,0.762894332408905,0.465826153755188,-1.0004602670669556,1.0005806684494019,0.39914554357528687,-0.9683336615562439,-1.113356590270996,0.6069788932800293,-0.40576469898223877,0.24533934891223907,0.7761930227279663,1.1573008298873901
TC0053,-0.5575377941131592,-1.1816154718399048,-1.3923288583755493,-1.2254412174224854,-0.36539626121520996,-0.5247399210929871,0.037724342197179794,-1.9294393062591553,0.506476104259491,1.3313555717468262,0.7890936136245728,1.3293653726577759,2.1970014572143555,-0.4492153525352478,-0.2072857916355133,-0.21994760632514954,-0.2274228185415268,1.0356621742248535,-0.42856207489967346,0.7368062734603882,0.4850158393383026,1.3312448263168335,-0.5640169382095337,0.7941948771476746,-0.3418608009815216,0.27401474118232727,0.7293965816497803,1.137669324874878,0.5298640727996826,0.518837034702301,-0.0040087392553687096,-0.6056784391403198,1.3896253108978271,-0.8601050972938538,-0.6254420876502991,0.08367044478654861,0.41229888796806335,0.4814978837966919,-0.11232674866914749,-0.21713542938232422,0.691618800163269,1.0813782215118408,-0.7257228493690491,0.679484486579895,0.0016981521621346474,0.1879635453224182,0.6608699560165405,1.0012946128845215,1.2689846754074097,0.7132993340492249,-1.248508334159851,0.11832605302333832,-0.46629050374031067,0.1115243136882782,1.2268140316009521,-0.21972787380218506,1.0745943784713745,1.3665927648544312,0.07016614824533463,0.4797772765159607,-0.5636194348335266,0.018715495243668556,1.3181623220443726,0.18252983689308167
TC0054,-0.19505572319030762,-1.981011986732483,-0.2559281587600708,-0.31506508588790894,-0.34718987345695496,-0.1889456808567047,-0.14188191294670105,-1.8946096897125244,-0.09547574818134308,0.18307366967201233,1.3136619329452515,0.5546345710754395,1.368783712387085,-1.1104875802993774,0.11505203694105148,0.17508473992347717,-0.5504817366600037,0.2673191726207733,0.4001213610172272,0.6607416272163391,0.8883250951766968,0.6926692128181458,-0.12049809843301773,0.003331403946503997,0.5927879214286804,0.4426870048046112,-0.4241481423377991,0.7009695172309875,-0.10756376385688782,0.8402690887451172,-0.5367751121520996,-0.6596580743789673,1.4889265298843384,-1.1152030229568481,-0.6512185335159302,0.2996320426464081,0.23621386289596558,0.2544595003128052,-0.16966550052165985,0.24220411479473114,0.8825253248214722,1.0545560121536255,-1.7640210390090942,0.32260313630104065,-0.1007537767291069,0.6884629130363464,1.25798761844635,1.1296941041946411,0.6427356004714966,1.2253649234771729,-1.263058066368103,0.263438880443573,-0.03671989217400551,-0.3881360590457916,0.4537721574306488,-0.718448281288147,-0.18889549374580383,1.0954205989837646,0.11367339640855789,-0.2548629343509674,-1.1893563270568848,-0.19624026119709015,1.624314785003662,0.6847763061523438
TC0055,-0.11297781765460968,0.23488348722457886,-1.6117936372756958,0.4886484742164612,0.33632412552833557,0.6736775636672974,-0.18116071820259094,-0.4989931583404541,0.42762964963912964,-0.1964167356491089,1.4252837896347046,0.446664035320282,1.585471510887146,0.12398955971002579,0.14043794572353363,-0.3582867980003357,-0.32681453227996826,0.638884961605072,-1.653347134590149,1.496263861656189,1.2141209840774536,1.0027775764465332,0.4802033603191376,-1.0663944482803345,-0.17827166616916656,-0.6578395366668701,0.00016782537568360567,0.15004506707191467,0.8481894731521606,-0.11161141842603683,-0.1478237360715866,-0.017107447609305382,0.47681188583374023,-0.10677897185087204,-0.2544856667518616,0.030879877507686615,0.07165852934122086,0.15505895018577576,0.19322484731674194,-0.2660907506942749,0.18068274855613708,-0.13933165371418,-0.5245980620384216,0.4011971950531006,0.799674928188324,0.019875437021255493,0.21096375584602356,1.0375230312347412,-0.6643182635307312,0.9444024562835693,-1.074756383895874,0.41416090726852417,-1.3684477806091309,-0.9971252679824829,0.12555952370166779,-0.22532890737056732,0.616673469543457,-0.4024130702018738,-0.15395569801330566,1.7252583503723145,-0.14243939518928528,-1.2020633220672607,1.1125110387802124,0.36762872338294983
TC0056,-0.05202478542923927,-0.5992379188537598,-1.487612009048462,0.18258492648601532,-1.6686010360717773,1.0760029554367065,0.7160467505455017,-0.5490226745605469,-0.060410961508750916,0.468082994222641,1.3493658304214478,0.025790495797991753,1.4871129989624023,0.8045605421066284,-0.5494852662086487,1.1363357305526733,0.4380625784397125,1.473752737045288,-0.899602472782135,1.0718926191329956,1.0023845434188843,0.127740278840065,-0.023197829723358154,-1.205507516860962,0.30646955966949463,-0.015796029940247536,-0.19056199491024017,0.42463240027427673,0.40992623567581177,0.04482384771108627,-0.19770003855228424,-0.19825626909732819,1.3066582679748535,-1.2437077760696411,-0.6378242373466492,-1.4276750087738037,0.26283615827560425,0.10569829493761063,-0.7343793511390686,-0.601713240146637,0.6708531379699707,0.411143034696579,-0.8970452547073364,-0.3518587052822113,0.23968230187892914,-0.013046528212726116,0.07244019210338593,0.4759153723716736,-0.2807101607322693,-1.0784375667572021,-0.9967843294143677,-0.20163655281066895,-0.07174504548311234,-1.3656890392303467,-0.4974473714828491,-1.3228460550308228,-0.9098204970359802,-0.504528820514679,-0.9184774160385132,0.7016422152519226,0.2475787103176117,-1.2261227369308472,-0.3958204984664917,1.305678367614746
TC0057,0.40614053606987,-1.0068594217300415,-0.872850775718689,0.08423198759555817,-0.145826056599617,1.0107282400131226,-0.1367671936750412,-1.2756805419921875,2.8127965927124023,0.44561994075775146,1.1789551973342896,0.05312936753034592,2.001532793045044,0.05417562276124954,-1.234413743019104,-1.6608978509902954,-0.8027625679969788,0.895169734954834,-1.0189992189407349,-0.020567461848258972,1.293487787246704,0.6861856579780579,0.39516445994377136,-1.6359270811080933,-0.39449480175971985,-0.6526303887367249,0.0787748172879219,-0.20405808091163635,-0.37948164343833923,0.0008863073890097439,-0.4501490592956543,-0.2792624235153198,0.7166334986686707,-1.5877608060836792,-1.7798681259155273,-0.6468372344970703,0.26091447472572327,-0.3403370976448059,-1.558695673942566,-0.3647356927394867,-0.3072759211063385,0.9219980239868164,-1.0432544946670532,0.08883798122406006,-0.13160239160060883,0.4331343173980713,-0.38017043471336365,1.2518770694732666,0.3433701992034912,-0.8968701362609863,-1.3558603525161743,1.7687788009643555,-0.0017462067771703005,-0.41237926483154297,0.5703935027122498,-1.0809059143066406,1.7862473726272583,-0.2403271496295929,-1.3753780126571655,0.6978344917297363,-0.33857131004333496,-0.4146479070186615,-0.5112617611885071,0.7773267030715942
TC0058,-0.4315100908279419,-1.4169596433639526,-1.327336311340332,-0.26814547181129456,-0.805648684501648,0.49102306365966797,0.0674169510602951,-0.5993091464042664,-0.21144987642765045,0.4203621745109558,1.1339826583862305,-0.19640964269638062,0.46830400824546814,0.14854660630226135,-0.3037651777267456,0.34495341777801514,-0.3307691514492035,0.9393766522407532,-0.39508697390556335,0.5079774856567383,0.6894100308418274,0.49426981806755066,-0.14006729423999786,-0.6244606375694275,0.5878232717514038,-0.29880061745643616,-0.4091487526893616,0.44099652767181396,-0.4180760681629181,-0.31124347448349,-0.06946063786745071,-0.3570917248725891,0.738381564617157,-0.5545158386230469,0.015354502946138382,-1.2789506912231445,1.1156765222549438,-0.03556182608008385,-0.08764880150556564,-1.2676793336868286,0.09568832069635391,0.6460390090942383,-0.7256186008453369,-0.43402811884880066,1.2491989135742188,0.07576826959848404,-0.006145055405795574,0.43217501044273376,-0.27198243141174316,-0.16669562458992004,-0.08214380592107773,-1.1453860998153687,0.21287968754768372,-0.28675681352615356,-0.14580199122428894,-0.8974338173866272,-0.21116766333580017,0.3727385699748993,-0.10191012173891068,-0.1505575180053711,-0.8383750319480896,-0.7055974006652832,0.03166594356298447,-0.17021887004375458
TC0059,-0.4069429337978363,-0.995529294013977,-1.333158254623413,0.21784009039402008,-0.6858641505241394,1.0228564739227295,-0.1094636544585228,-0.7992825508117676,0.03144942969083786,0.9619295001029968,1.3387898206710815,0.16998682916164398,0.4191931486129761,-0.5245343446731567,0.8411892056465149,0.42370232939720154,-0.11564355343580246,0.6732060313224792,-0.3507142961025238,0.8440927863121033,1.2844854593276978,0.3037390112876892,0.3520769774913788,-0.9771885871887207,0.5301227569580078,-0.17375987768173218,-0.617073118686676,-0.06455551832914352,1.2794010639190674,0.5473371148109436,0.2237282693386078,-1.318265438079834,0.813148021697998,-1.0279819965362549,-0.030389446765184402,-0.923450767993927,0.3475671708583832,0.6150882840156555,-0.05329510197043419,-0.6338117122650146,-0.05726780369877815,-0.20887260138988495,-0.8851454854011536,0.38762855529785156,1.1105355024337769,0.4074411392211914,-0.12489906698465347,-0.49637269973754883,0.10346481949090958,-1.3044871091842651,-0.2024070769548416,-0.8458229899406433,-0.07837618142366409,-0.32850515842437744,0.3174637258052826,0.22827596962451935,-0.976749837398529,-0.13557715713977814,1.2767000198364258,0.1915966272354126,-0.22866769134998322,-0.9355442523956299,1.3381986618041992,0.19993078708648682
TC0060,-1.0661866664886475,-1.2218658924102783,-1.8845233917236328,0.2548231780529022,0.14771264791488647,-0.4883466064929962,-0.5634833574295044,-1.465372920036316,0.908440113067627,0.06060471013188362,1.4419772624969482,-0.4701969623565674,0.8598610758781433,-0.5446397662162781,-0.3191869258880615,0.6005222201347351,-0.22172728180885315,-0.2678945064544678,-0.20078837871551514,1.6725125312805176,1.2251533269882202,-0.6253963708877563,-0.13948222994804382,-0.9705801606178284,0.8875215649604797,-0.2370152622461319,-0.14465047419071198,1.3252549171447754,-0.21635554730892181,0.14809875190258026,0.9683545231819153,0.4033081829547882,0.8458380699157715,-1.973692536354065,-0.23425468802452087,-1.8984429836273193,0.329681932926178,0.7557010054588318,-0.4147505462169647,-0.030422784388065338,-0.43739721179008484,1.4820609092712402,-1.0728400945663452,0.18160127103328705,0.6449154615402222,-1.2389671802520752,-1.2465744018554688,-0.37140023708343506,0.8363881707191467,-0.9765467643737793,-0.21966469287872314,-1.4342559576034546,0.09705853462219238,-1.4145021438598633,0.935114860534668,-0.6869478821754456,0.2622058689594269,1.4452978372573853,1.2721526622772217,0.42167502641677856,0.16307049989700317,-1.9353976249694824,-0.6339775323867798,0.5332763195037842
TC0061,0.29764822125434875,-0.21069081127643585,-1.3254365921020508,-0.45800647139549255,0.37357303500175476,-0.036045145243406296,0.6665558218955994,-1.382749319076538,0.17086060345172882,0.5515169501304626,0.7692421078681946,-0.05321655422449112,-0.07233093678951263,-0.3524263799190521,1.0336098670959473,0.13056570291519165,-0.801513135433197,0.8218322396278381,-0.60303795337677,1.6140239238739014,1.8282963037490845,1.502018928527832,0.2323567271232605,0.19853752851486206,0.8171202540397644,-0.3595629632472992,-0.9390019774436951,0.006734574679285288,0.6022414565086365,0.8227149248123169,-0.45171916484832764,-0.6856882572174072,-0.7652348875999451,-0.8515700101852417,-0.3141114115715027,-0.6046530604362488,0.1405906230211258,-0.9060062170028687,-1.125382661819458,-0.3768177926540375,-0.6525461077690125,0.7397995591163635,-1.1164692640304565,0.3749966621398926,0.15639221668243408,1.2913994789123535,-0.18499723076820374,-0.45095086097717285,0.26794350147247314,-1.4193150997161865,-0.21070989966392517,-0.6379592418670654,-0.3545941412448883,0.09469461441040039,0.6984941959381104,-0.6770803332328796,-0.912811815738678,-0.10212956368923187,1.5138742923736572,-0.04008007049560547,-0.37848180532455444,0.0744471326470375,1.5538917779922485,-0.9024232625961304
TC0062,0.05059997737407684,-0.9499041438102722,-1.9002317190170288,0.23830559849739075,-0.3593881130218506,0.7607160806655884,-0.2968531847000122,-0.7117679119110107,-0.12061883509159088,0.9436741471290588,0.9296759963035583,0.35896173119544983,0.7356913685798645,-0.6949349045753479,0.4612700343132019,0.46480366587638855,-0.09687337279319763,0.6999738812446594,-0.21939855813980103,1.2116541862487793,1.351054072380066,0.2664051055908203,0.43551120162010193,-0.4064606726169586,0.17702162265777588,-0.7889391779899597,-0.7597541809082031,-0.27174055576324463,1.2373019456863403,0.8124019503593445,0.24344202876091003,-0.972714364528656,0.3014347553253174,-0.595463752746582,-0.12021879106760025,-0.5941454768180847,0.11232836544513702,0.5902013182640076,0.08785542845726013,0.18864135444164276,-0.2196464240550995,-0.23771929740905762,-0.6231624484062195,0.11400553584098816,0.7528685927391052,0.4044892191886902,-0.26597827672958374,-0.053704552352428436,-0.5782848596572876,-0.988944411277771,-0.3328326344490051,-0.60611492395401,-0.2093873769044876,0.13230909407138824,0.016172364354133606,-0.14608746767044067,-0.7668213844299316,-0.6709213852882385,1.1722402572631836,0.17127126455307007,0.36031457781791687,-0.2813361585140228,1.024751901626587,-0.34016478061676025
TC0063,0.6431397199630737,-0.9605924487113953,-0.654960036277771,-0.13597047328948975,-0.2257770150899887,0.16900107264518738,0.9908041954040527,-0.3841108977794647,-0.5791436433792114,-0.9938778877258301,1.4242241382598877,-1.0546072721481323,-0.4043606221675873,0.31778910756111145,0.3128466308116913,-0.4758407175540924,-0.36553817987442017,0.2561842203140259,-0.9935588836669922,1.2005616426467896,1.2350901365280151,1.474339485168457,0.7198166847229004,0.6094449162483215,0.6908993721008301,0.09215144068002701,-1.06740140914917,0.32504403591156006,0.48383980989456177,0.5500707626342773,0.01725674606859684,-1.3691657781600952,-0.4539273977279663,-0.24043460190296173,-0.7852676510810852,-0.9168158769607544,0.4254129230976105,-0.4197877049446106,-1.3770265579223633,-0.5553598403930664,-0.9490187168121338,-0.2763146162033081,-0.7373064160346985,-0.6807973384857178,-1.2423427104949951,1.0479401350021362,-0.7782478332519531,-0.0925493836402893,0.23076370358467102,-0.47467508912086487,-0.8006214499473572,0.37118592858314514,-0.16875937581062317,0.03299814090132713,0.7013910412788391,0.7711282968521118,0.18452976644039154,0.6110543012619019,0.40890568494796753,0.4032953679561615,-1.4914032220840454,0.656145453453064,0.735846757888794,-0.20499297976493835
TC0064,-0.5632086396217346,-1.70180082321167,-1.3433536291122437,0.053799018263816833,1.1151378154754639,-0.24208763241767883,-0.20356076955795288,-1.6092658042907715,-0.49884769320487976,0.2644808888435364,1.180029034614563,-0.21005168557167053,-0.2077305167913437,-0.7900093197822571,0.5070809721946716,1.6110223531723022,-1.4840490818023682,0.7286759614944458,-0.07926750183105469,1.119109869003296,1.908811092376709,0.8293157815933228,0.4407651722431183,-0.5181708931922913,-0.13090285658836365,0.6427212357521057,-0.5114670991897583,-0.08248698711395264,-0.10942374169826508,-0.405215859413147,0.22939960658550262,-0.42884036898612976,0.9092226028442383,-1.01961088180542,-1.1457197666168213,-1.4637022018432617,-0.005981880240142345,-0.1973104625940323,-1.2303091287612915,-0.9928444623947144,0.3887041509151459,0.7428521513938904,-0.9166355133056641,-0.686293363571167,0.16336551308631897,0.11203113943338394,-0.04230803996324539,0.8979139924049377,-0.18330202996730804,-1.7504568099975586,-1.097325086593628,-0.1804753690958023,0.0306008979678154,-0.6624475717544556,0.4460207521915436,-0.12209530174732208,-0.248543381690979,0.9149425625801086,-0.3515735864639282,-0.21288125216960907,-0.35047441720962524,-0.28943300247192383,0.4392860233783722,1.1370701789855957
TC0065,-0.06661666184663773,-0.8608956933021545,-0.7185577750205994,1.2589013576507568,0.7270004153251648,0.7999268770217896,-0.9677138328552246,-0.8075984120368958,0.7990239262580872,-0.09078279137611389,0.920822262763977,-1.5147757530212402,0.23185476660728455,-0.7533353567123413,-0.10571794211864471,1.2668582201004028,0.4932189881801605,1.2821388244628906,1.250403642654419,1.1211082935333252,1.123375654220581,1.00661039352417,0.794014036655426,-0.9263060092926025,-0.040219973772764206,0.8613238334655762,-0.11682198941707611,0.4980110228061676,0.9460844993591309,0.29775816202163696,0.7233133912086487,1.0060865879058838,1.8881667852401733,-0.4824363589286804,-0.3050841689109802,-1.0601155757904053,-0.22118611633777618,0.23450307548046112,-0.635208249092102,0.39695337414741516,0.13881756365299225,-0.3714866042137146,-0.7193560600280762,-0.24076111614704132,1.2361234426498413,1.1829495429992676,0.29378238320350647,0.12038728594779968,0.6555623412132263,0.6514241099357605,-1.5475475788116455,-0.2893476188182831,-1.3810540437698364,-1.8457908630371094,-0.5149964094161987,0.4636188745498657,-1.195395827293396,-1.0516002178192139,0.0876971185207367,-0.3008477985858917,-1.1666730642318726,0.5532618165016174,1.6616348028182983,0.12602758407592773
TC0066,-0.013127700425684452,-1.874605655670166,-1.779619812965393,-0.6213802695274353,0.05086643621325493,-0.09709276258945465,0.8744651079177856,-1.0554511547088623,-1.7210673093795776,-0.9386677145957947,1.5898501873016357,0.5693761110305786,0.20235079526901245,-0.8448135852813721,0.05955760180950165,0.6898384094238281,-0.6341041922569275,0.9598626494407654,-0.6000522375106812,0.3165207803249359,1.2037932872772217,1.670985460281372,0.9201235771179199,-0.276294082403183,-0.1163741797208786,-0.8823620676994324,0.41601139307022095,0.8087716698646545,-0.33966633677482605,0.7527055144309998,0.5038284063339233,0.2055865228176117,-0.5531114339828491,-0.4400053024291992,-0.3648865222930908,-0.9784741997718811,0.3862494230270386,-0.2822767198085785,-0.079025037586689,-0.5397616624832153,-0.5575732588768005,0.6020274758338928,-1.0970877408981323,-2.209545135498047,-0.868808925151825,0.7952306270599365,-1.1027518510818481,-0.5063490867614746,-0.3597056567668915,-0.5179408192634583,0.22704841196537018,0.584712028503418,0.6555290818214417,-0.20071004331111908,0.5544325113296509,1.2224301099777222,-0.5197425484657288,-0.023913977667689323,2.090158462524414,-0.0031710148323327303,-0.4706164598464966,0.08918679505586624,-0.19386185705661774,-0.27018916606903076
TC0067,0.17648199200630188,-0.33266645669937134,-0.582725465297699,-0.6314070224761963,0.4206162691116333,-0.4198475182056427,0.2083740383386612,-0.12063557654619217,-0.0696440041065216,1.1896734237670898,0.3039213716983795,-0.47763529419898987,1.9949883222579956,-0.8859941363334656,-0.03281298279762268,0.06811977922916412,0.08411987870931625,0.1747926026582718,-0.3497045636177063,1.9464505910873413,-0.6466755867004395,-0.3877451717853546,0.2902977168560028,-0.4814060628414154,0.8462724685668945,-0.41732192039489746,0.5741754770278931,0.23190245032310486,-0.23851828277111053,-0.29893752932548523,0.8935181498527527,0.8980876803398132,0.547123372554779,-1.7617655992507935,0.10121813416481018,-1.7672860622406006,0.09361973404884338,-0.40792039036750793,-0.9615157842636108,-0.0965489000082016,0.6154126524925232,0.5495481491088867,-0.2518692910671234,0.3077426254749298,-0.8991075158119202,-1.3686187267303467,-0.010546516627073288,0.6972907781600952,-0.7211390733718872,-0.4386489689350128,-1.5675081014633179,0.023420540615916252,0.44583940505981445,0.07776406407356262,1.8678674697875977,0.14951831102371216,-0.007376141380518675,0.6382193565368652,1.005591869354248,0.9438420534133911,0.4356805980205536,0.43154260516166687,-0.9979509115219116,0.643505334854126
TC0068,1.0716960430145264,-0.8267112970352173,-1.1860512495040894,0.5467848181724548,-1.1759120225906372,-0.22403037548065186,0.26253223419189453,-1.204306721687317,0.07264994084835052,1.3633795976638794,0.5928663611412048,0.8608989119529724,2.1761064529418945,0.640367329120636,0.3336259722709656,0.11473532766103745,0.4709414839744568,0.2290044128894806,1.0213849544525146,1.3386316299438477,0.22934645414352417,0.25936195254325867,0.2689867615699768,-0.4174371063709259,-0.2508417069911957,-0.2719906270503998,-0.841421902179718,0.14834512770175934,0.9871103763580322,0.6912949681282043,1.2290780544281006,0.27337461709976196,-0.7267714142799377,-0.7988583445549011,0.4887135922908783,-1.1944859027862549,-0.1457059383392334,-0.375079482793808,-0.917709231376648,-0.6533956527709961,0.34199655055999756,0.09042191505432129,-0.8629297614097595,0.20501302182674408,0.4504135549068451,0.9529013633728027,1.1715258359909058,1.0634708404541016,0.10343828052282333,-0.6591717004776001,-0.5844365954399109,-0.47468844056129456,-0.2064182609319687,-1.8345731496810913,2.1092031002044678,-0.06024540215730667,0.9331512451171875,0.5243091583251953,1.0072346925735474,0.40291261672973633,-0.05300502851605415,-0.00010875199950532988,-0.3211497366428375,0.45395827293395996
TC0069,-0.36022108793258667,-2.6952757835388184,-1.0985702276229858,0.197462797164917,-0.6864989399909973,0.9540279507637024,0.1836203634738922,-1.0276466608047485,-0.16297248005867004,-0.5289928317070007,1.6488927602767944,-0.5894235968589783,1.09242844581604,-0.10896854102611542,-0.7519492506980896,0.9526963829994202,0.3307151198387146,0.608833372592926,0.9730107188224792,2.0310328006744385,0.21439503133296967,-0.27793431282043457,0.42699652910232544,-1.8083381652832031,0.8704507350921631,0.16846342384815216,0.6074959635734558,-0.22691351175308228,0.5247823596000671,-0.08187881857156754,-0.5151917338371277,-0.5174936056137085,0.5836746692657471,-1.5552157163619995,-0.02785952016711235,-0.72364342212677,0.5589304566383362,0.5364710688591003,-1.287927508354187,-0.5131506323814392,0.30874955654144287,0.6096214056015015,-1.361242413520813,-1.0611830949783325,0.9011313915252686,0.11008662730455399,0.23611332476139069,0.3663952350616455,0.22159959375858307,-0.6223164796829224,-0.5507046580314636,-0.07703424245119095,0.36122623085975647,-0.9331130981445312,0.40433090925216675,-0.8621060252189636,-1.3678563833236694,0.11660569906234741,0.08265788853168488,-0.6886481642723083,0.21874631941318512,0.2596641182899475,-0.4053466022014618,0.44770464301109314
TC0070,-0.6084394454956055,-2.623441219329834,-1.3520582914352417,-0.0917675569653511,-0.39007440209388733,0.8217490911483765,0.29323604702949524,-0.46894514560699463,-0.6365563273429871,-0.2637995779514313,1.3043514490127563,-0.4904353618621826,0.9787390232086182,-0.270009309053421,-0.4946652054786682,0.7316756248474121,0.046848803758621216,0.846950352191925,1.6104145050048828,2.050035238265991,-0.02369445562362671,-0.352115660905838,-0.0316939614713192,-1.1710642576217651,0.6104610562324524,0.4255191683769226,0.3665293753147125,0.3427688181400299,0.9036667346954346,0.582888126373291,0.1441291868686676,-0.7913993000984192,0.8378011584281921,-1.3398804664611816,0.16097280383110046,-0.24546170234680176,0.30828148126602173,0.9763302206993103,-1.8422183990478516,0.39163270592689514,0.1150469034910202,0.7649577856063843,-1.6060558557510376,0.2600114643573761,0.6227293610572815,0.2998035252094269,0.3132348656654358,0.7964038252830505,0.5346858501434326,-0.3830586075782776,-0.7719010710716248,0.24189569056034088,0.7792616486549377,-0.7949333190917969,-0.6239932179450989,-0.9108863472938538,-0.7042348384857178,0.34986650943756104,0.10603579878807068,-0.22057844698429108,0.01377664040774107,-1.179059386253357,-0.17190253734588623,0.5468930006027222
TC0071,-0.7964814901351929,-0.6924251914024353,-0.6432430744171143,0.4323256015777588,0.11294429004192352,0.8521876931190491,0.5059283971786499,-0.9069561958312988,0.08955482393503189,1.3861480951309204,1.0956721305847168,-0.5398761630058289,0.9252251386642456,-0.19952262938022614,1.3443444967269897,0.9810331463813782,-0.4834537208080292,0.4305640459060669,0.838756799697876,0.5165597200393677,-0.053042516112327576,0.7420971393585205,-0.49515414237976074,-1.2370654344558716,-0.12299077212810516,-0.12688057124614716,0.589226484298706,0.07898372411727905,0.8033648729324341,0.8321080207824707,1.0257012844085693,-0.028976762667298317,1.441300868988037,-1.067702293395996,-0.40902602672576904,-1.075872540473938,0.19720791280269623,-0.9581599235534668,-1.391200304031372,-0.8888888359069824,0.7161900997161865,0.047290876507759094,-0.06745052337646484,-0.7084386944770813,1.336386799812317,0.41068235039711,0.9269348382949829,0.6323466300964355,-0.4386448562145233,0.08594188094139099,0.41529491543769836,-0.8538543581962585,0.9623844027519226,-0.774520993232727,0.15039627254009247,-0.18605361878871918,-0.4723372757434845,-0.18115055561065674,-0.3030722439289093,-0.21632720530033112,-0.872866690158844,-1.6181780099868774,0.5862464904785156,0.08777604252099991
TC0072,0.029057087376713753,-1.1614902019500732,-1.0162752866744995,-0.6136854887008667,-2.0956499576568604,0.1705903559923172,-0.6493557095527649,-1.486012578010559,0.6734976768493652,0.09190675616264343,0.865940511226654,-0.8246269822120667,0.3096543550491333,0.38428062200546265,0.07164571434259415,1.497707724571228,-0.3431927263736725,0.029869988560676575,-0.8750123977661133,0.7175902724266052,0.2904096841812134,0.4473497271537781,0.4406801164150238,-0.11169032752513885,-0.9098342061042786,0.42054957151412964,-0.11331474035978317,0.38307905197143555,0.33648818731307983,0.5008659958839417,-0.19016720354557037,-1.0433517694473267,1.818946123123169,-1.1305580139160156,0.5048040151596069,-0.7461897730827332,0.44585123658180237,-0.8311177492141724,0.041197795420885086,-0.7272759675979614,-0.9444372057914734,0.5275728106498718,-1.4828112125396729,-0.33097562193870544,0.44003182649612427,0.7152706980705261,0.47312384843826294,0.3044525682926178,-0.5664244294166565,0.6501094698905945,-0.23474794626235962,-0.43486472964286804,-0.9939658641815186,0.10458148270845413,0.2402976006269455,-0.5204727649688721,-0.6331976652145386,-0.8194416761398315,0.3088915944099426,0.42867958545684814,-1.3517420291900635,-0.6869756579399109,0.45906341075897217,-0.11785092949867249
TC0073,0.2470678985118866,-0.33781698346138,-2.8443613052368164,-0.09704674035310745,-1.207289695739746,-0.5299733877182007,-0.26422926783561707,-0.6978709697723389,0.7854650020599365,-0.3069821894168854,0.39510464668273926,0.32449543476104736,0.24568846821784973,-0.9647126793861389,-0.534619927406311,1.566967248916626,-0.42641761898994446,0.3334735333919525,-0.001049370737746358,0.28142249584198,1.2040598392486572,0.30624330043792725,0.5578569769859314,-1.014156699180603,0.16685768961906433,-0.15655840933322906,-0.019284449517726898,0.39642322063446045,-0.4604489207267761,-1.0026776790618896,0.21087118983268738,0.06353341042995453,1.4070860147476196,-0.9969078302383423,0.7669615745544434,-0.13471755385398865,0.021562596783041954,-0.5828511118888855,0.032248273491859436,-0.702538013458252,0.27178066968917847,1.251214861869812,-1.2980542182922363,-0.6453050374984741,-0.1295921951532364,-0.3302823007106781,-0.09885959327220917,0.43625152111053467,-1.6217844486236572,-0.43966346979141235,0.03300086036324501,0.1947709023952484,-0.7407069206237793,-0.3100844621658325,-0.2967154383659363,-0.030407359823584557,-0.21506674587726593,-0.2649227976799011,0.1550968587398529,0.9232686161994934,-0.39476141333580017,-0.2791191637516022,0.06438153237104416,0.6093671917915344
TC0074,0.06688173860311508,-0.7401739358901978,-2.7430806159973145,0.3116510212421417,-1.776244044303894,-0.45290324091911316,-0.3489774465560913,-0.7816243767738342,0.22519895434379578,-0.38877198100090027,0.3762842118740082,-0.12867026031017303,0.501331090927124,-1.384523868560791,-0.2784826457500458,2.3377151489257812,-0.5274550914764404,0.31211191415786743,-0.015357009135186672,0.5600192546844482,1.200414776802063,0.5008002519607544,0.7470170855522156,-1.8663562536239624,-0.05217909440398216,-0.12068745493888855,0.17948700487613678,0.651412844657898,-1.2786341905593872,-0.18644435703754425,0.7020258903503418,-0.43555930256843567,1.4347302913665771,-1.124403476715088,0.9923306107521057,-0.38214579224586487,0.09079506993293762,-0.7887234687805176,0.48022302985191345,-0.6596631407737732,0.14068585634231567,1.1787307262420654,-1.2332087755203247,-0.9526207447052002,-0.09726208448410034,-0.43358007073402405,-0.5155422687530518,0.39310169219970703,-1.9025832414627075,-0.510688066482544,-0.07164039462804794,-0.17827914655208588,-0.8006949424743652,-0.09926637262105942,-0.537361204624176,-0.08628544211387634,-0.3377436101436615,-0.2940877079963684,0.2826841175556183,0.646204948425293,-0.4911116659641266,-0.4981294572353363,0.38426530361175537,0.2854464054107666
TC0075,0.5521150827407837,-1.4677767753601074,-1.2170809507369995,0.046110719442367554,-1.7205069065093994,0.3620278239250183,-0.291797012090683,-0.6630582809448242,1.1746078729629517,-0.1303156167268753,-0.09203740209341049,0.31901106238365173,0.2350163608789444,0.03291964530944824,-0.08534754067659378,2.2606558799743652,-0.8040810227394104,-0.8729470372200012,-0.4692191779613495,-0.21039749681949615,1.2947416305541992,-0.11427899450063705,-0.30370453000068665,-0.7020089030265808,0.902437686920166,-0.7640830874443054,-0.02135077863931656,0.14691326022148132,0.36321353912353516,-0.9124553799629211,0.6940068006515503,-1.0907554626464844,1.1665223836898804,-0.95067298412323,-0.15912817418575287,-1.0093042850494385,1.367227554321289,0.2890300750732422,-0.42850860953330994,-1.6190639734268188,0.47858691215515137,0.6503372192382812,-1.560219168663025,-1.3153760433197021,0.9136656522750854,-0.20138581097126007,0.7121789455413818,0.4855351746082306,-0.7567039132118225,1.361231803894043,-0.15502411127090454,-0.1381068080663681,-0.29274317622184753,-0.10900501906871796,0.21244613826274872,-1.118915319442749,-0.9655712842941284,-0.45897844433784485,-0.8643795847892761,-0.13003802299499512,-0.3574586510658264,0.0069338493049144745,-0.5185518860816956,-0.22646614909172058
TC0076,1.1704272031784058,-1.5882973670959473,-0.3565431535243988,-0.6440090537071228,-0.7848998308181763,0.6846499443054199,-0.06444759666919708,0.09874725341796875,1.4018970727920532,-2.11844801902771,0.21485941112041473,-0.4222317934036255,0.5299246311187744,-1.4663232564926147,0.6011011600494385,0.37209200859069824,0.9233208298683167,0.03644745424389839,-1.4379510879516602,0.7551833987236023,0.21883957087993622,0.7457244396209717,-0.3140803277492523,-1.174606204032898,0.3583526611328125,-0.37274059653282166,-0.7208853363990784,-0.15010204911231995,-0.973122239112854,-0.36723506450653076,-0.21043816208839417,1.0478711128234863,0.15217158198356628,0.07573552429676056,0.9582551717758179,-0.79533451795578,0.2812664806842804,-0.08903377503156662,-0.9187489748001099,-2.1597900390625,0.11986913532018661,0.36800605058670044,0.6323038935661316,-0.27010536193847656,-0.0359075628221035,-1.4540170431137085,-0.8011659979820251,0.8805148601531982,-1.1009047031402588,2.5376760959625244,-0.6683787107467651,-0.4541500508785248,0.10209254920482635,-0.7119574546813965,0.28542661666870117,0.02414880506694317,-0.7684286236763,0.05014275759458542,0.474235862493515,-0.704332172870636,-0.2756626605987549,0.7838802933692932,-0.7078335881233215,-0.23500974476337433
TC0077,1.3588868379592896,-0.8406883478164673,-2.3573899269104004,-0.1816807985305786,-1.5687559843063354,0.9002062082290649,0.2869117558002472,-0.7402294278144836,2.1076724529266357,0.48365822434425354,0.8993961215019226,0.6873641610145569,-0.03933565318584442,-0.39983588457107544,-1.2843527793884277,-0.21187342703342438,-0.4745675325393677,0.20818836987018585,0.35853806138038635,1.4770565032958984,0.6286130547523499,0.10830623656511307,1.5309842824935913,-0.4091929495334625,-0.39002981781959534,-0.8351841568946838,-0.0827857181429863,0.24971207976341248,0.46317651867866516,0.28560957312583923,0.4812752604484558,-0.5106149315834045,1.7898945808410645,-0.6757535934448242,-0.6698781251907349,0.7291032671928406,0.23041565716266632,0.3513427674770355,-0.23901908099651337,-0.1351127177476883,0.1850462108850479,2.3901333808898926,-0.9261346459388733,-0.168003648519516,-0.07153493911027908,-1.5603889226913452,-1.3078012466430664,-0.935305118560791,0.45525968074798584,-0.1455300748348236,0.24256877601146698,-0.7317443490028381,-0.8623871207237244,-0.8679449558258057,0.2775897681713104,0.6002021431922913,0.6379568576812744,0.9042121171951294,0.7892975211143494,1.1750376224517822,-0.5727799534797668,-0.3508472740650177,1.045551061630249,0.5965422987937927
